1260 126
-0.383271 0.587558 -0.996955 -0.954449 0.533013 0.886121 -0.553255 0.481438 -0.515274 -0.835479 -0.667958 0.356718 -0.438146 0.612438 -0.805568 0.102186 0.558886 0.488994 0.828222 -0.475433 0.115679 0.754875 0.419437 -0.387137 -0.756670 -0.637776 -0.782195 0.388369 0.430720 0.072345 -0.994902 0.682327 -0.340097 -0.991858 0.727878 -0.807084 0.894263 -0.825378 0.674354 -0.621011 -0.660857 -0.993603 0.735707 -0.099003 0.618835 0.930139 -0.996817 0.177721 0.419133 0.831405 0.702289 -0.465188 0.586280 0.121726 0.147675 0.829610 0.483949 0.365480 0.217980 -0.085330 -0.562175 0.223077 -0.403004 0.097728 0.231219 -0.675126 0.290644 0.125482 -0.500504 -0.035001 0.504471 -0.161360 -0.028605 0.240179 0.739637 -0.409770 0.170318 0.742820 0.767952 -0.410549 0.574225 0.470241 0.124264 0.160505 -0.408034 -0.728062 -0.009884 -0.924084 0.637419 -0.791905 -0.009415 -0.924756 0.431173 0.587582 0.172972 -0.337608 0.912456 -0.536384 0.787874 -0.588048 0.428615 0.292346 0.250592 -0.599990 -0.467476 -0.009771 -0.009760 0.702842 -0.266951 -0.241808 -0.707707 -0.692726 -0.771567 0.416557 0.467780 -0.179601 0.688495 -0.542105 -0.103685 0.325914 -0.334009 0.886900 0.401158 -0.902837 0.474482 -0.425870 -0.240445 
0.386938 -0.452570 0.798890 -0.533640 0.839775 0.049482 -0.133630 -0.627700 -0.960290 0.856611 -0.924858 -0.227241 -0.385197 -0.632565 0.080033 -0.156764 0.783991 -0.452187 0.663634 0.472487 0.005708 -0.440051 -0.201599 0.671699 -0.553151 -0.800441 0.768863 0.921331 -0.226312 -0.471582 0.308268 0.811434 0.075848 0.107158 -0.722206 -0.084377 -0.843361 0.144165 0.287922 -0.803650 0.000775 0.363064 -0.030891 0.615578 0.730499 -0.950857 -0.541187 0.514490 -0.403044 -0.877552 -0.013023 0.602664 -0.317603 0.785378 0.274363 0.129246 0.984937 0.043226 0.050576 -0.241375 0.571644 -0.641156 -0.429941 -0.352508 0.466002 -0.152147 0.563115 0.622642 0.992018 -0.148963 0.818992 -0.007207 -0.785899 -0.211899 -0.391629 0.944600 -0.162757 0.067185 0.459090 0.434199 0.189633 -0.553933 0.036863 0.872029 -0.768555 -0.688773 0.001275 -0.783619 0.354453 -0.948148 -0.024994 -0.073903 -0.589304 0.545066 0.573589 0.876698 -0.607081 0.136704 0.499340 -0.615063 0.987741 0.318331 0.377730 -0.798158 -0.893568 0.986101 -0.853558 -0.056324 0.053286 0.605532 -0.622125 -0.757081 -0.948400 0.414738 -0.885052 -0.716955 0.725965 0.116223 -0.500574 0.080418 0.168075 0.474432 -0.993485 0.578771 0.019498 0.580104 -0.362918 
0.412417 -0.045191 0.797354 -0.295451 -0.726860 0.175084 -0.093609 -0.620428 0.161186 0.052833 0.323248 -0.785528 -0.341635 0.701123 -0.542610 -0.290035 0.115861 -0.427662 -0.006990 -0.158174 0.688561 0.492436 0.922244 -0.143364 -0.033132 0.928758 -0.564593 0.986366 0.508862 0.890876 0.398783 -0.774330 -0.154316 0.196137 -0.069782 0.118825 -0.628779 0.836609 0.498397 0.532406 -0.110558 -0.178355 0.746878 0.547808 -0.477232 -0.795732 -0.742227 0.638629 -0.223394 0.250782 -0.519545 -0.534832 -0.256782 -0.597302 0.321804 0.710086 -0.668543 0.757211 0.696452 0.840319 0.648086 0.095234 -0.934011 -0.506229 -0.708629 -0.003793 0.612595 -0.337408 -0.167183 0.110992 -0.805002 0.722259 0.932637 0.941876 0.270066 -0.544595 -0.853856 0.527839 -0.905966 -0.077249 -0.221379 -0.425512 0.387918 0.521839 -0.022813 -0.290278 0.231925 0.308644 -0.533067 -0.071624 0.148963 -0.884981 -0.976389 0.214952 -0.391210 -0.685019 -0.788841 -0.778615 -0.022427 0.043975 0.332377 0.172571 -0.233766 0.265014 0.114447 -0.963699 0.720419 0.260592 0.564140 0.814453 -0.816657 -0.657239 -0.611059 0.571261 0.864600 0.366128 -0.719017 0.096525 -0.325229 -0.252084 -0.975099 0.823734 -0.137065 -0.951488 0.038686 0.471725 -2.908173 
0.249845 0.341066 -0.706180 0.025486 -0.486362 0.060054 -0.709500 0.628085 0.096355 -0.989081 -0.111323 -0.339505 0.825372 0.072019 0.003255 -0.785687 -0.356720 -0.132145 0.580441 -0.075736 0.964380 -0.744787 0.672180 0.989281 -0.921053 -0.464885 -0.962207 0.117632 -0.993161 -0.598714 -0.632523 0.699949 0.742352 -0.338703 -0.274565 -0.744011 0.721351 0.015935 0.884074 -0.182294 0.026854 -0.227249 0.478201 -0.147774 0.844770 -0.518544 0.066539 -0.511950 0.349311 -0.353020 0.412314 0.313691 -0.097808 0.084494 0.302972 -0.018861 0.619608 0.340765 -0.901229 0.626448 0.742051 -0.533752 0.326396 0.484402 0.127545 -0.948169 0.740392 -0.151103 0.067766 0.624466 0.666603 -0.905380 -0.602783 0.144804 -0.053155 -0.758013 0.626260 -0.986616 -0.269962 -0.024428 -0.339636 -0.857648 -0.710737 0.562556 0.226845 0.592235 -0.456305 -0.153546 -0.067000 -0.357533 -0.527099 -0.324949 0.108715 0.799298 -0.840547 -0.763739 0.851129 0.899845 0.085158 -0.081106 0.524311 -0.248239 0.013514 0.921528 0.896565 0.960359 -0.836485 0.522825 0.973743 -0.106447 -0.501603 -0.365893 0.035904 -0.212340 -0.803337 -0.737251 -0.620104 -0.259641 0.109203 0.312896 0.382826 0.582105 0.987947 -0.508459 0.381402 -0.852600 -0.272198 
0.232531 0.812959 -0.848575 0.571556 -0.435280 0.164939 0.493084 -0.538715 0.125298 0.656599 0.984111 0.099041 -0.449848 -0.517492 0.733148 0.586056 0.270168 0.929811 0.848805 0.650064 -0.329830 -0.041992 -0.037040 -0.947004 -0.459887 -0.049093 -0.455463 0.921515 0.098307 0.272339 0.154046 0.145552 0.085298 0.305470 -0.282891 0.650019 -0.529591 -0.789807 -0.888696 0.595707 0.866792 -0.904585 -0.305253 -0.583057 -0.422077 -0.572105 -0.997001 0.848091 -0.642294 0.851804 0.498154 0.027877 -0.190188 -0.538886 0.080872 0.349925 0.412021 0.625409 0.271440 -0.489672 -0.102252 -0.574514 0.655881 0.983046 0.730956 -0.627011 0.633065 -0.798634 -0.416818 0.744369 0.797072 -0.550027 0.839784 -0.508180 -0.133084 -0.582293 -0.080285 -0.130085 -0.734203 0.277421 -0.278281 0.763952 -0.694702 0.531532 -0.774934 0.386170 -0.118543 0.637087 0.011580 -0.847102 -0.852585 0.909328 -0.421616 0.803296 0.892374 -0.690660 -0.823715 0.525439 -0.489294 -0.240533 0.269808 -0.692222 0.209440 0.109592 -0.200403 -0.923644 0.527299 0.719312 -0.053728 0.793096 -0.003267 0.667991 0.557047 0.302031 0.199523 0.782113 -0.311799 -0.919020 0.419200 0.699781 -0.766122 0.566616 0.609108 -0.187739 0.369911 0.501482 -1.569869 
0.546196 0.632307 -0.694337 -0.703271 0.940085 0.515103 0.406321 -0.260318 0.591460 -0.066380 -0.541006 -0.462269 -0.273285 0.455727 -0.794278 -0.716237 -0.242242 0.405245 -0.934124 0.445959 0.486226 0.485077 0.145740 0.720104 0.051692 -0.245152 -0.467635 -0.578397 -0.743670 0.653967 0.967800 0.283251 0.286274 -0.726537 0.579981 0.226359 0.788566 -0.013698 0.966041 0.380025 0.919921 -0.574965 0.917757 -0.353363 0.880762 -0.876521 -0.069600 -0.361480 0.528725 -0.003724 -0.915520 0.014950 -0.518647 0.230219 -0.264946 0.533045 0.985067 0.267419 0.954648 -0.758603 -0.078614 0.922448 0.524649 -0.792341 -0.804089 0.104629 0.434018 0.984477 -0.909069 0.400059 0.364502 -0.989148 0.825094 0.282259 -0.342511 0.705856 0.405738 0.587889 -0.655623 -0.065537 -0.415836 -0.571144 0.949413 0.065517 0.659076 -0.315533 -0.401438 0.644143 0.951886 -0.446790 0.885540 -0.126729 -0.524342 0.410189 0.080931 -0.328431 -0.485182 -0.485051 -0.343955 -0.394251 0.915008 -0.979453 -0.383399 0.740102 0.302806 0.274090 0.445959 -0.291456 -0.138021 0.790336 0.643007 0.446143 -0.780808 0.592420 -0.488340 0.878268 -0.723114 0.110222 0.522411 -0.771228 0.663432 0.407951 0.102044 -0.860910 -0.181860 -0.817025 -3.989503 
0.332959 0.466704 0.938708 -0.387068 0.487252 -0.444691 -0.646966 -0.209942 0.829400 0.798993 0.498602 -0.308622 0.589329 0.141608 -0.862478 0.808521 -0.265972 -0.350818 0.686789 0.010914 0.759404 0.209200 0.239686 0.422837 -0.382849 -0.658270 0.561927 0.435292 -0.475296 -0.627414 -0.231749 0.222628 0.839290 -0.293042 0.835560 0.326541 0.262268 -0.811406 -0.883401 0.091667 0.987588 0.615201 0.783045 0.576917 -0.243190 0.920567 0.385438 0.490837 -0.430251 0.072227 -0.498248 -0.670846 -0.718573 0.741438 0.751990 -0.101421 -0.916832 0.313917 -0.666130 -0.392127 0.686503 0.102121 0.830501 0.525792 0.809079 0.666061 -0.147666 0.071347 0.854655 -0.031067 -0.836986 0.842243 -0.415866 0.946059 0.419160 0.340944 0.866626 -0.195403 -0.168219 -0.563624 0.876824 0.333533 -0.234471 -0.841749 0.074971 -0.482480 0.056830 0.158139 0.831436 0.390700 0.766012 0.517939 -0.507179 0.596513 0.043731 -0.698100 0.262574 0.896065 0.373247 0.117229 -0.135002 0.536261 -0.040528 0.449133 0.482320 -0.621369 -0.209924 0.348947 0.183229 0.621857 0.785322 0.060053 -0.044610 -0.449148 0.218304 -0.969639 0.068371 -0.724866 0.188501 -0.100192 0.665834 -0.045488 -0.582253 -0.841345 -0.448975 0.461478 -1.212655 
0.813599 0.833802 -0.069172 -0.777458 0.370063 0.890300 0.671674 -0.147616 -0.731069 -0.538249 -0.798670 0.452160 -0.916392 0.986652 -0.487787 0.038998 -0.462496 0.730517 0.069359 0.605875 -0.994349 -0.742140 -0.494317 0.671485 0.212372 -0.076571 0.830140 0.763398 -0.615093 -0.709304 0.576996 0.742451 -0.875502 -0.492176 0.964993 0.494561 -0.601876 0.636667 -0.653055 -0.332945 -0.901582 -0.451725 -0.880785 -0.817974 -0.465073 -0.368572 0.221024 0.072431 -0.638055 -0.709617 -0.321694 -0.632404 -0.451757 0.183989 -0.960919 0.760615 -0.892582 0.869222 0.524012 -0.507675 -0.840083 0.101009 -0.765224 -0.715585 0.608833 -0.800231 0.778977 -0.993043 0.836436 -0.874078 -0.325987 0.934853 -0.325803 -0.206772 -0.883121 0.209124 0.424656 0.337903 -0.718444 0.786602 0.628285 -0.040138 -0.845802 -0.823472 -0.856150 -0.806720 0.937143 -0.748732 -0.937499 0.461155 -0.256406 -0.777582 -0.437836 -0.021631 -0.493166 -0.829003 0.178138 -0.714189 -0.822045 0.014574 -0.588267 -0.148033 -0.050573 0.085930 0.645195 0.066306 -0.704946 0.069852 -0.595791 -0.423391 -0.143547 -0.967506 0.536471 0.010651 -0.790978 0.680322 0.203931 -0.853835 0.931590 0.266432 0.607320 -0.324817 0.488851 -0.830515 0.653553 0.995685 -4.459680 
-0.168309 -0.481563 0.846265 -0.306772 0.370404 -0.204308 0.779157 0.015599 0.861998 -0.925789 -0.914549 -0.733794 -0.349179 -0.058096 -0.701300 -0.812708 0.952556 -0.492278 0.867613 0.156487 -0.346113 0.799203 -0.577081 -0.738792 -0.525613 0.911769 -0.569307 -0.872060 0.907454 -0.228825 -0.040369 -0.811051 0.289611 -0.194105 -0.117823 -0.339985 0.601587 -0.338665 0.675614 0.463584 -0.264454 0.761065 0.729791 0.386367 -0.297031 -0.971509 0.573659 -0.344475 -0.463787 0.441272 0.812012 0.190101 0.240475 -0.765070 0.451308 0.714862 -0.853300 0.882001 0.842802 -0.945846 -0.346824 -0.197568 -0.756897 0.942787 0.608328 0.125280 -0.397198 0.209914 0.786615 -0.721584 -0.326501 -0.477839 -0.960519 -0.596711 0.908528 -0.257550 -0.568220 0.482186 0.397975 -0.032007 -0.076542 0.209987 -0.841906 -0.836067 0.444917 0.609402 0.878795 0.591617 0.491403 0.721597 0.645771 -0.855421 -0.475970 0.888874 -0.912635 -0.867643 0.014154 -0.309833 0.342272 -0.199231 -0.031417 -0.984230 0.322930 0.008064 -0.580940 0.231458 0.750515 -0.149160 -0.286356 0.148490 0.818833 0.637102 -0.641523 0.976927 0.801035 0.803394 0.586329 0.679831 0.395011 0.077732 0.401428 0.040781 0.222311 0.925458 -0.070345 0.309676 -0.942185 
0.943809 0.400087 -0.255422 -0.031573 0.415857 -0.932492 0.976491 0.834917 0.298966 0.727006 -0.314243 -0.987390 -0.124504 -0.495410 0.649712 0.233973 -0.518484 0.450747 0.037366 -0.932155 0.130578 -0.567623 0.145577 -0.467994 0.473158 -0.632112 -0.542536 -0.597187 0.677564 -0.484721 -0.653378 0.677408 0.915365 0.091200 -0.354165 0.331222 0.158708 -0.377674 0.166139 -0.542326 -0.650668 0.851895 -0.529716 0.224828 -0.643515 -0.880005 -0.541199 -0.161999 0.570742 0.496167 -0.094153 -0.298680 0.928544 -0.948576 0.233326 0.401702 -0.580687 0.690790 0.804515 -0.903123 -0.793932 -0.848863 0.774285 -0.878567 0.242338 -0.579880 0.452656 -0.598954 0.042446 -0.381205 -0.141280 0.391778 -0.529310 0.329004 -0.383393 -0.172825 0.448999 0.075408 0.665177 0.019742 -0.428425 -0.428976 0.721062 -0.499881 -0.377552 -0.045612 0.901821 0.041760 -0.354823 0.706336 0.138637 -0.148755 0.857473 -0.087078 -0.027321 0.099811 0.333042 -0.574666 0.500857 -0.624512 0.044129 -0.640423 0.767266 0.514819 0.688582 -0.616128 -0.658006 0.137581 0.459280 -0.992829 -0.842677 -0.969145 -0.421805 0.878384 -0.469027 0.200643 -0.167228 -0.567206 -0.757597 0.477949 -0.860870 0.381040 -0.670806 0.996603 -0.706038 0.301873 -3.703747 
0.627004 -0.402729 -0.997508 -0.228664 -0.043151 0.769758 -0.713845 -0.354570 -0.846370 -0.371850 0.783011 0.612910 -0.364679 0.940334 0.643765 0.213516 0.818718 -0.825261 -0.585842 -0.348510 -0.392467 -0.343439 -0.870561 -0.253337 -0.962399 -0.541367 -0.256733 -0.668436 0.760505 0.839681 0.958568 0.487713 -0.563048 0.961060 -0.740951 0.393801 0.730818 -0.454796 -0.960768 0.884449 0.173354 0.822243 0.497359 0.808675 0.762577 0.141124 0.022190 0.581295 0.315863 0.436348 -0.767215 0.923395 -0.907091 -0.637776 -0.329941 -0.869489 -0.179144 0.413325 -0.537925 -0.418638 0.253006 -0.579357 -0.930926 0.689959 -0.618297 -0.671877 0.083760 -0.887479 -0.126673 0.122992 0.996970 -0.953319 -0.054765 0.494329 0.855355 -0.292188 -0.364547 -0.122454 -0.710893 0.951316 -0.686106 -0.478108 0.874711 -0.593197 -0.115884 -0.455230 -0.462686 0.704972 0.958095 -0.000611 -0.713666 0.211101 0.420032 -0.644591 -0.098940 0.801735 -0.316468 0.984820 0.914256 0.556859 0.107812 0.911226 0.603540 -0.946953 0.405555 0.458895 -0.239141 -0.958992 -0.663559 0.049967 0.992324 -0.349665 0.571859 0.867035 0.057138 -0.544025 -0.588195 0.594452 -0.839053 -0.630100 -0.406159 -0.552718 0.581001 -0.986127 -0.197310 -0.517939 -2.806337 
0.486222 0.729863 0.043081 0.574693 0.641089 -0.353379 0.627740 0.046644 -0.894484 -0.611401 0.087652 -0.558044 0.438566 0.079976 0.092291 0.010425 -0.052989 -0.850571 0.466400 0.358816 0.743881 0.627347 0.728715 -0.662278 -0.925371 0.309716 -0.648405 -0.122681 0.791777 -0.832798 -0.636459 -0.741342 0.897065 0.406622 0.833351 0.538154 -0.946757 0.461091 -0.415202 -0.841242 0.849690 0.672450 -0.399286 0.288256 -0.247574 0.693005 -0.701319 0.699437 0.842434 0.765081 0.058253 0.586315 0.392428 -0.213032 0.924037 0.467057 -0.903316 -0.724368 -0.655625 0.888461 -0.557166 -0.292084 -0.852881 -0.660101 -0.885462 0.980470 0.878053 -0.832219 0.441561 -0.537149 -0.673461 0.291252 -0.864698 -0.072747 -0.420492 -0.112272 -0.379742 -0.121811 -0.412835 -0.537307 -0.356730 0.645418 -0.950992 -0.964302 -0.567615 0.973045 0.502755 -0.470931 -0.751323 0.847130 -0.582470 -0.308489 -0.444953 -0.435351 0.031410 -0.330415 -0.454881 -0.090537 -0.162634 0.986681 0.372314 0.163904 0.277932 0.507615 -0.908842 0.857440 -0.604657 -0.288584 -0.264371 -0.017492 0.174109 0.378900 -0.372074 0.223116 0.414598 0.060311 0.196161 -0.082647 0.589380 0.444838 -0.235517 -0.993089 -0.863651 0.319530 -0.428440 0.167759 -0.440871 
0.116680 -0.173520 0.103360 0.449535 0.990384 -0.618708 -0.042850 -0.918458 -0.761268 0.352493 -0.207042 -0.025638 -0.664999 0.967067 -0.646738 -0.037073 0.190183 0.767860 -0.976762 -0.613656 -0.314787 0.612618 0.831183 0.449696 0.619529 0.967532 -0.230774 -0.808911 0.135290 -0.241660 0.307769 0.212512 0.584820 -0.588871 -0.337953 0.575204 -0.207578 0.619197 0.656746 0.031154 -0.028310 -0.550296 -0.994484 0.306691 -0.583229 -0.641222 -0.730382 0.606954 -0.873362 -0.707144 0.993298 -0.188150 0.905474 0.824481 -0.738454 0.525003 0.792013 0.030772 0.716093 -0.072697 0.789112 0.023862 -0.860185 0.373932 0.434991 -0.198139 -0.050863 -0.772587 -0.578942 -0.394117 0.258567 0.392748 0.055587 0.264083 -0.300561 0.472359 0.622860 -0.030942 0.079313 0.749498 0.261914 0.072611 -0.438652 0.167388 -0.102908 -0.177105 -0.307608 -0.310895 0.853667 -0.591516 0.616408 0.642779 0.432346 0.756223 0.016711 -0.132663 -0.441916 0.965848 0.094750 -0.020858 -0.428269 -0.646683 -0.628110 0.627318 0.617399 0.071330 0.099677 0.240260 -0.959613 -0.821011 -0.010242 0.302301 0.251600 0.551106 -0.530310 -0.851307 -0.625999 0.162081 -0.162202 -0.772333 0.570565 -0.545794 0.870446 0.002911 -0.789571 -0.112842 -2.345026 
-0.231487 -0.035002 0.747655 0.424736 0.318315 -0.880455 0.052054 -0.064286 0.190875 -0.848269 -0.824026 0.231262 -0.669280 0.165732 -0.466436 0.582321 -0.283162 0.003253 0.731014 0.090838 -0.834666 -0.431189 0.318506 0.735900 0.023017 0.188952 -0.261189 0.233446 -0.923890 -0.390940 -0.998042 -0.070885 0.574058 0.749613 -0.646149 -0.107627 0.869158 0.405906 0.828087 0.060033 0.557637 -0.995939 -0.708704 0.888357 0.169793 -0.175141 0.470678 0.886631 0.828112 0.201691 -0.022531 0.993446 0.770503 -0.704025 0.729346 -0.206480 0.484928 -0.531843 -0.973035 0.561037 0.077217 -0.971076 -0.509847 -0.348725 0.778537 -0.155996 0.543648 0.647696 -0.750090 0.371735 -0.292271 0.807546 0.375797 -0.000976 0.695903 -0.454410 0.823883 0.166581 -0.567779 0.651996 -0.631727 0.409690 0.645442 -0.861225 0.705665 0.374788 -0.067705 0.190593 0.842946 -0.040740 -0.248370 -0.079837 -0.011816 0.241783 0.571437 -0.233279 -0.914213 0.115085 -0.585584 -0.664304 -0.513179 0.122145 -0.856757 0.862618 -0.878831 0.839146 -0.591793 0.945053 0.005727 -0.159572 0.597049 0.374000 -0.749882 0.242491 0.512775 0.955783 -0.382721 -0.554930 0.146376 -0.539775 0.404330 0.898006 0.380387 -0.607487 0.139788 -0.048175 0.159232 
0.225575 0.573650 0.561271 -0.446269 -0.304205 0.704514 -0.583652 -0.183035 0.543660 -0.175444 -0.237982 -0.450613 0.664984 -0.640934 0.923387 0.915102 0.601557 0.436162 0.870885 -0.781164 0.881231 0.017261 -0.320939 0.285561 -0.084734 -0.940552 0.678074 -0.944945 0.011272 -0.162692 0.280630 0.078182 -0.589042 -0.158099 0.631913 0.106754 -0.453585 -0.951738 0.923719 -0.909925 -0.127183 -0.314264 -0.360538 -0.462199 0.044803 -0.437152 -0.547097 -0.353640 0.999010 -0.676212 -0.134804 0.880241 0.341048 0.544257 0.165802 -0.743685 0.603704 -0.156124 -0.688631 -0.385023 0.681184 0.591999 0.693159 -0.907858 -0.566100 0.325073 0.198896 -0.019684 0.373334 0.122614 0.070390 -0.753848 0.808351 0.709852 -0.216047 -0.146846 -0.727300 0.236856 0.499513 -0.728290 0.560644 -0.635291 -0.848049 -0.098308 0.908966 0.317753 0.158006 0.512670 -0.838371 0.469376 -0.872353 0.842812 0.061375 0.820807 0.934955 0.495275 0.145879 0.133850 -0.524409 -0.480786 -0.743535 0.545981 -0.234634 -0.935184 0.255833 0.549319 -0.082031 0.528534 -0.213825 -0.582517 0.800244 -0.653181 -0.217808 0.952195 0.248511 -0.308842 0.269948 -0.593483 -0.796171 0.431576 0.875893 -0.668524 0.274389 -0.062732 -0.847717 0.209343 -0.567466 
0.298162 -0.091866 0.817376 -0.400342 -0.545885 -0.417258 -0.335526 0.709949 -0.867939 0.582444 0.238482 -0.081764 0.999926 0.038726 0.265054 -0.217881 -0.009079 -0.486435 0.473277 -0.739132 -0.079918 0.677106 0.692445 -0.204026 -0.991418 -0.033167 0.733242 -0.839135 -0.823824 -0.834215 0.459027 -0.480630 0.073919 0.276403 0.119028 0.528034 0.859145 0.783502 0.237983 0.991205 0.365946 -0.523535 -0.090559 0.365872 0.515191 -0.825505 -0.852009 -0.493888 -0.311940 0.621268 -0.233020 0.608141 0.298374 -0.540575 -0.595884 0.306956 0.426258 -0.862642 0.467820 0.602434 -0.696857 -0.073153 -0.878196 0.377062 -0.796750 0.240832 -0.094903 -0.937605 0.024335 -0.856920 -0.946400 -0.609719 -0.380455 -0.036959 0.756153 -0.865264 0.137536 0.904144 -0.359152 0.825595 0.525412 0.407828 0.433737 -0.176214 0.867253 0.837853 -0.869259 0.293511 0.975211 0.598562 -0.104055 -0.721646 -0.474591 0.017750 0.655416 -0.271341 -0.741418 -0.439487 -0.208946 0.282917 -0.296408 -0.155346 0.673197 0.323137 0.807695 0.429350 0.457873 -0.054770 0.333494 -0.901279 -0.229174 -0.141094 0.506550 -0.795437 0.682692 0.373803 -0.957585 0.813433 -0.332686 -0.982374 0.411995 0.563260 -0.704020 0.937404 -0.418991 0.951396 -0.333936 
-0.160409 0.457118 -0.877492 0.215501 -0.698228 0.795705 -0.461362 -0.890534 0.225055 0.996511 0.054696 -0.441451 -0.904768 0.825522 0.417455 0.601782 -0.969915 0.100147 -0.024415 -0.927500 -0.086420 0.642899 -0.909874 -0.674424 0.206159 -0.613894 -0.737020 0.787168 -0.662498 -0.070956 -0.373241 -0.150589 -0.613839 -0.250733 -0.935089 -0.312067 -0.455028 -0.396451 -0.202601 0.770027 -0.399940 0.852096 -0.671424 -0.304708 0.677618 0.746031 -0.702926 0.707702 -0.153821 0.272659 0.780202 0.759759 -0.084442 0.870328 -0.914665 -0.878283 -0.743566 -0.651686 0.908885 -0.406064 0.277358 -0.464356 0.443347 0.663519 0.284910 0.508258 -0.648548 0.829882 -0.888193 0.148852 0.599909 -0.288133 0.000947 0.928485 0.407159 -0.321435 0.674516 0.704234 -0.613733 -0.479305 -0.023108 -0.833531 -0.719546 0.892450 -0.963203 -0.634212 -0.985833 -0.706769 -0.285897 0.923052 -0.112833 0.991461 -0.541305 -0.669486 0.654980 0.743606 0.838772 -0.993567 0.573488 0.950580 0.155284 0.173396 -0.337553 -0.843769 0.101881 -0.930394 -0.165204 -0.223603 0.773840 0.221063 0.297092 -0.249268 0.387531 0.577546 -0.356817 0.424328 0.943334 -0.342650 0.717559 -0.342564 -0.419599 -0.395274 -0.351103 0.039096 -0.064760 -0.696123 -1.485858 
-0.225987 -0.643811 -0.275408 0.465594 0.529586 0.387039 0.621826 -0.368533 0.456645 -0.543378 0.407864 0.230485 0.677684 -0.295044 0.981218 0.065215 -0.717498 -0.375600 -0.510456 -0.774165 0.281750 -0.792897 -0.116728 0.862151 -0.188171 0.532169 -0.098753 0.747070 0.836047 0.683949 -0.478918 -0.853643 -0.959862 0.245675 0.611951 0.569724 -0.367286 0.233777 -0.798809 -0.910641 0.690398 0.609055 0.319844 0.368082 -0.685990 0.301062 -0.566702 -0.403488 0.925462 -0.077159 -0.177653 0.207212 0.129944 0.705619 0.069363 0.941774 0.237788 0.970610 0.688843 0.073835 0.654559 -0.790075 0.220191 0.694697 0.455600 -0.167858 0.264421 -0.911686 -0.934081 0.465611 -0.822327 0.756317 0.074666 0.497517 0.124399 0.388676 -0.201422 0.557697 0.985188 -0.275960 -0.519461 -0.192464 0.931252 0.610483 -0.486845 0.000615 0.552256 0.750943 -0.028776 0.241100 -0.175222 -0.374217 0.451025 -0.955031 -0.679520 -0.093375 -0.122889 0.584901 -0.005061 -0.056970 0.050512 0.172611 -0.300652 -0.874822 -0.329872 0.823747 0.513854 0.468707 0.381444 0.499043 -0.807253 0.861983 -0.693421 -0.876001 0.472466 -0.180266 0.124614 0.024723 -0.429323 -0.904162 -0.734178 0.395454 -0.278379 0.716847 0.440423 0.042101 -3.185577 
-0.682465 0.618411 0.260565 0.677513 -0.208977 0.959913 0.802691 0.461151 0.783660 0.316545 -0.070143 0.165104 -0.184412 0.122604 0.027088 0.122167 0.246603 -0.500446 0.941901 -0.628784 0.524276 -0.487423 -0.532946 0.790098 0.908031 0.188675 0.506946 0.348455 -0.769225 -0.869582 0.665989 -0.142223 0.748829 -0.073445 -0.464710 -0.460148 -0.113532 -0.662019 -0.998998 -0.329872 0.654526 -0.069140 0.835232 -0.529885 -0.946536 -0.137680 0.592282 0.300067 0.361873 0.534182 0.671283 -0.113850 -0.953241 -0.861663 -0.323752 0.954790 0.327012 -0.816806 0.303245 0.557788 -0.686388 -0.030766 -0.584436 -0.937559 0.895789 -0.049146 -0.397707 -0.217743 0.288835 -0.396705 0.452385 -0.056639 0.534155 0.287617 0.413475 0.587619 -0.850063 0.005757 -0.112315 0.511810 -0.460061 -0.441032 -0.602041 -0.413302 -0.302695 0.074207 -0.458511 -0.975682 0.257401 0.844734 0.582105 0.571012 -0.186032 0.997669 0.633454 -0.290243 -0.051477 -0.764254 0.492014 -0.762642 -0.160958 -0.055602 0.180719 -0.626803 -0.767985 -0.405806 0.960816 -0.618048 0.599951 -0.151499 0.893762 -0.860110 0.407469 -0.708279 -0.273412 -0.895226 0.365928 0.268077 -0.870908 -0.376671 0.112810 0.711197 -0.805659 0.926778 0.708866 0.827795 -4.163626 
-0.342610 -0.871451 -0.105253 -0.097417 0.072948 -0.924534 0.275780 0.304963 -0.330340 0.236596 0.686914 -0.730389 -0.914903 0.580676 -0.590499 0.492565 0.872397 0.136090 0.597340 0.238325 -0.595833 0.726431 0.861654 0.516977 0.437628 -0.944004 0.443755 0.146494 0.883791 -0.919709 0.803884 0.947332 -0.791160 -0.301369 -0.150084 0.281787 -0.225903 -0.874304 -0.413250 0.443758 0.362292 -0.726335 0.713369 0.447389 0.854341 -0.877130 -0.060046 0.726738 0.258960 -0.462706 -0.034937 0.663127 -0.736275 -0.173283 0.180104 0.701353 -0.117287 -0.376141 -0.152152 -0.233496 -0.295850 -0.348268 -0.286164 -0.087011 0.350363 0.563752 -0.805223 -0.875540 0.689448 -0.218473 0.568218 0.051740 0.055191 0.281587 -0.500872 -0.090468 0.404457 0.439083 -0.363730 -0.336583 0.976377 0.601333 -0.673456 -0.759898 -0.571950 0.506648 0.941455 0.310762 -0.869494 -0.210697 -0.922734 -0.165344 0.441034 -0.208898 0.747645 -0.208602 -0.645147 0.942422 -0.084142 -0.955699 -0.276051 -0.515924 0.096041 0.779140 0.765663 0.595169 -0.311327 0.170120 0.034252 0.324942 0.833538 0.010628 -0.073725 -0.839919 0.250730 0.354324 0.666729 0.192185 -0.334913 0.797235 0.981488 -0.257647 -0.368109 0.422522 0.533455 -0.620463 -0.786083 
0.888308 0.129778 0.932609 0.045908 0.613854 0.028650 -0.174951 0.379517 -0.376181 0.513721 -0.450363 0.658071 -0.161337 -0.616826 -0.331300 0.764938 -0.456744 0.919430 0.119262 -0.790015 0.111615 0.784349 -0.992780 0.093103 -0.473298 -0.360888 -0.484375 -0.939844 0.018649 -0.270455 0.948464 0.340608 0.859323 0.881074 -0.613484 0.473177 -0.090277 0.211564 -0.147307 0.533543 -0.274715 0.402330 0.191614 0.563949 0.785505 0.860313 0.328886 -0.671239 0.779743 -0.551851 -0.461254 -0.108642 -0.767503 -0.454034 0.984460 -0.240801 0.185078 -0.499915 -0.180645 -0.796273 0.229630 -0.232180 0.544334 0.088953 -0.351107 0.930850 -0.437871 0.558617 0.142415 0.414822 0.092159 0.867700 -0.182847 -0.716227 0.431648 -0.397343 -0.855914 -0.239465 -0.068582 0.923829 0.208683 0.470164 -0.184814 0.441181 -0.983870 -0.200353 -0.799620 0.201207 0.299732 0.019735 0.404934 -0.470638 0.787555 -0.050732 0.618314 -0.563551 -0.119881 -0.819556 0.995065 -0.977467 0.595266 0.087225 0.890233 -0.587581 0.370998 0.321882 0.015076 0.515084 -0.917584 0.946494 0.438913 0.291100 0.416658 -0.745901 -0.267720 0.432787 0.053746 -0.067340 -0.366005 -0.646522 0.952395 -0.961071 -0.117161 0.739951 -0.011803 -0.498846 -3.514032 
0.868316 -0.828536 0.890849 -0.723137 0.258689 0.781082 -0.310718 -0.370313 0.102964 0.704358 -0.855230 0.185380 0.650852 0.583683 -0.523520 0.067510 0.837782 0.208760 -0.499703 -0.108472 -0.858580 0.134291 0.245006 -0.906185 0.173220 -0.872155 0.833766 -0.838583 -0.371001 -0.989835 -0.970267 0.310596 -0.818371 0.920582 0.587459 0.440318 0.701665 -0.723259 -0.929995 -0.195371 0.981099 -0.785225 0.990009 0.631951 0.798458 -0.533512 -0.300540 0.636241 0.675248 0.199757 -0.472231 0.816668 -0.665951 0.772775 0.910484 0.507269 0.900620 0.744250 0.668686 -0.470381 0.754415 0.698419 0.840215 0.936044 0.619002 0.427674 0.376363 0.320667 0.704415 0.446368 -0.874705 0.685513 0.661143 -0.884696 0.317464 0.459601 -0.418207 -0.983076 0.095842 -0.742959 0.216681 0.623611 -0.926291 0.550730 0.396386 0.984193 0.057999 0.297007 0.728443 -0.273315 0.826626 0.482858 -0.574895 0.666841 0.418903 -0.955893 0.094515 -0.204735 0.364773 -0.201071 -0.758367 0.490069 -0.515557 0.902776 0.605373 0.801907 0.362377 -0.812835 0.818831 -0.541781 -0.555794 0.035512 -0.918170 -0.482084 -0.413757 0.478216 -0.497891 0.644241 -0.224777 -0.769448 -0.629074 -0.398152 0.713411 -0.203969 -0.731311 0.132314 -2.001149 
0.363204 -0.795089 -0.837867 -0.830788 0.694979 -0.353424 -0.928012 0.300352 -0.551518 0.434365 0.487517 -0.732686 0.892583 0.931724 0.302826 0.974413 -0.550361 0.889069 0.452629 -0.048251 0.533310 -0.772148 0.182301 0.904236 -0.170300 -0.104288 -0.299733 0.098389 -0.971975 0.540405 -0.538407 0.955604 0.745316 -0.376274 -0.875184 0.440295 0.270301 -0.803196 -0.259353 0.718784 0.631169 -0.771835 0.986097 0.523752 -0.840112 0.288923 0.498165 -0.390472 0.177992 -0.049206 0.561276 -0.288698 0.178646 -0.256423 -0.384462 -0.991654 0.639289 0.315806 0.106735 0.667315 -0.143789 0.568328 0.622919 -0.398474 -0.807946 0.747736 -0.958178 0.462355 0.944540 -0.217531 0.181139 0.575708 0.010634 0.167237 0.099460 0.170522 -0.543840 -0.402374 0.780050 0.634152 0.548420 0.341326 -0.654546 -0.272934 -0.915097 -0.039008 -0.264588 0.724193 -0.723202 0.842148 0.391507 0.133008 0.410476 0.014427 0.734535 0.602530 -0.237838 0.776356 0.064885 -0.293298 -0.441175 -0.753975 -0.717590 0.569459 0.413261 0.381871 -0.260019 0.869422 0.979497 -0.479969 0.503574 0.527916 0.861357 0.849027 -0.745018 0.946260 -0.189981 -0.009605 0.670453 0.086817 -0.167458 0.061960 -0.780175 -0.756982 -0.923613 0.954360 0.845549 
-0.161451 -0.089566 0.545251 -0.710458 0.156459 0.827661 0.859000 -0.430280 0.209532 -0.401019 -0.560858 0.189029 0.119012 0.942715 -0.283055 -0.019631 0.791743 -0.028073 -0.073371 -0.398238 0.962322 -0.402919 0.688579 -0.205135 0.659041 0.908405 0.037883 0.735428 0.862765 -0.116568 -0.426023 0.593481 0.793865 -0.880772 0.883023 -0.049676 0.946889 0.742023 0.520044 0.156421 -0.658996 0.959186 -0.654550 0.460016 0.901901 0.062395 -0.559615 0.693644 -0.965678 0.367014 -0.704594 0.996644 0.964095 0.983986 -0.208491 0.623136 0.892390 0.829392 0.358565 0.755155 -0.287176 0.932541 0.348636 -0.493311 -0.948231 0.231659 0.457013 0.998658 -0.026318 -0.022942 0.155079 0.314686 -0.063756 0.500529 -0.225298 -0.161855 -0.437076 0.215087 -0.468211 -0.402754 -0.417899 -0.172804 -0.406109 -0.453804 -0.188819 0.385400 -0.830668 -0.296429 0.214792 0.527897 -0.541274 0.927615 0.460438 0.807362 -0.565696 0.512207 0.039021 0.891318 0.510865 -0.987297 -0.131625 -0.334055 0.327389 0.804619 -0.833526 -0.897908 -0.357236 -0.270602 0.317179 0.174553 0.326644 0.899280 -0.998251 0.920535 -0.554524 -0.187070 0.305935 -0.385192 0.516501 -0.479274 -0.857295 0.975228 -0.551658 0.603143 0.782590 -0.117354 -3.440791 
-0.178389 -0.373784 -0.165686 0.642339 0.292160 -0.838297 0.446958 0.458634 -0.736205 -0.910278 -0.811969 0.580974 0.264276 0.514675 0.480253 0.266025 0.435210 0.925729 -0.921045 -0.258855 -0.459463 0.595456 0.261871 -0.316759 0.570684 0.710213 -0.713616 0.353274 -0.407141 0.401735 -0.825115 0.366823 -0.972050 0.009200 0.009163 0.320111 0.170903 -0.543879 -0.221256 0.434698 -0.454156 -0.033224 0.015672 0.810119 -0.518549 -0.504075 0.076144 0.916661 -0.578346 0.155099 -0.342194 -0.037809 -0.249445 0.919677 0.645432 -0.678762 0.629890 0.931817 0.674512 -0.777251 0.333552 0.849398 0.589573 0.361502 -0.141403 -0.401264 -0.318387 -0.970500 0.054857 0.460357 0.464198 0.600700 -0.572868 -0.520130 0.410820 -0.091417 -0.024205 -0.513036 -0.174756 0.397449 0.642062 0.483050 -0.640360 -0.607383 0.402727 -0.994927 -0.286145 0.032616 0.936890 -0.611633 0.255366 0.270441 -0.762235 -0.155062 -0.368057 0.096362 0.443674 0.313556 0.125863 -0.501469 -0.226087 -0.409939 -0.900769 0.201045 0.069931 0.510051 -0.890372 -0.954274 0.997015 -0.065127 0.443175 0.639077 -0.582078 0.802815 -0.968306 0.820649 0.807888 -0.254451 -0.146734 0.744777 0.133916 -0.891369 0.015218 0.371681 -0.046430 0.647162 -0.531957 
-0.602756 0.593906 -0.104226 0.734630 -0.816033 -0.004995 -0.064325 0.253897 -0.494944 0.045303 0.299623 -0.497929 0.980176 -0.257202 -0.858852 -0.601902 -0.454387 -0.827158 -0.781253 -0.646499 -0.081610 0.072013 -0.901722 -0.947693 0.180644 0.113497 0.423988 -0.865786 -0.239342 0.892031 -0.468543 0.721376 0.485937 0.427231 0.456005 0.669904 -0.577763 -0.608320 -0.076198 -0.072707 0.436984 -0.776575 0.429364 0.417159 -0.033777 0.570512 0.815258 0.511836 0.743353 -0.965995 0.865337 -0.338256 0.106017 0.963615 -0.285950 -0.713339 0.077112 -0.861962 -0.579125 0.837770 -0.969931 -0.047668 0.559146 0.516007 -0.620436 0.015151 0.185911 -0.198200 0.406831 -0.890288 0.729094 -0.156185 -0.666863 0.158458 -0.739026 0.299360 -0.271031 -0.923768 -0.188804 -0.527677 -0.889763 -0.323467 0.134066 0.216254 -0.359852 0.848117 0.502915 0.717260 0.986155 0.923790 0.555030 -0.983776 -0.123878 0.114176 0.532231 0.255686 -0.870673 -0.281858 -0.942514 0.536158 -0.172146 0.786580 -0.620027 0.160991 -0.054962 -0.359052 -0.539649 0.674007 -0.282820 0.271547 -0.853670 -0.172584 0.948080 0.280396 -0.956330 -0.411772 0.128513 0.546585 -0.694512 0.114667 0.470376 0.860519 0.130892 -0.653502 -0.025306 -0.336878 0.264542 
0.104021 0.659671 -0.359820 -0.790882 0.446251 0.020153 0.370109 -0.608711 0.661101 0.830460 -0.934705 -0.621720 0.102007 -0.788375 0.205696 0.050087 0.492021 0.249366 0.638315 -0.379466 -0.204048 0.943803 0.735201 -0.733672 0.804322 -0.133907 -0.387174 -0.220984 0.529215 -0.784990 0.883038 -0.089521 0.874681 -0.476783 0.119597 0.320932 0.543370 -0.510294 0.712221 0.204471 -0.679834 0.777516 0.582751 0.422173 0.989141 -0.211553 -0.527740 0.481162 -0.962187 -0.889425 -0.898304 -0.166235 -0.945622 0.836898 0.100093 0.858700 -0.297009 0.712919 -0.362283 -0.767794 0.927929 -0.479246 0.142685 0.802610 0.043972 -0.737717 0.123542 -0.412658 -0.248011 -0.164237 0.791813 0.072155 -0.386721 0.374564 -0.505672 -0.397580 -0.836989 -0.033412 -0.916418 -0.799175 0.077162 -0.814722 0.034590 0.131541 -0.977824 -0.865318 -0.009759 -0.274833 0.847601 0.627958 -0.042627 0.775530 -0.851288 -0.899942 0.578140 0.192684 -0.637659 -0.298318 0.780026 0.114330 0.537444 0.571839 -0.813516 -0.849277 -0.053597 -0.319188 -0.246857 0.109414 0.647400 -0.163275 0.310239 -0.275438 0.022004 -0.655172 0.856103 0.044180 -0.520489 -0.153656 0.769347 -0.672888 -0.525698 -0.273281 -0.897359 -0.376986 -0.173223 0.680781 -2.984464 
0.189118 0.595724 -0.696552 0.919907 0.167563 -0.510068 -0.929370 -0.886033 0.170745 -0.176227 0.223381 -0.181856 0.660498 -0.466380 0.542707 -0.317498 -0.121552 0.398810 0.726682 0.357959 -0.754846 0.496029 0.685071 -0.280545 -0.777252 0.787712 0.342469 0.049525 0.468493 0.158167 -0.761356 0.850956 -0.246108 -0.457908 0.770863 0.921455 0.032024 0.841493 -0.964578 -0.797232 -0.334733 0.258803 0.020913 -0.674235 0.792423 -0.436380 0.008267 -0.329129 0.962429 -0.265051 -0.971170 -0.792417 -0.769022 0.713901 -0.072962 -0.546274 0.501613 -0.730492 0.503251 -0.029894 0.427675 0.741895 -0.178938 -0.818434 -0.716013 -0.408075 -0.896979 0.316010 -0.566581 -0.861557 0.518779 0.098685 0.397246 -0.460308 0.424450 0.189668 0.103312 -0.567282 0.860539 0.065741 0.167667 0.889369 0.273324 0.398645 0.603270 -0.799638 0.852370 0.104883 -0.530130 0.355622 -0.925011 0.897545 0.097517 -0.103948 -0.920889 0.381503 0.487977 -0.817867 -0.302486 0.921396 -0.679424 -0.783708 0.020081 0.717822 -0.244016 -0.555469 -0.092510 0.859296 -0.122751 -0.231971 -0.074963 -0.955084 -0.342602 -0.801639 0.443560 -0.739332 -0.601277 0.295931 0.365551 -0.131406 -0.348448 0.440540 -0.233861 0.749069 -0.663408 -0.154750 -0.370626 
0.824569 0.828086 0.745964 0.347959 -0.955622 -0.233955 0.065780 -0.199638 0.210576 0.973270 -0.340342 -0.912175 -0.258701 0.584695 -0.867259 0.398697 0.783056 0.576301 0.659365 -0.818220 -0.127769 0.024916 0.050373 0.523784 -0.534544 0.816512 0.272853 -0.197952 -0.338238 -0.596575 -0.373383 0.689145 -0.768490 -0.627418 0.037103 -0.724112 0.138627 -0.897116 0.076251 -0.650797 -0.923846 0.735909 -0.562972 -0.182547 0.320604 -0.430231 -0.783851 0.103660 -0.853931 0.875514 0.285440 0.018301 -0.099570 -0.664187 -0.457916 0.365887 -0.847675 0.814937 -0.832065 -0.185913 -0.781638 -0.205448 -0.496769 -0.550128 0.167134 0.540335 -0.274240 -0.694239 0.643219 0.802011 -0.345036 0.719372 0.537920 0.091992 -0.463175 -0.141475 0.661760 -0.247026 0.962185 0.807830 -0.371512 0.247625 -0.173870 0.528919 0.583438 0.368215 -0.105194 0.735763 0.183151 0.062741 -0.450150 0.401513 0.857293 0.053081 0.851385 0.024427 -0.406584 -0.422855 0.330188 -0.763365 -0.620843 0.985152 0.956007 0.917077 0.077143 -0.507168 -0.224398 -0.261096 0.245806 -0.262213 -0.453267 0.874294 0.985412 0.372863 0.403213 0.568851 -0.258922 -0.701981 0.304614 0.924229 0.360760 0.854464 0.325742 0.218053 -0.092455 0.177127 -4.557681 
0.500962 0.572669 0.737596 -0.866571 0.557821 0.693603 -0.949493 -0.365036 -0.813565 -0.173891 0.373868 0.432241 0.563896 0.920601 0.306535 0.549308 0.293464 -0.290252 0.118159 -0.965458 0.007767 -0.577227 0.958772 -0.631473 -0.722763 0.284514 0.586580 0.184782 -0.538358 0.829061 -0.314256 -0.784086 0.401730 -0.576660 -0.650656 -0.040450 -0.883056 -0.600150 0.594514 -0.696621 0.225959 -0.031618 0.735620 -0.210145 -0.111017 0.042155 -0.660837 -0.817552 0.751903 0.457322 -0.783010 -0.240329 0.880095 -0.824238 0.128198 -0.842669 0.460276 -0.285222 0.342113 0.921918 -0.456161 -0.972143 -0.862168 0.945569 -0.548803 -0.512824 -0.094881 -0.431859 -0.112974 -0.500367 -0.128481 -0.887015 0.468015 -0.392861 -0.097160 -0.643002 0.649294 0.242003 -0.460554 0.401197 -0.300675 -0.243564 -0.839132 -0.420581 -0.067802 0.289066 -0.263249 -0.607526 -0.996156 -0.921136 -0.685608 -0.452317 -0.893279 -0.547777 -0.506748 -0.442082 -0.060601 0.398371 0.126058 0.826425 0.898004 0.997578 0.939410 0.366019 -0.395283 -0.157750 0.723018 -0.745989 -0.915747 -0.737536 0.655208 -0.216423 0.018899 0.816077 0.362997 0.951097 0.105143 -0.900253 -0.656429 0.108987 -0.821389 -0.342037 0.656670 -0.714668 0.110186 -0.850079 -0.156751 
-0.950415 0.969308 0.876010 0.446296 0.966886 0.815420 -0.187685 -0.428398 -0.342330 -0.464667 -0.174387 -0.258077 -0.202203 -0.519179 0.525500 0.816696 -0.703102 -0.111503 0.767793 0.402040 -0.011756 -0.888636 -0.488973 0.166855 -0.230673 -0.832303 0.452186 0.879513 -0.682382 -0.704564 0.929098 0.865910 -0.735256 0.805108 0.312206 -0.768371 0.620529 -0.875478 -0.196769 -0.721801 -0.340145 0.628845 0.020121 0.457651 -0.890334 -0.454379 0.274347 -0.593436 0.434118 0.042140 0.808604 -0.577639 0.153505 -0.680369 0.589216 0.922831 -0.512672 0.041402 0.802344 -0.195054 0.336838 0.731443 -0.329144 0.601581 0.536551 0.983062 0.833210 0.157079 -0.892416 -0.363558 0.435278 -0.232561 -0.734714 -0.544601 -0.774910 -0.625048 0.001020 0.499437 -0.218484 -0.564862 -0.458422 -0.409879 -0.142501 0.695082 -0.090248 -0.553285 0.617914 0.397080 0.488117 0.420258 -0.797974 -0.175045 0.151701 -0.127117 -0.573464 -0.311748 -0.144055 -0.740254 0.845331 -0.036471 -0.103812 0.280609 0.730968 0.161474 0.736008 0.956058 0.536427 -0.262971 0.455495 -0.682057 0.172167 0.997073 -0.091936 -0.970334 0.692155 0.817816 -0.523619 0.310069 0.214896 0.964498 -0.269673 0.416922 -0.210548 0.882028 -0.710195 0.215988 -4.229882 
0.145750 -0.584389 -0.890721 -0.628077 0.696220 0.840246 0.533397 0.432229 0.796304 0.069824 -0.830742 0.251799 0.387766 0.341424 0.248872 -0.704170 0.371090 -0.058973 -0.886354 0.847471 -0.748904 0.328542 0.811969 -0.018577 -0.254536 -0.398579 -0.136549 0.035269 0.817409 0.433731 -0.818981 0.293144 0.849342 -0.709702 0.665067 0.545562 -0.869455 0.198464 -0.022209 0.926849 -0.731713 0.147048 0.178647 0.656054 -0.511528 -0.572481 0.951884 0.859562 0.368546 -0.934470 0.707033 0.619641 0.394072 0.519002 -0.398936 -0.860464 -0.879577 0.464515 0.174806 0.937832 -0.101755 0.355825 0.230976 -0.252413 0.646123 -0.103957 -0.706851 0.776668 -0.905493 0.270940 0.703517 -0.637206 -0.582012 -0.117836 -0.981152 -0.093540 0.309683 0.970731 -0.233978 -0.321772 -0.963739 -0.526945 -0.702130 0.430333 0.992057 -0.101066 0.569869 -0.887521 -0.636551 -0.255325 -0.949689 0.261694 -0.899500 0.281287 -0.990719 0.746623 -0.822670 -0.697570 0.523291 -0.728163 0.573369 0.226808 -0.365369 0.991357 -0.891029 -0.346522 -0.102183 0.418654 -0.375790 0.663839 -0.903117 -0.339529 -0.863105 -0.605247 -0.909196 -0.871049 0.293686 0.660673 -0.758569 0.657135 -0.594652 -0.708258 -0.081171 -0.494153 0.573029 -0.071890 -0.747641 
0.750360 0.775762 -0.977803 -0.196091 0.002569 -0.343173 -0.204734 0.111541 0.310306 0.693083 -0.469805 0.934516 0.356922 -0.372922 -0.405013 0.493817 0.021830 -0.314209 0.622768 -0.684483 -0.653536 0.864199 0.972651 -0.248188 -0.844059 -0.108520 0.257659 0.728970 0.819590 0.510130 0.479330 0.050129 0.285891 0.501526 0.854038 -0.711540 -0.841646 -0.350696 0.400001 0.468660 -0.657613 0.930196 0.403176 0.699309 -0.442727 0.998163 0.193126 0.579104 -0.316046 -0.184106 0.894620 0.030417 -0.319907 0.867272 0.782229 -0.163967 -0.241249 0.039888 -0.434996 -0.421659 -0.449983 -0.955667 0.628470 0.835909 0.545860 0.482508 -0.875631 0.704214 -0.868188 0.524369 0.172873 -0.525801 0.454565 -0.423951 -0.826492 -0.988162 -0.425788 0.366634 0.590942 0.258165 -0.817472 0.485563 -0.711418 -0.137379 0.352834 -0.929189 0.698654 -0.888414 0.110699 -0.736342 -0.310073 0.660717 -0.692009 -0.681603 0.496625 0.853851 0.800905 0.620994 0.558064 0.932717 0.145363 -0.269063 -0.593084 -0.400072 0.306986 -0.419576 -0.388233 0.881198 0.947058 -0.797291 0.139363 -0.870414 0.688272 0.427945 -0.007793 0.041106 0.498757 -0.309139 0.152691 -0.390544 -0.045482 0.842618 -0.729827 0.262509 -0.838985 0.766798 -2.949839 
0.961919 -0.325576 0.894636 -0.466844 0.405361 -0.698448 0.133084 -0.287652 -0.118024 0.744851 -0.406454 -0.170966 0.947561 0.732909 -0.041381 0.635832 0.160854 0.950826 -0.323062 -0.340389 -0.358313 0.829629 0.269067 0.596205 0.672247 0.539240 -0.141286 0.833262 0.306038 0.975074 0.795181 -0.306169 -0.350502 0.689818 0.226987 -0.945141 0.991370 -0.639929 -0.232793 -0.126655 -0.895077 0.360753 0.702379 -0.947517 0.093661 -0.339002 0.688316 -0.745485 -0.388176 -0.634746 -0.085874 0.253510 -0.805117 -0.816807 -0.150285 0.867130 0.722433 0.708429 0.700392 0.028472 0.683503 0.495574 0.722303 -0.666999 0.185391 -0.050710 -0.612140 0.176761 0.309361 0.155067 -0.949894 0.414284 -0.484180 0.752485 0.466767 0.609481 -0.586517 0.155083 0.863997 0.025307 0.520336 -0.221877 -0.721183 0.715219 -0.038684 0.128533 0.582350 -0.316250 -0.163038 0.282742 0.712221 -0.479535 -0.221684 0.434524 -0.146534 0.963707 -0.616186 0.241325 0.140468 0.693175 -0.603608 0.190574 0.107458 -0.087788 -0.056941 -0.425775 -0.478307 0.356542 0.729308 -0.614310 -0.618151 0.249644 0.163813 -0.339334 -0.035137 -0.874871 0.789199 -0.452787 -0.191122 -0.373840 0.829955 -0.478900 0.146625 -0.391729 0.955624 -0.999909 -2.031978 
-0.660563 0.712446 -0.967388 0.637809 -0.096980 0.140070 -0.449979 0.846080 0.714295 0.071714 0.202622 0.443603 0.457403 0.584471 -0.306753 -0.378784 -0.754863 0.658111 -0.253655 -0.965665 -0.794676 0.555223 -0.339504 -0.964721 -0.923677 0.807121 -0.356450 -0.968054 0.807212 0.215528 -0.628617 0.048628 -0.072026 -0.596005 -0.313563 0.830994 0.544065 0.236457 0.677074 0.258361 -0.691829 -0.120304 -0.298036 0.765574 -0.535834 0.395211 -0.613209 -0.290697 0.053322 0.133135 -0.256362 0.258646 -0.311642 0.404134 0.293925 -0.235319 0.211255 0.937474 -0.203373 0.018467 0.153002 0.168011 -0.932905 -0.919024 0.572006 -0.246468 0.911970 0.116071 0.989989 0.589044 -0.625568 -0.701840 -0.531261 0.076396 -0.936265 -0.067095 -0.528392 -0.549475 0.642208 0.524930 0.583661 -0.614154 -0.216424 -0.727981 0.789981 -0.922499 0.036700 0.001236 -0.985025 0.833328 -0.980297 0.167977 0.001339 -0.913201 0.248953 -0.426655 -0.159669 0.160923 0.689416 -0.169680 -0.250033 -0.936152 0.128481 0.218707 0.140244 0.192216 -0.848388 0.611852 0.642741 0.793820 0.136782 0.226402 -0.820333 0.920357 0.498421 0.969647 0.997858 -0.464878 -0.029117 -0.987167 -0.631551 -0.009414 0.180810 0.369788 0.077385 -0.570237 0.943133 
0.917715 0.632549 -0.251964 -0.659347 0.696397 0.876516 0.559360 -0.163358 0.068732 0.710972 -0.551507 -0.288527 0.504792 0.585275 0.937875 0.684459 0.505633 0.436296 0.654106 0.503491 0.971418 -0.375011 0.516324 -0.660133 0.615575 -0.302866 0.709655 -0.307040 0.126898 0.652788 -0.389325 -0.282416 0.285337 0.358711 0.058238 -0.018265 0.235227 -0.382402 0.818376 -0.696041 -0.671430 -0.733130 0.015432 0.833362 0.852145 -0.046693 0.517821 0.357777 -0.610396 0.171927 -0.138732 -0.638978 0.796916 -0.622408 -0.299111 0.412491 0.074726 -0.589456 -0.894549 -0.798376 -0.936667 -0.283874 -0.080792 0.348670 -0.925163 0.977446 -0.669595 0.310064 -0.404956 -0.851219 0.614024 -0.076386 -0.584349 -0.370544 -0.243025 -0.732204 0.582763 -0.725204 0.625573 0.972367 0.446723 -0.513159 -0.666612 0.243639 -0.135567 0.034277 -0.343870 0.939160 0.444822 -0.238419 -0.859216 0.508154 0.477708 0.059992 -0.143176 0.552545 0.037438 0.187229 -0.137391 0.632482 0.336010 -0.523367 -0.443904 0.751661 0.106089 0.313071 -0.980543 -0.311148 0.587868 0.645030 -0.338781 0.034591 -0.868128 -0.005393 -0.721770 -0.003695 -0.971115 -0.065639 -0.064535 0.473706 0.695942 0.076248 -0.018140 0.173650 -0.863759 0.838685 -0.421241 
0.173679 0.588804 -0.193839 -0.638076 -0.934563 0.362257 -0.886415 0.171525 -0.324672 -0.866957 0.860377 -0.736804 0.778073 -0.478404 0.297787 0.909944 0.516203 0.576017 -0.093751 0.545088 -0.489622 0.841714 0.018794 -0.793680 -0.082038 -0.999346 0.379970 0.054203 0.839339 -0.893836 -0.772118 -0.134747 0.694968 0.034044 0.227177 0.760405 -0.603699 0.340762 -0.068070 0.071629 0.473805 -0.207693 0.334825 0.251878 0.313903 -0.367389 0.161822 -0.169894 -0.791372 -0.931929 -0.624807 -0.280994 0.909785 0.393987 -0.074674 -0.172253 0.394641 -0.694705 0.881950 0.233980 -0.588541 -0.890168 -0.900767 -0.893573 0.143876 0.326410 0.866832 0.540176 -0.332828 -0.201238 -0.388195 -0.859023 0.591069 0.946630 0.392855 -0.095029 -0.420758 -0.445323 0.735077 -0.212130 -0.377251 -0.889730 0.506876 -0.467466 0.504257 -0.567799 0.360281 -0.101102 -0.262504 0.242231 -0.867122 0.148956 0.352064 -0.767889 0.255383 -0.504060 0.558521 0.122215 -0.963884 -0.774307 0.920977 -0.352078 -0.633330 0.512046 -0.405448 0.759525 -0.582982 0.173793 -0.685797 -0.847905 0.961663 -0.063048 -0.737635 0.468539 0.469485 0.766622 0.900741 -0.170233 -0.334480 -0.361763 -0.928002 -0.201602 0.787193 0.424062 0.030509 0.042576 -2.880160 
-0.410971 0.956118 -0.185278 -0.914232 -0.395961 0.181392 0.597815 0.198591 -0.059082 -0.985168 -0.627616 0.255121 -0.833073 -0.665953 -0.807928 -0.570708 0.802587 0.661558 -0.804087 0.703327 -0.508676 -0.138567 -0.658436 -0.436678 0.659831 -0.871243 0.987384 -0.309661 0.171333 0.907385 0.279369 0.336124 0.863503 -0.905909 0.421893 -0.532458 0.275483 0.019707 0.666133 -0.783599 0.034540 -0.961483 0.471522 0.201466 -0.627436 0.663594 0.630758 -0.824849 0.325152 0.826671 0.878478 0.816476 -0.311896 -0.779958 -0.620202 -0.652065 -0.651201 -0.632818 0.038275 0.520132 -0.725432 -0.682357 -0.143744 -0.861930 -0.588266 -0.721851 -0.394388 0.687217 0.297856 -0.728255 0.903618 -0.667604 -0.689738 0.375139 0.533862 -0.317174 0.038733 0.164620 -0.142023 -0.636115 -0.008708 -0.263545 -0.819639 0.679396 -0.043503 -0.439841 -0.972669 0.305297 -0.072658 0.065606 -0.174571 0.201909 0.383249 0.681685 0.339980 0.794983 0.959834 0.945592 0.482199 0.257690 -0.782663 0.385817 0.590085 -0.472400 -0.239044 0.123947 0.210426 0.799690 -0.711432 -0.931597 -0.836425 0.279859 -0.195142 -0.656064 -0.040745 0.761356 -0.095905 -0.013414 0.066652 0.831437 -0.947808 0.892081 0.033347 0.435441 0.573766 -0.626674 0.230385 
0.533600 -0.287377 -0.208710 -0.463744 -0.901560 -0.618625 0.063856 -0.140604 0.505323 -0.725719 -0.340914 0.793890 -0.657316 -0.177339 0.073749 0.147542 0.166597 -0.966996 -0.091102 -0.929308 0.019591 0.975550 0.902129 0.071783 0.867631 -0.064524 -0.492777 0.441398 0.308802 0.737647 -0.025002 0.627721 -0.549730 0.766288 -0.836023 -0.451290 -0.852337 0.227833 0.408106 0.652986 0.502114 -0.932809 0.446876 0.844799 -0.110148 -0.479375 -0.007659 -0.943551 -0.446370 0.901239 -0.872859 0.573220 0.876789 -0.970730 -0.354997 0.744420 -0.035254 0.152227 0.185818 -0.726452 -0.110126 -0.839184 0.901268 0.340143 0.927103 -0.934755 0.888853 -0.925234 0.293078 0.296958 0.727752 -0.204808 0.364150 0.174628 -0.360009 -0.745998 0.695254 0.632332 -0.689549 -0.751117 0.533571 -0.562409 0.822104 0.410360 -0.533139 -0.532893 0.154780 0.431607 0.619333 -0.659402 0.705154 -0.490793 -0.498586 0.606423 0.849350 -0.571483 0.671668 0.738203 -0.496717 -0.035254 0.035161 -0.768965 0.759938 -0.600689 0.405663 -0.600071 -0.346687 0.100916 -0.967739 -0.036236 0.349800 0.565832 0.401355 0.171904 -0.023808 0.868216 0.639010 -0.869028 0.299823 0.258344 -0.528430 0.004977 0.767551 -0.027016 -0.388601 0.616901 0.401500 
-0.716933 0.904783 0.247813 -0.609734 -0.864182 0.007752 -0.210423 0.541481 0.407681 0.442890 -0.357603 0.439942 -0.593346 0.992197 0.005774 0.808009 0.164101 0.981965 0.676225 -0.196889 -0.887063 -0.023952 -0.938545 -0.415493 0.981025 0.829006 0.557491 -0.407576 0.445907 -0.041009 -0.124509 -0.198988 -0.136225 -0.876695 0.191277 -0.000407 0.131057 0.980854 -0.458926 -0.461262 0.423745 0.183471 0.978680 0.830399 0.175668 -0.015547 0.638408 -0.660231 -0.033581 0.314633 0.142880 0.079356 -0.709319 0.204335 0.663863 -0.728295 0.033341 0.221354 -0.135871 -0.520751 -0.819655 0.739621 0.280260 0.044120 0.862925 -0.528462 -0.956287 -0.006018 -0.547608 -0.415214 0.532719 0.876137 0.768258 0.511399 0.706535 -0.056074 -0.504148 0.344943 0.283695 0.462271 -0.340424 -0.573425 -0.458373 -0.049743 0.630911 -0.794510 0.221962 -0.335748 0.426844 -0.913909 0.143501 0.607189 0.825712 -0.576239 -0.348691 0.688637 -0.104701 -0.304978 -0.317381 0.347691 0.279808 -0.784662 0.223828 0.048066 0.726737 -0.069637 0.991992 -0.777410 -0.724694 0.275687 0.684861 -0.065118 0.702263 -0.773512 0.885139 0.333173 -0.568022 0.107100 0.997425 0.858822 0.193192 0.140926 0.466012 0.018903 0.564687 -0.882679 -4.037459 
-0.540013 0.390159 0.807678 -0.907850 0.605498 0.031506 0.140216 0.332235 0.961869 0.132209 0.554824 -0.762825 -0.592104 0.239685 0.172057 -0.889842 0.466173 0.057196 0.443332 0.898151 -0.835704 0.440757 0.756973 0.357487 -0.418317 0.222984 -0.623609 -0.853629 0.340305 0.083931 -0.393643 -0.847353 -0.525909 -0.585965 -0.755202 -0.920412 0.445541 0.385014 0.411823 0.407410 -0.482777 -0.033352 0.644585 -0.074881 -0.793668 -0.183358 0.035277 0.672505 0.873837 -0.521391 0.570656 -0.961867 0.919366 0.327629 0.395620 -0.498951 -0.449387 0.772011 -0.352580 0.890918 -0.144057 0.253777 -0.956435 0.330033 0.667812 -0.711637 0.409622 0.113353 0.673377 -0.178555 -0.479238 -0.809400 0.788092 -0.834653 0.115718 0.994425 -0.018012 -0.849005 0.666930 -0.144175 -0.370396 0.237586 -0.106042 -0.451030 -0.434786 -0.710421 0.050018 0.115827 -0.938410 0.697438 0.006746 -0.082467 -0.048785 0.050311 -0.752434 -0.380973 0.338674 0.657187 0.732380 0.012051 -0.521368 -0.746858 0.202651 -0.733276 -0.581511 -0.681630 -0.738851 0.400477 -0.530635 0.928079 -0.743698 0.098969 0.165665 0.150261 0.647938 0.730879 0.439839 -0.302043 -0.153293 0.501430 -0.604605 0.853452 -0.581038 0.346610 -0.096237 -0.333472 0.965637 
-0.757563 0.698016 0.254488 -0.197652 0.951158 -0.542861 0.069072 -0.630353 -0.224492 0.330221 0.770123 0.244873 0.258300 -0.973574 -0.656158 -0.576035 0.176686 0.991781 -0.845156 -0.383474 -0.310262 0.001551 -0.882045 0.085133 -0.144997 -0.463083 -0.568258 0.758766 0.203445 -0.602621 -0.998797 0.527161 -0.904605 0.255691 -0.670491 -0.953447 0.712830 0.398581 -0.583800 -0.511662 -0.271198 -0.813677 0.733211 0.987103 -0.787251 -0.922946 -0.588932 0.389435 -0.931166 -0.434088 -0.994039 -0.241428 0.567463 -0.876084 0.843705 -0.577534 -0.339167 -0.724553 -0.818768 0.864279 -0.327174 -0.817565 0.391440 -0.231779 0.438125 0.720949 -0.185226 0.150955 0.119530 0.230974 0.639293 0.848332 0.417297 0.372504 0.835434 0.630045 0.449558 -0.753498 0.019480 0.518392 -0.187586 0.025441 -0.723036 -0.620123 0.149357 -0.879331 -0.197658 0.810190 -0.603884 -0.016426 0.674469 0.068941 0.166009 0.065909 0.837162 -0.395866 -0.213143 -0.348064 0.755089 0.906387 0.882910 0.394382 0.754719 0.300207 -0.233114 0.590153 -0.069748 -0.783556 0.836655 0.949732 0.734836 -0.350931 -0.024827 -0.988200 0.028945 -0.875470 -0.867531 0.831288 0.934721 -0.471415 -0.185138 0.609190 0.597526 0.980870 -0.324902 0.434688 -0.634902 
0.461956 -0.659907 0.368342 0.969534 0.734474 0.123061 0.269741 -0.498640 -0.286786 -0.800007 -0.282196 -0.450131 -0.850275 -0.547360 0.198938 0.124899 -0.535560 -0.772117 0.249429 -0.403091 -0.940829 0.184150 0.125494 -0.125967 -0.206661 -0.276981 -0.145097 0.468437 -0.842292 0.439907 -0.069607 -0.755668 0.780000 -0.701265 -0.786134 0.514474 0.421796 0.483607 -0.984166 -0.864990 0.683600 -0.266362 -0.315121 0.833325 0.186278 0.883817 -0.041776 0.650718 -0.888299 -0.792347 -0.752373 -0.829128 0.391803 0.373121 0.044904 -0.814858 -0.903860 0.899807 0.653580 -0.746152 0.339715 -0.416027 -0.501820 0.119715 -0.117292 -0.287954 -0.365811 -0.695496 -0.804347 -0.349977 -0.560486 0.879254 0.383662 0.124394 0.712579 -0.430060 0.008211 -0.329197 -0.779342 0.119911 -0.121544 -0.531714 0.290783 -0.729741 0.841407 -0.664313 -0.544599 0.937547 -0.764505 -0.891019 -0.808605 0.575210 -0.307047 -0.310425 -0.305076 0.575661 0.401621 0.329113 0.880165 0.597274 0.979136 -0.680321 0.476528 0.362798 0.444073 0.189106 0.932738 -0.547716 0.859909 -0.846604 0.572195 -0.261634 -0.378318 -0.137022 0.008625 -0.536911 0.198665 0.464026 -0.599364 0.434160 0.573006 -0.407970 0.009370 -0.734040 0.281605 0.704294 -2.958541 
-0.316774 0.721786 -0.719500 0.012543 -0.958535 0.757027 -0.624659 0.485538 -0.053866 -0.691921 0.937821 -0.193957 -0.538524 0.510016 0.544409 0.083158 -0.627006 -0.446966 0.546246 0.571660 -0.982941 0.946882 0.005820 0.590066 -0.461087 -0.984810 0.856025 0.820518 0.719485 0.697646 -0.496257 -0.247108 0.419431 -0.215757 0.765435 0.460896 -0.458730 -0.859223 -0.053566 0.487404 -0.551144 -0.115744 -0.706552 -0.089668 -0.605728 0.837857 0.993490 -0.232734 -0.609110 0.539736 -0.661074 -0.592051 0.486618 0.344747 0.998015 -0.974469 0.359937 0.854040 0.846048 0.079422 0.551686 -0.650209 0.832313 -0.028883 0.134035 0.597749 -0.567986 0.675305 0.738525 0.378448 0.162709 -0.812618 -0.737297 0.456157 0.097713 -0.343025 0.294013 0.091203 0.424242 0.684903 -0.369061 0.763168 -0.907147 -0.882443 0.107915 -0.909132 -0.856912 -0.532148 0.944908 0.989136 0.547274 0.496594 -0.661072 0.379587 -0.532289 0.472962 -0.022664 -0.100275 0.148267 -0.284139 -0.721828 -0.689024 -0.096757 -0.459124 0.767133 -0.999044 0.197851 0.061147 0.092160 -0.377907 -0.253950 0.723099 -0.614739 -0.161097 0.840656 0.493176 -0.070229 0.983744 0.961028 -0.125321 0.972880 0.508302 -0.628728 -0.688192 -0.112111 -0.161017 -3.015392 
0.865225 -0.066963 -0.418913 -0.983120 0.244013 0.484330 -0.442244 0.011146 0.485286 0.755607 -0.927707 -0.422554 -0.622301 -0.181657 -0.699455 -0.237039 0.657246 -0.858799 -0.743863 -0.412984 -0.875056 -0.782835 0.461695 -0.902175 0.725467 0.832967 -0.590368 -0.386644 -0.328049 -0.805598 -0.521418 -0.589342 0.127439 0.059669 -0.572462 -0.628548 -0.456001 -0.014706 0.382598 -0.970715 -0.259099 0.454891 -0.393269 0.118600 -0.726766 -0.092725 0.881560 0.930479 0.048476 -0.862303 -0.482504 0.173420 -0.645138 0.979191 0.271245 -0.919671 0.812158 0.680877 -0.306315 -0.515892 0.875279 0.172267 -0.105233 0.002718 -0.768064 0.322305 0.374169 -0.224065 -0.692401 -0.243233 -0.194780 0.048500 -0.788342 0.411951 -0.832900 -0.515108 -0.680774 -0.951340 -0.584629 0.367702 -0.813643 -0.067134 -0.458878 -0.458781 -0.087943 0.812367 -0.378452 -0.275785 0.493244 0.315233 0.208323 0.368523 -0.512499 -0.896910 -0.628759 -0.280563 0.425395 0.745410 0.495372 0.732994 -0.497823 -0.699409 -0.218506 -0.286165 0.712542 -0.051407 0.198727 -0.968232 -0.002747 0.614098 0.399470 0.183610 -0.453036 0.940592 0.724829 0.459021 0.752959 -0.653623 -0.816764 0.246204 0.661610 0.391559 -0.385273 -0.850889 0.494649 -0.014032 -3.279871 
-0.079956 -0.636081 -0.346962 0.233555 -0.335490 0.434532 0.947391 -0.622948 -0.616875 0.146117 -0.591180 0.380378 -0.239785 0.808289 -0.436012 0.307179 0.748881 -0.711183 -0.233800 0.501840 -0.364806 -0.050564 -0.251956 -0.703196 -0.659005 0.362771 -0.554085 0.835644 -0.651261 0.314463 -0.244312 0.080117 0.678382 0.408726 -0.686328 -0.657107 -0.156742 -0.738937 -0.280055 0.226383 0.407180 0.128765 -0.393239 -0.832605 -0.062946 0.170749 0.474574 -0.314065 0.459566 -0.759225 -0.812224 -0.905240 0.190211 -0.064180 -0.608436 0.531206 -0.701410 -0.162521 0.366850 -0.352671 -0.848058 -0.877461 0.727446 0.830324 0.531265 -0.958882 -0.826783 -0.625477 -0.697819 -0.106838 0.600906 0.709361 -0.978073 -0.792333 0.876757 -0.041019 0.378416 0.351331 0.644916 -0.162018 0.592106 0.832692 -0.067258 -0.217683 -0.231489 0.324306 -0.686477 0.067102 -0.838214 0.680374 0.714431 -0.686272 0.802912 0.441877 -0.855948 0.334177 0.482995 -0.682731 0.708700 0.785176 0.210431 0.309606 0.494538 0.232357 0.517273 0.371294 -0.808662 -0.104311 -0.277374 0.836254 0.733672 -0.685268 0.668946 -0.333586 0.097049 -0.562543 0.990720 0.410572 0.504558 -0.847494 0.090945 0.218989 -0.533767 -0.106142 -0.339134 -0.389714 -4.572127 
-0.856139 0.936735 0.929037 -0.862014 0.246342 0.423574 0.370343 -0.236385 -0.205131 0.561681 0.659305 0.517494 0.397935 0.392976 0.832226 0.066881 -0.940610 -0.070726 0.504338 -0.949890 -0.660154 0.008896 -0.797384 0.430791 -0.772115 -0.331151 -0.675351 -0.111249 0.279135 -0.447316 0.032612 -0.793311 -0.510580 -0.038351 -0.655325 0.735761 -0.614777 0.715018 -0.500623 0.180092 0.276699 -0.841319 -0.302414 -0.325366 0.551658 -0.470188 0.741515 0.611048 0.459086 0.245853 0.661158 0.798933 -0.745251 0.863774 0.229724 -0.517366 -0.467377 0.554373 0.371385 0.811758 -0.892943 -0.596003 -0.981553 -0.403523 0.365645 -0.636878 -0.667762 0.750869 -0.921860 -0.168385 -0.069040 0.354839 -0.009704 0.628546 -0.970527 -0.458046 -0.841642 0.770988 -0.846998 0.617445 0.016841 0.814160 0.416377 0.271590 0.677934 -0.353899 0.754224 -0.789443 -0.799526 0.125609 -0.977685 -0.692468 0.529606 -0.959238 -0.095992 -0.104749 -0.596116 0.236247 -0.353880 -0.517977 -0.932139 0.577080 0.836862 0.058158 0.205626 0.866335 0.600112 0.363985 0.637323 0.753114 -0.018570 -0.345836 0.567274 -0.602193 0.925754 0.245208 0.043908 0.679977 0.455765 0.244382 -0.194414 0.478080 0.551914 -0.664808 0.518842 -0.544078 0.294092 
0.922725 0.876563 -0.595252 0.760030 0.453643 -0.758390 -0.181812 -0.340731 -0.892055 -0.581700 -0.976746 0.745268 -0.828586 0.004684 -0.600568 0.738688 0.402490 -0.674815 -0.016104 -0.553601 -0.994837 -0.560338 0.690781 -0.189251 0.917742 0.242695 0.145941 0.436583 0.698617 -0.623616 0.359308 0.390786 -0.747053 0.764057 0.150816 0.706590 -0.994333 0.969004 -0.634141 -0.886388 -0.612696 -0.610887 0.858880 -0.441282 0.393796 -0.741688 -0.702594 -0.203713 -0.416503 0.281303 0.242685 -0.411340 0.720964 -0.066534 0.399409 0.638706 -0.823839 -0.454651 0.075289 0.874779 -0.078266 -0.565402 0.265565 0.174680 -0.801345 -0.583619 -0.118730 -0.795678 -0.614615 0.247129 -0.682066 -0.227310 0.636241 -0.823186 0.331408 0.030037 -0.564874 0.628815 0.826324 0.018623 -0.089883 0.069009 0.607283 -0.368918 -0.997525 0.006691 -0.730212 -0.821364 0.552041 0.345077 -0.946585 -0.526226 0.779675 0.318979 0.648455 0.978329 0.735361 -0.470275 -0.817349 -0.879254 0.776853 -0.499415 -0.106564 0.413094 -0.322601 -0.775156 -0.556869 0.112526 0.853659 -0.730545 -0.868851 -0.236224 0.338464 0.738432 0.394858 0.340939 -0.254877 0.664646 0.519576 -0.702836 0.009723 0.572990 -0.229062 -0.210603 -0.108030 -0.580607 -0.459893 
-0.372670 -0.049623 -0.251924 -0.274029 0.450962 0.641512 -0.860935 -0.871638 0.866356 -0.417804 0.240888 0.720015 -0.148349 0.372036 -0.516209 -0.809884 0.110468 0.878648 0.531055 0.855591 0.543294 0.050631 -0.847245 -0.446983 -0.376379 -0.076307 0.342414 0.515591 0.343086 -0.889860 -0.857079 -0.707796 0.060517 -0.109003 0.018174 -0.488520 -0.467490 0.157239 -0.360158 -0.601134 0.739435 0.880729 -0.881120 -0.408913 0.252766 -0.397329 -0.218798 -0.636766 -0.518681 -0.687743 -0.781175 -0.975387 0.362888 -0.628420 -0.422370 0.986509 0.295273 0.920043 0.502100 -0.361640 -0.969816 0.645021 -0.069436 0.090701 -0.463982 0.948738 0.602181 0.068528 0.105977 -0.757978 0.467394 -0.154588 -0.877248 0.586274 0.436499 0.375518 -0.811055 -0.782299 0.738751 -0.329736 -0.470041 0.957576 -0.305123 0.892847 -0.670844 0.272507 0.879356 0.624430 0.192551 0.381455 -0.737210 0.222734 0.026476 0.193353 -0.686565 0.562495 0.142091 0.915616 -0.368978 -0.751932 -0.842362 -0.901584 0.093480 -0.719610 0.684690 -0.470021 0.655908 0.873635 -0.252319 0.394659 -0.456101 0.277639 0.352236 0.238777 0.170486 0.681392 -0.488716 0.049842 0.305822 0.703835 -0.568703 0.568611 -0.073431 0.457773 -0.238035 0.240004 -0.612980 
0.904056 0.651290 -0.847876 0.313259 0.749706 0.245604 0.593649 0.434397 0.775584 0.249557 0.308032 -0.476736 -0.355784 0.851931 0.800904 0.996452 0.090708 -0.028610 0.677844 0.601992 -0.978768 -0.016334 0.305827 -0.547471 -0.447723 -0.767604 0.910302 0.314242 0.472400 -0.069430 0.218297 -0.371980 -0.418140 0.370421 0.941278 -0.668433 -0.383974 0.534927 0.765963 -0.608391 -0.215516 0.073995 -0.085126 0.428700 -0.074074 -0.284222 0.425151 -0.983366 0.687168 0.102995 0.618626 0.708400 -0.913339 -0.075548 -0.839072 -0.361062 0.156848 -0.928769 0.953180 -0.370753 0.001801 0.171477 0.257267 0.583661 -0.458101 0.198545 0.915228 0.157924 -0.266527 0.681191 0.549534 0.517957 -0.244814 -0.535592 -0.053344 0.681112 0.180185 -0.628192 0.697746 -0.132647 0.474803 0.316371 -0.424247 0.561463 -0.759177 -0.263319 -0.799599 0.397671 -0.192088 -0.846419 -0.973082 0.809712 0.325058 0.284185 0.393374 0.866957 -0.517269 0.308601 0.024881 0.216203 -0.010208 -0.425585 -0.265840 0.744979 0.038822 0.680816 0.426091 -0.780992 -0.947376 0.123837 0.086361 0.527426 -0.559792 0.662113 0.088890 -0.318969 -0.601205 0.289291 -0.921298 0.206706 0.442872 -0.894380 0.016419 -0.232070 0.389805 -0.590208 -4.165274 
0.872536 0.659768 0.088740 -0.291814 -0.765817 0.822899 -0.546835 0.273005 0.503716 0.879255 0.492013 0.556339 0.003092 -0.421626 0.083766 0.443300 -0.759513 -0.827345 -0.875669 -0.360718 0.461946 -0.796967 0.845988 -0.095182 -0.691347 -0.137593 0.672749 0.698459 0.272199 -0.692364 0.570995 -0.009407 0.967404 -0.340266 0.698779 -0.798413 -0.517366 -0.848056 0.474593 0.986350 -0.968801 -0.033394 0.542689 0.034291 0.544980 -0.373545 -0.522409 0.785467 -0.200890 -0.398078 -0.575251 -0.738944 -0.195045 -0.729263 0.165874 0.113608 0.133144 -0.161377 -0.187933 -0.594656 0.146259 -0.616938 0.395937 0.113663 0.042796 0.094716 0.315250 0.525430 0.246660 -0.210158 0.511780 0.277859 0.756448 0.054469 -0.687850 0.301427 0.680923 -0.210259 0.086894 -0.519967 0.391663 0.511643 -0.258911 -0.803383 0.782380 0.906963 0.310225 -0.084475 -0.254414 -0.877708 0.320868 0.891845 -0.494646 -0.283195 0.005507 0.548150 0.811521 -0.679243 0.073580 0.058181 0.110599 -0.414640 -0.663960 -0.132953 0.639828 -0.351810 -0.831525 0.320751 0.437931 0.255369 0.800784 -0.170407 -0.232988 -0.458127 0.026210 -0.450607 -0.551164 -0.663564 0.464917 0.194423 -0.541272 -0.214214 0.086267 -0.035918 0.502590 -0.908225 -1.469051 
0.314111 0.585812 -0.627708 0.523131 -0.828829 -0.291669 -0.609822 0.811000 0.356521 -0.441347 0.131751 -0.205548 0.814022 -0.067465 0.624045 -0.418965 0.474409 -0.349745 0.130427 0.923245 -0.013309 -0.404655 0.117668 0.445419 0.381130 -0.796065 -0.590500 -0.116279 -0.704290 -0.078268 -0.802168 -0.291759 -0.492457 -0.429876 -0.768628 -0.321285 0.278455 -0.378449 -0.510286 -0.365024 0.180204 0.621465 0.429428 -0.005774 -0.446000 0.053472 0.575261 -0.971591 0.703727 -0.294312 0.951654 -0.309582 0.301033 0.069322 -0.864163 -0.317837 0.273257 -0.454663 0.565884 0.568966 0.467069 0.763716 -0.722793 0.974613 -0.666160 -0.491421 -0.346672 0.612295 0.130130 0.143042 -0.752729 -0.689666 -0.235493 0.676699 0.304560 0.318507 -0.269829 -0.120180 0.346916 -0.566102 0.585509 0.298570 0.124317 -0.113458 -0.632108 0.260154 0.568705 0.641149 0.805491 0.134589 0.210115 0.272561 -0.101695 0.487322 0.247173 0.232145 0.995901 0.900501 -0.155560 0.126031 0.043543 0.091711 0.436365 0.808050 -0.231590 -0.259075 0.126557 0.498581 0.620745 -0.526527 0.932479 0.206254 0.772044 0.056796 -0.907205 -0.860064 -0.683050 0.661500 0.781084 -0.877559 -0.203911 -0.008801 0.395001 0.694394 -0.521479 -0.357825 -1.978404 
-0.525578 0.770979 0.600453 0.586218 -0.137310 0.036818 0.394268 0.631099 0.777742 -0.479175 0.129680 0.398487 -0.005702 0.062159 -0.395259 -0.233658 -0.881045 -0.302464 -0.093722 -0.564096 -0.640963 -0.312638 -0.441655 0.155126 0.678561 0.953347 -0.150480 -0.842919 -0.404479 0.776059 -0.368497 0.138197 0.547038 -0.768044 -0.275585 -0.590272 0.268774 -0.881317 -0.959173 0.046516 -0.360492 0.170507 -0.554996 0.633806 -0.767334 0.049745 -0.599852 -0.648379 0.747281 0.306425 -0.212475 -0.893682 0.993787 0.345871 0.261444 0.672348 0.299217 -0.889036 0.829429 0.894738 0.887024 -0.539068 0.032935 0.434062 -0.307112 0.757350 0.843790 0.961661 0.876033 0.884617 0.008178 -0.484459 0.055124 0.453181 -0.850653 0.287790 -0.497074 -0.450506 0.639411 -0.749793 0.855920 -0.573064 -0.643475 0.849707 0.772807 0.617969 0.522054 0.072024 0.728934 0.351483 -0.033238 0.615957 0.812415 0.999698 0.050019 -0.494697 0.757048 -0.106191 -0.533036 0.633081 -0.221574 0.475141 -0.851379 0.833550 -0.071677 -0.702032 0.121340 0.431249 -0.152538 -0.239249 0.681456 -0.296618 0.187687 -0.962019 -0.446911 -0.039506 0.655951 -0.924857 -0.967481 0.384884 0.426627 -0.000719 0.000842 0.239042 -0.001022 -0.949139 -3.055818 
-0.243974 -0.788692 -0.610893 0.723096 0.686449 -0.462272 0.556646 -0.385228 -0.164304 -0.322013 -0.953979 0.683159 0.438738 0.727477 -0.613459 -0.373575 0.765459 -0.060370 0.586920 0.421409 0.014773 0.619438 -0.193706 -0.558601 -0.381281 0.807135 0.680441 0.617698 0.857996 0.424785 -0.626276 -0.197334 0.636093 -0.237170 -0.474238 0.322542 0.300559 -0.917591 0.937315 -0.863745 -0.239605 0.983336 0.819414 -0.800867 0.710813 -0.794046 -0.174442 0.476272 0.145584 -0.587522 -0.102319 -0.839643 -0.968084 0.703975 -0.398244 -0.349365 0.511110 -0.717803 -0.731667 0.369106 0.706982 -0.357943 -0.828228 0.343075 0.404887 -0.302466 -0.334382 -0.294554 -0.220057 -0.397068 -0.158299 0.540338 -0.413732 -0.338886 0.739471 -0.702919 -0.132931 -0.434971 0.773352 -0.987347 -0.022493 -0.328967 -0.826990 0.009423 -0.624992 -0.225234 0.660059 0.886118 0.056964 0.928392 0.255223 -0.236054 -0.429552 0.426995 -0.892979 0.975335 -0.875471 -0.227361 -0.319219 -0.095528 0.375571 0.522482 -0.555190 0.961838 -0.816404 -0.815719 -0.741081 0.050665 -0.250690 -0.967729 0.063318 0.726817 -0.296696 0.236328 -0.263759 0.078312 -0.988906 -0.603700 -0.035570 0.068058 -0.675309 -0.780347 0.832004 -0.104860 0.646649 0.939025 -1.597700 
0.771178 0.551256 -0.324351 -0.912766 0.073738 0.120459 -0.950927 0.257334 0.304740 -0.692008 -0.692001 -0.945950 -0.659737 0.371317 0.780867 0.043567 -0.392355 -0.482893 -0.878120 -0.381261 -0.086593 0.086310 0.686797 0.238098 0.305963 0.518801 -0.866762 -0.047388 0.457826 0.003713 -0.276211 -0.830511 -0.445031 0.399439 -0.743277 0.628706 -0.480102 -0.694204 -0.113960 0.824637 -0.386212 0.194039 0.878687 -0.045949 -0.434644 0.659553 0.997618 0.173001 -0.823339 -0.880502 0.791741 0.090068 0.205807 0.478538 -0.671834 -0.488230 -0.002661 -0.538596 0.464382 -0.544835 0.465116 -0.811829 -0.375346 -0.979915 0.587610 -0.118623 0.648791 -0.892492 0.187173 -0.465168 0.932145 0.800961 0.728871 0.810831 -0.244989 -0.705773 0.470385 -0.247371 0.467229 0.647046 -0.127873 0.258969 -0.262887 -0.922066 -0.262493 0.065279 -0.410296 0.734846 0.526683 -0.945913 -0.809989 -0.008200 -0.757742 -0.185336 0.011885 0.829868 0.696041 -0.339324 0.937376 -0.116785 0.195508 0.869520 -0.315825 -0.075622 0.680352 0.439187 0.218606 0.150737 -0.808184 -0.314166 -0.202218 0.063943 0.944804 0.534896 0.141877 -0.317689 -0.399825 0.731581 -0.582843 -0.873142 0.785668 -0.392832 0.118658 -0.972074 0.421832 -0.869457 0.857790 
0.117874 0.795170 -0.998912 0.986726 0.664690 -0.314736 -0.088895 0.345042 -0.875550 -0.870290 -0.504222 -0.683734 -0.184456 0.293561 0.380209 -0.239652 -0.171543 -0.477915 0.442659 0.428632 -0.746334 0.859816 0.555490 -0.960666 -0.533016 -0.325852 -0.932740 0.888816 -0.195309 0.925054 0.006690 0.595910 0.720223 0.007778 0.582636 0.384913 0.693042 -0.506259 -0.270045 0.817492 -0.376549 0.225733 -0.866241 0.438995 -0.480706 0.513968 -0.800657 0.347751 -0.963947 0.642002 -0.223617 -0.710281 0.501818 -0.668127 -0.670947 0.968802 0.006021 -0.603687 0.857618 0.810712 -0.678633 -0.135692 0.406621 -0.958410 0.872086 -0.010743 0.426504 0.565128 0.482998 -0.843541 0.382621 -0.893551 0.382192 0.516380 0.545444 0.901486 0.030347 0.744787 0.249237 0.066400 0.386789 -0.974380 0.356119 -0.111393 -0.642508 0.685173 -0.142591 0.363513 -0.918514 -0.284973 0.174225 -0.597147 0.579335 -0.419154 -0.555556 0.451421 0.570104 0.870948 0.016550 0.053102 -0.972594 -0.600829 0.159551 0.409598 0.915550 -0.295005 0.311085 -0.054103 -0.550218 -0.439678 -0.987703 0.836571 -0.414059 0.368417 -0.274822 -0.056566 0.053589 0.582587 -0.693053 0.135076 -0.702386 0.481172 0.537929 0.876949 -0.937981 0.982373 0.328371 
0.632123 -0.655080 -0.314776 0.880726 -0.255909 0.844775 0.290325 -0.340359 -0.450230 -0.398591 0.605539 -0.000448 0.161731 0.617836 -0.163877 0.747672 -0.013748 0.561302 -0.308894 -0.960158 0.143889 -0.001946 0.174917 0.441504 -0.520774 -0.287154 0.318453 -0.458755 -0.304781 -0.353176 -0.826633 -0.451461 -0.008256 -0.141409 -0.570735 0.735835 -0.296634 0.719590 -0.604524 0.253136 -0.679001 -0.998985 -0.747312 0.482730 0.618851 0.088812 0.230403 -0.394897 -0.349886 0.921509 -0.355055 0.794003 -0.080437 0.819862 0.235507 0.398789 -0.467291 -0.446040 0.940033 0.227927 0.200783 -0.886600 0.776466 -0.807472 -0.028009 -0.794268 0.928363 0.675358 0.925322 -0.676161 -0.071506 -0.753679 -0.675146 0.181183 0.729051 0.943705 -0.730005 -0.040546 -0.451192 -0.079892 -0.119037 0.193753 -0.285889 0.800526 0.013616 0.949617 0.199314 0.546324 -0.496423 0.139347 -0.225748 0.704361 0.252747 -0.449282 0.896888 -0.775261 -0.243550 0.825251 0.900097 -0.318228 -0.850909 -0.171409 -0.071907 -0.526055 -0.990226 -0.342856 -0.582350 -0.720232 0.616598 -0.033542 0.199876 -0.502439 -0.839788 0.913987 -0.701914 0.173827 0.863605 0.497400 -0.279848 -0.632818 -0.363253 0.494404 -0.928457 0.889495 -0.954878 0.968431 -1.415929 
-0.198428 -0.985670 0.483344 0.942773 -0.157079 -0.588563 -0.583282 -0.147305 0.068581 -0.165632 0.132463 -0.314822 0.800826 -0.667661 0.182739 0.961037 -0.753673 0.480825 0.134865 -0.890069 -0.021774 0.855017 -0.522887 0.614973 0.349420 -0.451344 0.504468 0.394542 -0.482913 0.618701 -0.803885 -0.689231 0.633031 0.679459 -0.746458 -0.524048 -0.909105 -0.329741 0.328647 0.159476 0.504627 -0.538890 0.844655 0.305453 -0.206551 0.027394 0.266490 0.039776 -0.491781 -0.598645 0.149707 0.486445 -0.743628 0.626821 0.101418 0.605792 -0.824523 -0.394115 0.000334 -0.307437 -0.775414 0.196449 0.003332 0.857617 -0.124093 0.256874 -0.666430 -0.033197 0.927133 0.662216 -0.873721 0.431760 -0.876674 0.970933 -0.262787 -0.083225 -0.001673 -0.996297 0.956551 0.506546 -0.594942 0.106258 -0.007009 -0.338570 -0.266921 -0.905592 -0.732778 -0.091444 -0.299706 0.267556 0.601119 -0.075120 -0.535995 -0.395549 -0.217502 0.339913 0.861325 0.116067 -0.693284 0.788458 -0.221717 -0.567006 0.220218 -0.098390 -0.596072 0.957431 0.818385 0.402255 0.961134 0.774936 -0.091199 -0.633808 -0.118806 0.901791 0.027622 0.614273 0.996200 0.294844 -0.477171 -0.303507 -0.437600 -0.876052 0.621373 0.026405 -0.271601 -0.596129 -4.433844 
-0.410276 -0.326966 -0.621818 -0.701778 0.106028 0.598400 0.199831 0.509956 0.555831 0.018216 -0.087790 0.516965 -0.206848 0.821011 0.883157 0.674346 0.722803 -0.089221 0.288619 0.719002 -0.794377 0.811448 -0.584504 -0.231977 0.935395 -0.963131 0.794428 -0.336206 -0.559260 -0.839254 0.253518 0.960678 -0.166220 0.631701 -0.741100 0.939808 0.230101 0.458731 0.449764 -0.214068 -0.523053 -0.638026 -0.697102 0.270099 -0.817014 -0.813945 -0.055555 0.905788 0.096835 -0.766936 0.624790 0.302458 -0.955489 -0.959714 -0.929519 0.979907 -0.922845 0.864909 -0.356299 -0.482105 -0.974345 0.897219 -0.521427 -0.140565 0.528920 -0.262527 -0.200756 -0.240979 -0.803796 -0.750993 0.544953 -0.326849 -0.389018 0.847851 0.943250 -0.206033 -0.966094 -0.112305 -0.300245 0.130741 0.120758 -0.675455 -0.566802 0.165270 -0.635169 -0.496321 0.145177 -0.558014 -0.631412 0.788878 -0.040119 -0.605757 0.686097 0.438454 0.253679 0.215016 -0.824073 -0.947078 0.974037 -0.627869 -0.698070 0.518990 0.045282 -0.087089 0.366842 -0.011468 0.706879 0.400748 0.876227 -0.593366 -0.468511 -0.003015 -0.268821 -0.035313 -0.837745 0.096011 0.468366 0.307431 0.537997 0.836954 0.096309 -0.502122 -0.768803 -0.217594 0.936332 0.484876 -0.073600 
-0.887742 0.971459 -0.515611 0.839728 0.490450 0.529671 -0.247361 -0.142709 -0.481797 -0.540482 -0.741961 -0.605570 -0.133848 -0.210472 0.391415 0.597331 0.754215 0.553669 -0.306658 0.222582 -0.138899 -0.768662 0.059536 0.957410 -0.270784 0.290733 -0.260185 -0.334453 -0.224391 -0.262763 -0.222194 -0.686592 -0.291303 0.262195 -0.846864 -0.800854 -0.208134 -0.094225 0.056438 0.310069 0.365293 0.314477 0.704499 -0.768555 -0.895995 0.095913 0.828776 0.858221 -0.350418 -0.477883 0.080802 0.510683 -0.246544 -0.859662 0.468093 0.482671 0.431071 -0.792092 -0.851781 -0.793319 -0.054855 -0.073976 -0.479912 0.653842 -0.811781 -0.326776 0.852988 -0.019915 0.578999 -0.090574 -0.709846 -0.055708 -0.776097 0.994653 0.175737 -0.672092 0.090566 0.004513 -0.813871 0.740149 0.526630 0.266931 0.250832 -0.719914 0.407269 -0.281076 0.762757 -0.161660 -0.073168 0.910976 0.045020 0.871977 -0.163000 0.565109 0.525819 0.025219 -0.761667 0.378807 -0.994695 0.817332 -0.711767 -0.704541 -0.238375 -0.487864 -0.709888 0.937362 -0.159956 0.380678 -0.058125 0.026172 0.120827 -0.531494 -0.706897 -0.628341 -0.251409 0.700372 0.090583 -0.488651 -0.461288 -0.982585 -0.577675 0.583732 0.889392 0.259325 0.148841 0.415211 -0.715456 
0.387174 -0.710151 0.204506 0.082251 -0.414692 0.966131 0.594387 -0.124579 0.903493 -0.565569 -0.743901 -0.154632 0.460604 0.376926 0.313873 0.753707 0.748584 -0.937535 0.454079 -0.160833 -0.426187 0.992790 -0.143418 -0.003862 0.576522 -0.254025 -0.744537 -0.274637 -0.838814 -0.459993 -0.887463 -0.044796 -0.170144 0.317042 -0.962544 0.415164 0.283173 0.631843 -0.709415 0.186666 -0.933726 -0.453316 -0.967967 0.526878 0.923610 0.345907 0.280585 0.672194 0.408371 -0.265337 -0.488639 0.982185 -0.272546 0.367944 -0.021677 -0.696024 -0.886082 0.233786 0.029339 -0.724896 0.773793 0.141875 0.230309 -0.396351 -0.541082 0.267764 -0.981187 0.742090 -0.100392 -0.690602 -0.071244 -0.034118 -0.143918 -0.039211 -0.507240 -0.220308 -0.693304 0.773345 -0.548114 0.715067 -0.491992 -0.036753 0.697252 0.235462 -0.668809 -0.324425 0.539437 -0.554891 0.909360 -0.431224 -0.279787 0.683153 0.710651 0.950522 -0.713198 -0.830431 0.218286 -0.694384 0.911659 -0.882106 -0.384986 -0.159585 0.083776 0.471096 0.801205 0.576536 -0.749212 -0.892100 0.349881 -0.297326 0.822968 0.857889 0.665921 0.520220 0.093350 0.997112 -0.804206 -0.367212 -0.557779 -0.894845 0.201564 0.162435 0.788308 -0.087785 0.112956 -0.924890 0.081784 
-0.668757 -0.006557 -0.550864 -0.004260 0.833859 0.532912 -0.533164 0.635063 0.109448 -0.282376 0.742964 -0.540672 0.420299 0.565931 -0.682783 0.086220 0.086151 0.410568 0.083332 0.281945 -0.956644 0.525554 0.387100 0.244920 -0.312012 0.175408 -0.842865 0.800945 0.250518 0.238919 -0.867813 0.631244 -0.767638 -0.418676 -0.373017 -0.933779 -0.885764 0.093820 0.701285 0.223684 0.811444 0.444248 0.683012 0.231743 0.010180 -0.999771 -0.682037 -0.903669 0.410797 0.401295 0.378276 0.454153 -0.073151 -0.234624 -0.300928 0.614837 0.940784 -0.143793 0.415781 0.191302 -0.904874 0.547969 -0.177455 -0.672511 -0.870708 0.449529 -0.606290 -0.756472 -0.456652 -0.905005 0.467211 -0.645208 0.539243 0.150224 0.586535 -0.450577 0.150453 0.904498 -0.354246 -0.438750 0.305793 -0.975970 -0.984598 -0.767358 -0.210594 -0.285526 0.847479 -0.269810 0.570682 0.263260 0.921492 0.665808 -0.188771 -0.255963 0.993297 -0.059479 -0.806434 -0.612993 0.184049 -0.263086 -0.517998 -0.348740 0.091707 -0.978755 0.801484 -0.321758 -0.429333 -0.048063 -0.417260 0.216421 0.513186 0.888533 0.240451 0.528589 -0.878825 -0.970143 -0.756937 0.968654 -0.239953 0.813745 0.231914 -0.318462 0.479553 -0.956857 0.425575 0.472850 -3.816498 
0.619141 -0.832287 -0.643945 -0.658142 -0.181027 0.447762 -0.636897 -0.379543 -0.873996 -0.066230 0.572394 -0.291257 -0.849809 0.085580 -0.402724 0.390642 -0.385831 -0.281549 0.420499 -0.142768 -0.312896 -0.819455 -0.329023 0.919018 -0.137917 -0.849470 0.962161 -0.712342 0.623379 -0.054174 0.906799 0.483236 0.113539 -0.737146 0.825094 0.932512 0.710616 -0.811803 -0.447031 0.836620 0.121967 -0.874637 -0.454637 0.272158 0.210944 0.142639 -0.337200 0.825113 0.861090 -0.916701 -0.317655 -0.451806 -0.736156 0.353321 -0.532787 0.125928 0.503851 -0.570626 0.413586 0.127230 0.375200 0.320385 -0.389534 -0.511262 0.583240 -0.564439 -0.578750 0.293856 -0.376243 -0.025780 0.130476 0.745724 0.099583 0.675839 0.017882 -0.689474 -0.181522 0.680682 -0.864361 -0.320432 0.763981 -0.182017 0.227762 -0.972175 -0.828695 0.694975 0.153753 0.675156 -0.875651 -0.432661 -0.197614 0.499549 0.887724 0.412853 0.988288 0.470964 0.848413 -0.590462 -0.235180 -0.527829 0.383758 0.895296 -0.782105 -0.516660 0.571134 0.235778 -0.206133 -0.610388 -0.083540 -0.070494 0.069180 -0.319559 0.747489 -0.703058 -0.291733 0.918794 0.991917 0.862020 0.593950 -0.883733 -0.570641 -0.603664 0.615816 -0.682917 0.809189 0.604104 -2.317068 
0.657603 -0.447133 -0.870226 0.397399 -0.551837 -0.652331 0.880740 -0.980703 0.583447 -0.325393 -0.591091 -0.500093 0.604112 0.478089 0.180348 0.351601 0.775031 0.888614 0.270396 0.766948 0.750634 -0.135654 0.883214 -0.820007 0.260682 0.499030 -0.502925 0.069871 0.103134 -0.714878 -0.272526 0.116776 -0.162010 -0.142752 -0.485825 0.286152 0.204917 -0.605085 0.305449 -0.211637 0.069522 0.714358 0.288270 -0.326366 0.192447 -0.531383 -0.974765 -0.032523 -0.642768 0.295631 -0.265575 -0.892134 -0.840023 -0.382360 -0.712142 0.420659 -0.883330 -0.215066 -0.509470 0.219804 0.070056 0.218004 -0.663421 0.908046 -0.924748 -0.149246 0.194198 0.280168 0.245669 -0.500353 -0.931469 -0.684809 -0.785995 0.356801 -0.011176 0.406452 0.825418 0.014060 -0.626071 -0.817350 -0.690309 0.108354 -0.709484 -0.530333 0.725994 -0.421625 0.890326 0.842664 0.363308 -0.619144 0.062467 -0.566635 0.598860 0.399046 -0.658590 0.674112 -0.750199 0.535608 -0.045720 0.495469 -0.964745 0.022811 0.810660 -0.750740 -0.620388 -0.200515 0.655712 -0.794970 0.813544 -0.970359 -0.612319 -0.876765 0.137996 -0.321803 -0.407097 -0.136010 0.256572 -0.516771 -0.293347 -0.380120 -0.135915 0.769121 0.053245 -0.537055 0.168167 0.394655 -0.854457 
0.417968 0.091336 -0.086563 -0.034481 -0.885853 -0.275903 0.214779 -0.506241 0.523582 -0.129509 -0.301210 0.337126 -0.099868 0.086470 0.460361 -0.961872 0.764667 -0.946736 -0.097883 0.021239 -0.463507 0.608770 0.641119 0.400578 0.377891 -0.305637 0.863523 -0.453942 -0.910982 -0.999421 0.964026 0.019282 0.091916 -0.122537 0.984800 0.206063 0.601560 0.199579 0.699822 0.125142 -0.929930 -0.601389 -0.537732 -0.029798 0.485082 0.922629 0.008329 0.249749 0.975893 0.910447 -0.729012 -0.487613 0.519217 0.912107 0.912965 -0.102892 -0.393530 0.776487 0.443166 -0.304511 0.777067 0.407192 0.714770 -0.131018 -0.715345 0.699571 -0.924955 0.886215 -0.100850 0.774867 0.011356 -0.030780 -0.826522 0.473624 0.939421 0.658560 0.396253 -0.052249 -0.091691 0.372147 -0.141803 0.179298 0.884533 -0.622585 0.091405 0.797498 0.274523 0.697875 0.573985 -0.282311 -0.606636 0.351052 -0.875119 -0.891866 -0.779966 -0.590464 0.807705 -0.704921 -0.704249 -0.293146 -0.930054 0.307107 0.676074 -0.756575 -0.219269 0.615495 0.901985 -0.823015 -0.436754 -0.189706 0.549131 0.421444 0.989592 0.433664 0.798858 0.080997 0.231162 0.073381 -0.221128 -0.194853 0.791070 0.172236 -0.843801 0.915951 0.280370 -0.623766 -0.674513 
0.088075 -0.378762 0.794929 -0.258741 0.928345 0.471003 -0.015316 -0.290924 0.086498 -0.113331 -0.113939 0.649744 0.696963 -0.564808 0.071188 0.686555 0.868856 -0.129954 -0.232448 0.100018 0.943427 0.546423 0.905166 0.734497 -0.281341 -0.938635 0.650447 0.999029 -0.562401 0.975934 0.087104 0.108912 -0.402828 -0.117967 0.850171 -0.474484 -0.646964 -0.165145 0.234593 0.439534 0.721524 -0.879347 0.089278 0.418486 -0.444155 -0.839535 0.105041 -0.575299 0.030511 0.872593 0.524720 -0.026062 0.419016 0.429885 -0.291565 -0.862324 0.491250 -0.641118 -0.863295 0.928849 -0.665184 0.223809 0.037761 -0.068012 -0.894159 -0.112068 0.457504 -0.541123 0.722787 -0.307903 0.898410 0.444311 -0.187250 -0.012312 -0.137203 0.368595 0.148153 0.967839 0.793296 -0.821335 0.840431 0.318016 0.152603 0.259448 -0.252099 0.861038 0.397123 -0.760849 -0.780080 0.533828 -0.831999 -0.445264 -0.242364 0.205762 0.486724 -0.136522 -0.906306 -0.055772 0.322355 0.816481 0.636325 0.220765 0.260792 -0.550926 -0.791547 -0.876411 0.817669 0.356606 -0.908572 0.610966 0.535271 0.931859 -0.071019 -0.312126 0.191307 0.676882 -0.451088 -0.411570 0.916034 -0.231168 -0.877742 -0.915966 0.323568 -0.120106 0.289796 -0.189708 0.747615 
0.383490 0.065727 0.199971 0.390844 -0.713508 -0.539238 0.839919 -0.505055 -0.415649 0.657588 0.851551 -0.324221 0.268554 0.386822 -0.392362 -0.802465 -0.925303 0.798944 0.874418 -0.376391 -0.612626 0.790452 0.392441 -0.490368 0.874486 -0.283991 0.389526 0.164282 0.526301 0.132898 -0.452228 0.280821 -0.801375 0.747742 -0.328335 -0.514883 -0.791495 -0.488417 -0.019939 -0.207144 -0.830828 -0.168388 0.468635 0.437725 -0.781565 -0.923728 0.635260 -0.706868 0.875217 0.509678 -0.083259 -0.737409 0.300130 -0.690818 -0.227777 0.174616 0.025191 -0.838251 -0.661102 -0.448508 0.294647 -0.113330 0.832313 0.493272 -0.365588 -0.496022 0.978389 -0.157083 0.015561 -0.041550 0.635773 0.184733 0.790062 0.104407 -0.377542 -0.991503 0.180680 -0.742282 -0.698371 0.055896 0.767396 0.218369 0.318487 0.067526 0.527551 -0.909290 -0.757858 -0.447257 -0.747542 -0.418961 0.104235 0.547106 0.467709 -0.063452 0.040378 -0.897879 0.440525 0.018767 -0.054962 -0.543914 0.977217 -0.419190 0.640819 0.767279 0.685218 -0.736723 0.775776 -0.134103 -0.479005 -0.922596 0.921794 -0.711608 0.295774 0.240280 0.355918 -0.176675 0.330990 0.598059 0.376068 0.583449 -0.820901 -0.519698 0.130554 0.646807 0.416850 -0.829068 0.770145 
-0.142625 -0.306034 0.313462 0.166915 0.274776 -0.045719 -0.065806 -0.040006 0.217558 -0.290030 0.825891 0.738553 -0.212626 0.747684 -0.973055 -0.916852 -0.012035 0.382863 -0.093527 -0.681045 -0.019078 -0.717459 0.902403 0.160021 -0.237157 0.032958 -0.193172 -0.820307 0.203889 -0.444243 0.037068 -0.606412 0.249722 -0.649470 0.560503 -0.475502 0.304811 -0.505303 0.484492 -0.477631 0.204667 0.310383 -0.739078 0.992042 0.058067 -0.712133 -0.924810 -0.953968 0.670730 -0.018337 -0.635013 -0.348348 0.264204 -0.732609 0.811673 -0.972953 0.300348 -0.381499 -0.793260 -0.495762 0.174258 0.243809 -0.102174 -0.576020 0.594339 -0.541671 -0.051521 -0.100850 -0.046974 -0.567029 0.421519 -0.842307 0.743354 0.682441 -0.850265 -0.198579 0.970308 -0.775075 -0.152547 0.641038 0.206588 0.212441 -0.707310 -0.529207 0.479831 -0.895637 -0.502160 -0.219820 -0.277135 -0.295420 0.284417 0.897123 0.948389 -0.817757 -0.678897 0.542728 -0.359428 0.269582 -0.558122 0.593598 0.702552 0.863397 0.751292 0.445906 0.545838 0.901027 -0.752673 0.516146 -0.874048 0.094781 0.157184 0.332540 -0.692778 0.449874 0.803333 0.787053 0.554238 -0.698827 -0.432767 -0.722897 0.005753 0.851650 -0.825775 -0.045857 -0.966107 -0.504672 -4.041539 
-0.325535 -0.061251 -0.731937 0.467463 -0.197853 -0.980645 -0.086631 -0.652015 0.920381 0.160696 0.864131 -0.953667 -0.744523 0.021315 0.378874 -0.437301 -0.528811 0.182207 -0.650248 -0.974573 0.483380 -0.083016 -0.697470 -0.510867 -0.231366 -0.523245 0.443276 -0.197473 -0.027916 0.940147 0.476992 -0.263006 -0.121104 0.745055 -0.795544 0.681043 0.764409 0.117825 -0.970973 0.684791 -0.721479 0.893158 0.731124 -0.466002 -0.085527 0.109998 0.096697 0.385663 -0.707795 0.446449 0.411090 0.775584 -0.636567 0.713620 -0.735283 0.132067 -0.809625 0.707993 0.934594 0.162459 0.648140 0.411585 0.899452 -0.472964 0.156640 -0.896091 -0.791922 -0.078950 0.221734 -0.762894 -0.394160 0.500255 -0.869736 -0.663036 -0.965747 0.044738 0.446962 0.130950 -0.569599 0.739167 -0.422601 0.841491 0.514751 -0.059168 0.555111 0.779469 -0.927101 0.745486 0.487462 -0.992508 -0.092055 0.135601 0.419078 -0.192603 0.662637 -0.424282 -0.088694 0.870716 0.496768 -0.866960 -0.892178 -0.897392 0.633295 -0.761914 -0.560428 0.667548 0.282824 0.886535 -0.201501 0.713224 0.625701 0.375898 0.554715 0.140452 -0.683270 0.109826 -0.080079 -0.610372 -0.144688 -0.592617 -0.602879 0.763257 0.542984 0.816198 -0.429345 0.205621 -0.608084 
0.481961 0.888684 0.615000 0.184158 0.991292 0.248295 0.422244 -0.569136 -0.084157 -0.294932 -0.682601 0.714342 -0.581708 0.943100 0.090240 0.973007 0.083553 0.406970 0.082834 -0.996527 0.796598 0.938146 -0.589144 -0.806281 0.701403 0.953840 -0.990083 -0.727942 0.159461 -0.598167 0.754019 -0.764202 -0.709483 0.369019 0.419956 -0.718191 -0.382686 -0.157800 -0.287326 0.533158 0.547268 0.030073 0.247500 0.965560 -0.026827 -0.662260 0.938567 -0.943274 0.744710 0.021400 -0.939801 0.541308 -0.040454 -0.528945 0.735026 -0.339050 -0.575105 0.744943 -0.066992 0.584356 -0.853224 -0.312974 0.820154 -0.562707 -0.943955 0.240109 -0.280897 -0.326641 -0.917691 0.431776 -0.793483 0.629577 -0.538151 0.454017 0.595137 0.435022 0.791757 0.533704 0.491748 0.536467 -0.444896 0.551947 0.077774 0.514650 -0.976998 -0.187199 -0.824400 -0.552103 -0.442256 0.108608 -0.967747 -0.295480 0.795634 0.852406 0.141813 0.851679 0.092516 0.860916 -0.474961 0.174825 0.292692 -0.268444 -0.195598 0.754541 -0.814427 -0.600461 0.189564 0.977330 0.933243 -0.318689 0.513797 -0.511653 -0.766742 -0.408429 -0.997003 -0.743740 0.404372 -0.821403 -0.295843 0.962116 0.287205 -0.263590 -0.333365 0.082839 -0.411184 0.808449 -1.602278 
0.681332 0.459558 -0.143842 -0.037943 -0.808886 0.660560 -0.283402 -0.623313 -0.939901 0.906162 -0.645983 0.993342 -0.412527 0.867814 -0.518311 -0.179269 -0.540615 -0.515314 0.076991 0.863757 -0.336717 0.781148 0.825873 0.950488 -0.482442 -0.507492 0.033327 0.106375 -0.699043 0.967846 -0.212293 0.970322 0.427403 0.643865 -0.067622 0.618517 0.304425 0.648977 0.995204 0.364524 0.555138 -0.650779 0.357866 -0.857389 -0.782965 0.839554 -0.036657 -0.323580 -0.675760 -0.959666 -0.459822 -0.012477 0.821482 -0.633949 -0.061989 -0.660959 -0.141441 0.971338 0.445415 0.159516 0.939183 -0.766878 0.129838 0.366587 0.876987 -0.937784 -0.014896 0.181411 0.711193 -0.019692 -0.454065 0.266331 0.329529 0.903801 0.408942 0.546564 0.743355 -0.627715 -0.777016 -0.932405 -0.587381 -0.236838 0.055118 -0.765898 0.129213 0.993128 -0.426858 0.987772 0.964466 -0.981443 0.147289 0.903649 -0.748320 -0.722874 0.270236 -0.871334 -0.660658 -0.744660 0.310078 -0.949465 0.235648 0.856013 0.316866 -0.434823 0.759814 -0.274192 -0.888259 0.503169 0.098093 -0.665274 0.570765 0.510712 0.097888 -0.374118 0.744814 -0.772899 -0.380989 -0.682044 -0.785127 -0.416523 -0.663487 0.362162 -0.512874 -0.411807 0.639288 0.757363 -1.739377 
0.978630 -0.973063 -0.970835 0.248351 0.882950 0.346031 0.813528 0.642764 -0.928161 0.925269 0.145934 0.169932 -0.740005 -0.283302 -0.319356 0.357883 0.342581 -0.574542 0.584983 0.961592 -0.256586 0.799857 -0.454932 0.079928 0.162019 0.032195 0.668121 -0.198693 -0.210443 -0.615020 -0.220063 -0.197740 -0.588083 -0.190897 -0.949389 -0.705133 -0.844866 0.864139 0.937631 -0.773027 0.789408 0.083564 0.396905 -0.950597 0.800262 -0.922451 0.407285 0.142843 -0.496992 -0.007731 0.104435 0.246422 -0.207874 0.649503 -0.673651 0.954144 -0.318302 0.994470 -0.244549 0.471255 -0.620550 0.535388 -0.726485 -0.208634 -0.655509 -0.675874 0.086233 -0.500375 -0.811735 0.023864 -0.273403 0.977673 -0.892572 -0.876498 -0.972924 0.907690 -0.798949 0.434361 0.050533 -0.295941 -0.573370 -0.845032 0.950481 0.218756 0.804471 -0.723170 0.172900 -0.513832 -0.728700 0.928351 0.957423 -0.349250 0.463740 -0.769062 0.442117 0.808230 -0.444936 -0.471650 -0.692145 -0.256671 0.552213 0.034452 -0.278998 0.659641 0.157954 -0.251922 0.567331 0.359006 -0.817560 -0.382135 -0.936935 -0.390930 -0.227168 -0.986454 0.827825 -0.422697 -0.709624 0.000725 0.063471 -0.438324 -0.070923 0.020895 0.212426 -0.607184 0.251833 -0.345457 -1.563740 
0.806897 -0.491098 -0.449774 -0.264895 0.543354 0.271228 -0.605253 -0.298692 -0.980693 0.962078 -0.939686 -0.798254 -0.420058 -0.876622 -0.189184 0.352775 -0.863076 -0.361359 0.930078 -0.572700 0.639367 -0.006451 -0.011024 -0.431557 -0.985556 -0.798598 -0.038741 0.266276 -0.144055 0.162306 0.073173 -0.961163 0.671208 0.623399 -0.226057 0.214561 -0.105372 0.168689 0.915870 -0.086066 0.130767 0.976183 0.115680 0.710710 -0.900438 0.926496 0.063484 -0.763514 -0.434863 -0.006438 -0.336214 -0.795497 0.987111 0.652762 -0.227053 -0.998445 0.854164 0.734206 0.267831 -0.289891 -0.103488 -0.658996 -0.251054 -0.432281 0.964403 0.522889 0.782281 -0.140969 -0.308422 0.698150 0.772965 0.822345 0.674334 -0.111355 0.533055 0.773895 -0.184859 -0.403461 -0.989619 0.380278 0.590101 -0.325833 0.584781 0.577212 -0.673072 -0.642272 0.578767 -0.818908 -0.908066 -0.153402 -0.108799 -0.011554 0.187602 0.640147 0.556165 0.152006 0.163036 0.338446 -0.988963 0.854614 0.036596 0.784002 0.676960 -0.289070 -0.327353 0.210015 -0.515175 0.487788 0.806554 -0.504794 -0.131934 0.396655 0.169373 -0.547153 -0.026132 0.496301 -0.189425 -0.447365 0.677393 -0.097491 0.399233 -0.431406 0.890954 -0.413165 -0.791259 0.447119 -0.750351 
0.371778 0.749878 0.226392 0.822161 0.533880 -0.096648 -0.466910 -0.793473 -0.886634 0.017915 0.694314 0.919920 0.513121 -0.437620 0.316576 -0.317506 0.015227 -0.709557 -0.821205 0.825802 -0.156922 0.856189 -0.271690 -0.757689 -0.575217 -0.380735 -0.170854 -0.366476 -0.933616 -0.432013 -0.994698 -0.148052 -0.682135 0.231694 -0.325891 0.851745 -0.864954 0.207200 -0.941728 -0.751588 -0.774885 0.752586 -0.831667 0.738236 -0.685034 0.484908 -0.579269 0.330193 0.775352 -0.400474 0.155995 -0.381570 -0.544285 0.884306 -0.139260 -0.119502 -0.496430 0.689887 0.514022 -0.430046 -0.742126 0.519324 0.421902 -0.424261 -0.248982 -0.903989 -0.572516 -0.113936 0.303211 -0.514244 0.134476 0.528326 -0.761658 0.302808 0.266562 -0.446692 -0.212283 0.687293 0.883502 -0.436932 -0.713180 0.039497 0.181498 -0.257465 -0.076198 -0.957762 0.623033 0.427373 0.732125 0.137055 0.997327 0.989999 -0.343621 0.419229 -0.434262 0.407397 0.515240 -0.006778 -0.706539 -0.181549 0.478978 0.427937 -0.653223 0.717320 -0.269254 0.613340 -0.729372 0.518462 0.300633 -0.845870 -0.918469 0.587453 0.193626 0.263028 -0.670013 -0.882571 0.305267 0.953020 0.544802 0.037392 0.090075 0.542128 0.027390 0.746454 -0.038643 0.593128 -3.531776 
-0.523403 0.447313 0.295049 -0.934672 -0.124750 0.641826 0.782648 0.605995 0.255166 -0.946724 0.124458 -0.444201 -0.792595 0.205988 -0.856748 0.401032 -0.530983 -0.526761 0.518461 0.774283 -0.573741 0.063262 -0.188325 0.516334 -0.394610 0.839065 0.262788 0.566747 0.432194 -0.583361 -0.956656 -0.981456 0.863952 0.338393 -0.916128 -0.260798 -0.019781 0.866520 -0.654803 -0.764615 0.919795 0.469655 -0.208817 -0.872800 -0.324357 -0.065565 0.528232 0.144659 0.407674 0.046693 -0.081057 0.833933 -0.890045 0.730618 0.350267 -0.284655 0.569683 -0.386945 -0.717908 0.001877 0.029694 -0.674563 0.020421 -0.106354 0.663829 0.104293 0.632848 -0.355952 -0.029187 0.978045 -0.120567 -0.109392 0.447700 0.670616 0.017808 -0.876657 -0.394949 -0.453960 0.268002 -0.987275 0.592733 -0.813055 0.846659 0.702687 0.917563 0.196926 -0.581968 0.487246 0.809980 -0.299875 -0.510877 -0.160326 0.025561 0.509544 0.733321 -0.310609 -0.386163 0.366169 0.333439 0.584650 0.344214 -0.787129 -0.524742 -0.208087 0.883487 0.493066 -0.084744 -0.511462 -0.960894 -0.816742 -0.498736 0.631839 -0.629797 -0.652078 0.334526 -0.712234 0.544848 0.752559 0.775012 0.354828 -0.547317 -0.735864 -0.805497 0.478244 0.773680 0.927823 -0.975585 
-0.612482 0.501074 0.972168 -0.361794 0.713945 -0.552574 0.430119 0.597432 0.940492 -0.654625 -0.914030 0.979597 -0.471366 -0.412766 0.611436 -0.101163 -0.064843 -0.054038 0.186603 -0.519995 -0.301479 -0.038384 0.834833 0.151204 0.225752 -0.970664 -0.370552 -0.000568 0.957159 -0.202917 0.386950 0.251151 -0.701843 0.359118 0.889357 -0.987898 0.806543 0.319476 0.609534 0.747035 0.664852 0.695504 0.726632 -0.806515 -0.717262 0.338068 0.092322 0.217895 -0.715969 -0.721074 0.697899 -0.017449 0.240541 0.532732 -0.866245 -0.533707 0.562068 -0.236797 0.465725 0.519227 0.560287 -0.147325 -0.229621 0.858444 -0.788208 -0.340264 0.870545 -0.981664 0.979212 0.480079 0.765371 0.644064 0.175583 0.492003 0.837549 0.458321 -0.169928 -0.070129 -0.323784 0.114102 0.208797 -0.625885 -0.903347 -0.550662 0.906848 -0.769591 -0.084369 0.468916 -0.006388 -0.618644 -0.011856 -0.446101 0.234030 0.758522 -0.587658 0.445823 -0.581742 -0.717112 0.464159 -0.602530 0.762967 0.229529 -0.958466 -0.061451 -0.278467 0.879083 -0.603130 0.551604 -0.191046 0.073086 -0.334294 -0.982249 0.447202 -0.237640 -0.532910 0.354050 -0.007232 0.382721 -0.177034 0.986380 0.764076 0.811109 -0.459721 -0.001893 0.569631 -0.047379 -4.356232 
0.987890 0.908088 -0.614640 -0.001524 0.137618 -0.573107 0.937025 0.859150 -0.694024 -0.666104 0.410755 0.114931 0.406982 -0.923539 0.132682 -0.145816 -0.161179 0.599771 -0.791767 0.831589 -0.017508 0.031199 0.817969 -0.253431 -0.157692 -0.641752 0.744675 -0.588060 0.310870 -0.811395 -0.600171 -0.453621 -0.903307 -0.214811 0.544855 0.234311 0.212082 0.481880 0.093462 0.518059 0.815776 -0.495784 -0.367011 0.222758 -0.419323 0.765671 -0.923058 0.419498 0.365443 -0.714824 0.251087 -0.652065 0.316375 0.069056 0.094503 -0.841317 0.427305 -0.160821 -0.429378 -0.261825 0.027784 -0.029548 0.284554 0.124477 0.755640 -0.170591 -0.641211 -0.032277 -0.688711 0.452250 -0.514219 -0.872935 0.956466 0.118770 0.349824 -0.462857 -0.115559 0.426766 0.956641 -0.750116 0.711942 0.207728 -0.402181 0.028316 -0.723215 0.692322 0.186999 0.704090 -0.468499 0.757622 -0.557736 0.559284 -0.271927 0.726818 -0.316238 -0.516287 -0.443773 0.042550 0.451436 -0.132483 -0.505200 0.937217 -0.005418 -0.548734 0.055987 -0.655594 -0.011590 0.940428 0.771172 -0.054949 -0.809688 0.483114 -0.847221 -0.211869 -0.488570 -0.570436 -0.519547 0.698429 -0.866346 0.011953 0.456051 -0.424082 -0.428762 -0.815876 -0.697264 0.254999 -0.327920 
-0.141037 -0.880727 0.726480 -0.207650 -0.943510 -0.278938 0.243616 0.112477 0.065468 -0.767974 0.052906 -0.163360 0.177077 0.243218 -0.680247 0.329856 -0.968651 -0.168817 0.759420 -0.488199 -0.470388 0.893074 0.523754 0.985663 -0.531008 -0.905008 -0.830213 -0.228272 0.349991 -0.162376 0.630691 0.647541 -0.043103 0.357171 -0.560110 0.013387 -0.921767 0.683507 -0.874136 0.143700 0.915533 0.178770 0.980340 0.092610 -0.578012 -0.699907 -0.577534 -0.546664 0.131276 -0.818113 -0.034862 0.660889 -0.925039 -0.511108 0.646552 -0.456048 -0.416116 0.816338 0.315680 0.933875 -0.346038 -0.053628 0.581416 0.610859 -0.696457 -0.978694 -0.375753 -0.618225 0.704813 -0.249889 0.525476 0.620345 0.928881 0.505816 -0.287045 -0.649131 0.805909 0.135421 -0.195795 -0.062815 0.317308 0.769343 -0.401927 0.392268 -0.741765 -0.755375 0.936221 -0.157881 -0.939037 0.251901 -0.224006 -0.285074 -0.801727 -0.642590 -0.674215 -0.498185 -0.621284 -0.049968 -0.116410 -0.916471 0.700143 -0.590934 0.703874 0.629024 0.914882 -0.583171 0.979892 0.720790 0.552250 -0.215903 -0.342025 -0.130443 -0.446560 0.256049 -0.738174 -0.188325 0.500674 -0.801954 0.653794 0.561637 0.449948 -0.570212 -0.723438 0.648220 -0.212802 -0.397653 -0.832991 
0.165914 0.033626 0.249442 0.252522 0.442692 -0.046684 -0.118455 0.357574 0.370145 -0.138562 0.078364 -0.077605 0.645535 0.736339 0.791953 -0.801025 -0.007612 -0.946222 0.010650 -0.506939 -0.748175 -0.335556 -0.945302 0.701772 0.094232 -0.668739 0.349992 0.881430 -0.066392 0.500028 0.047343 -0.514013 -0.466346 -0.703214 0.738509 0.976346 0.250102 -0.379946 0.333919 -0.379753 0.481492 -0.587717 0.542642 0.127027 -0.851378 0.334595 0.326002 0.141010 0.388373 -0.663348 0.634072 0.640198 0.001096 0.688770 0.341970 -0.904672 -0.979970 -0.308038 0.976757 -0.046362 -0.808010 0.024101 0.439625 -0.274356 0.320886 0.178134 -0.298011 -0.429012 0.798189 -0.964091 0.191235 0.279680 -0.551808 -0.266122 -0.593293 -0.403186 -0.931527 0.732709 0.737825 0.456846 -0.930639 0.371896 0.097043 0.070457 0.060666 -0.560987 0.165785 0.080696 0.130976 0.142542 -0.965666 0.322966 -0.833357 0.473960 -0.951391 0.487529 -0.347906 -0.249401 -0.941483 -0.549717 -0.213492 0.249753 0.729963 0.234700 0.983630 -0.863330 0.831514 -0.947897 0.869379 0.569339 0.508949 0.938740 -0.058765 -0.394008 0.009197 -0.998099 0.045005 -0.825019 0.082597 -0.824019 0.317524 0.116932 0.498946 0.484166 -0.409108 0.547556 -0.028311 
0.242986 0.030213 0.693269 0.084662 -0.720035 0.423232 -0.680638 -0.736404 0.559902 -0.849124 -0.684301 0.429281 0.720215 0.824647 0.368021 -0.338549 -0.569361 -0.622783 -0.336648 0.475644 -0.447801 0.745949 0.651625 0.869722 -0.137119 0.150571 0.353889 0.453772 -0.301874 -0.674416 -0.303242 -0.003719 0.355797 -0.609973 -0.919057 0.635762 0.813259 -0.599695 0.899358 0.373161 -0.448818 -0.784943 -0.197559 -0.728603 -0.960296 -0.829538 -0.067152 -0.529657 -0.452321 0.596200 0.945987 0.099878 0.342149 0.597612 -0.030400 -0.794971 -0.251818 -0.676511 0.658802 0.446309 -0.350927 -0.644440 -0.557410 -0.995131 -0.254413 -0.476467 0.640631 -0.441155 -0.076161 0.539989 0.932006 0.475021 0.755046 -0.265553 0.746418 0.794749 -0.095091 -0.320734 -0.734908 0.452588 -0.724535 -0.788921 -0.447534 0.617614 0.808691 0.522067 0.822643 -0.443127 0.845556 0.481445 -0.996818 -0.505371 0.837005 -0.554228 -0.500502 -0.417409 -0.030694 -0.859871 0.141437 0.893144 0.680119 0.073443 0.368165 0.435164 0.807890 0.114583 0.229914 -0.287201 0.793849 0.495006 -0.834613 -0.930686 0.706085 -0.282146 0.686928 0.514776 -0.760079 0.509572 -0.928350 -0.914524 -0.008983 -0.925168 -0.419895 -0.171979 -0.479396 0.079603 -0.078802 
0.489910 -0.447950 0.383054 -0.100149 0.625492 -0.248781 -0.664984 0.433382 0.865802 0.564929 -0.853819 0.659651 0.059935 -0.688432 0.728966 -0.233980 0.029422 0.415894 -0.719203 0.269342 -0.074534 -0.647554 0.354819 0.916483 -0.572722 0.934924 -0.255496 -0.052118 0.014527 -0.844883 -0.562208 -0.765740 -0.292833 0.820846 0.134111 -0.667341 -0.427934 0.469126 0.766041 -0.562132 0.034056 0.912221 -0.902481 -0.906009 -0.776211 0.826485 -0.139989 0.253211 0.242379 0.140808 -0.477447 -0.832155 0.493254 0.877372 -0.915673 0.920532 0.812296 -0.171169 -0.131586 -0.173178 -0.016052 0.306206 0.061082 0.691115 0.127053 -0.804807 -0.976226 0.699118 0.664319 0.789814 -0.863014 -0.301625 0.702036 -0.765495 -0.207635 0.925825 -0.939010 0.652377 0.179036 0.303369 -0.206815 0.701589 0.471214 -0.713561 0.578961 0.555541 -0.793029 0.391257 -0.615628 0.075385 -0.781921 0.368321 -0.618409 0.279161 0.059436 0.508644 0.474353 0.083209 0.207762 0.138672 -0.126976 0.344749 0.837047 -0.424941 0.579254 -0.370588 -0.499116 0.640244 -0.718211 0.679920 -0.056387 0.074974 0.381509 -0.585174 0.361412 -0.039530 0.970367 0.568383 -0.648273 -0.645260 -0.356232 -0.430194 0.723061 0.025360 0.848966 -0.217504 -0.465996 
0.323320 0.741766 -0.538008 -0.261270 0.086515 -0.700961 0.313789 -0.334232 -0.071548 0.814673 -0.693988 0.210241 0.494593 0.249625 -0.714785 -0.123897 0.664451 0.646627 0.836573 0.634818 0.215010 -0.811700 0.989558 0.858778 -0.241895 0.712619 -0.115862 -0.392928 -0.504885 0.418141 0.930392 -0.639179 0.159907 -0.607616 0.099550 -0.753578 -0.308577 -0.586661 -0.087810 0.619875 -0.771988 0.218202 -0.169884 0.722606 -0.532173 0.115330 -0.401292 -0.867722 -0.238043 -0.564719 0.767097 0.976967 -0.376419 0.756655 0.835746 0.381686 0.469273 -0.280117 0.988758 0.964388 -0.861975 0.919150 -0.674791 0.297932 -0.688466 0.424759 0.544354 0.002957 0.838098 -0.543455 -0.377168 -0.933889 0.674747 0.452948 0.788716 -0.857426 -0.431722 -0.612576 -0.725147 0.330235 -0.177295 -0.958050 0.307203 0.446286 0.798605 0.142949 -0.172027 0.267878 0.862832 -0.183269 0.232266 -0.999143 -0.264119 0.557475 0.298789 0.047415 -0.017765 -0.156856 -0.949629 -0.179667 0.299688 -0.326797 -0.113556 -0.025565 -0.873849 -0.324840 0.117010 -0.305571 0.062584 0.391863 -0.975336 0.885289 0.433812 0.331867 0.331576 0.232417 -0.525184 -0.840452 -0.499705 -0.662352 -0.023721 0.732561 -0.661495 0.712160 0.290037 0.637294 -4.040587 
