127 127
-0.047986 0.364484 -0.751475 0.347493 -0.044176 0.881689 0.946018 0.810841 -0.961710 0.467084 0.218114 0.910526 0.051985 -0.219240 0.872513 -0.487100 -0.790712 -0.269269 -0.933473 0.686904 -0.410696 -0.080831 -0.224643 0.940513 0.468928 0.119226 -0.244602 0.958051 0.917916 0.618323 -0.089935 0.819044 -0.017192 0.158590 0.166536 0.938631 0.040279 0.112554 0.749472 0.078570 -0.420361 -0.032414 -0.010904 0.631624 0.748346 -0.138392 -0.855476 0.957634 0.592339 -0.788949 0.644538 -0.818357 0.130220 -0.580104 -0.877844 -0.400852 0.539121 -0.122446 -0.442801 0.457037 -0.504122 0.467264 0.276081 0.478685 -0.374145 -0.557382 0.417317 0.666134 0.555172 0.166789 -0.255297 -0.865189 -0.865625 0.733799 0.766434 0.882721 -0.404593 0.910958 0.840355 -0.812254 -0.877991 0.484893 -0.630611 0.252229 0.904789 -0.508455 0.851377 0.443910 0.369099 -0.591423 -0.099052 0.864976 0.875841 -0.822971 0.343662 -0.498304 -0.380354 -0.239022 -0.832170 -0.825182 0.927767 -0.087467 -0.690371 -0.937857 -0.353668 -0.923937 0.944864 0.241739 0.987021 0.785219 0.429485 -0.890970 0.270112 0.798874 0.361258 0.174901 -0.709581 0.212636 -0.381189 0.659518 0.621212 0.519759 0.524494 0.497053 0.696788 -0.131844 0.998749 3078795.505002 
0.629134 -0.508747 0.556901 0.079111 -0.199119 0.619044 0.725443 -0.123056 0.563907 -0.032818 -0.136035 0.349126 -0.603333 -0.027005 -0.380762 -0.804458 -0.665747 0.794140 -0.514040 0.546889 -0.587049 -0.854522 0.168101 0.932710 0.669972 -0.334846 0.629498 -0.461873 -0.336097 0.945932 -0.832739 -0.169519 -0.562815 0.724162 0.909592 0.238066 0.343206 0.635036 -0.884989 -0.092887 -0.397782 -0.021024 -0.743761 -0.001115 0.951971 -0.124522 0.194427 -0.713776 -0.330383 0.680387 0.833113 0.082568 0.825865 0.001214 0.015278 0.495837 0.666368 -0.355224 -0.966036 -0.669729 -0.409292 -0.798775 0.160752 0.027893 0.925388 0.070344 -0.734041 0.268593 -0.294620 -0.619030 -0.824294 0.307598 0.359946 -0.568055 -0.693517 0.311917 0.307423 0.500910 0.598141 0.977040 0.181298 0.431254 0.059608 0.007163 -0.567532 -0.925114 -0.497000 -0.901164 -0.280338 -0.463036 -0.570893 0.310370 -0.261811 0.589859 -0.661737 -0.336423 -0.339797 -0.395778 0.932170 0.365583 -0.014808 -0.892124 -0.326819 -0.654862 -0.460178 -0.020335 0.657055 0.847245 -0.519425 0.255196 0.824285 0.661873 -0.313550 -0.116107 -0.330965 0.118919 -0.041221 0.172035 0.217755 0.678441 0.708999 0.646862 -0.011189 -0.552812 0.236721 0.327074 0.110765 2942065.056653 
0.931295 0.262508 -0.083513 0.150811 0.935690 0.261625 0.690633 -0.084646 -0.081321 0.537877 0.395930 -0.826125 0.362162 0.057802 -0.139675 -0.753945 0.726838 0.979244 0.204834 -0.101127 0.196999 -0.116725 -0.392128 -0.156139 0.872085 0.055060 -0.919417 0.199159 -0.834175 0.977508 0.130454 0.208760 0.240016 -0.953059 -0.640429 0.175706 0.308566 -0.949796 -0.908940 -0.772755 0.588081 0.486990 -0.598880 -0.049757 -0.455208 0.261446 0.196298 -0.728370 0.240690 -0.598869 0.170502 -0.562311 0.284406 0.778374 0.281550 0.156492 -0.166566 0.362133 -0.644349 -0.000741 0.339641 0.486105 -0.791981 -0.420343 0.533046 -0.432410 0.755362 -0.158388 -0.382206 0.846422 0.068857 -0.794125 0.333412 0.469977 0.156118 0.878204 -0.268577 -0.647584 -0.850167 0.972113 -0.246453 0.320336 -0.590199 -0.962047 0.098710 0.691351 0.194445 0.932144 0.053484 0.550095 -0.068597 -0.606875 0.036200 0.139423 -0.027218 -0.430754 0.707013 -0.271856 0.410858 -0.675193 -0.425434 -0.520284 -0.469318 0.907978 0.949693 0.686800 0.786181 -0.318884 -0.960784 0.936014 -0.346771 -0.207237 0.256350 0.063030 -0.169284 -0.644940 -0.245618 -0.974839 -0.712796 0.807866 0.575256 0.218607 -0.799009 -0.388544 -0.641970 0.173772 0.180702 3173755.326371 
0.901916 -0.610150 -0.523518 0.071276 -0.079467 -0.615540 0.020969 -0.392667 -0.829359 0.702085 -0.353451 -0.893345 -0.644686 0.439312 0.363005 0.418344 -0.729972 0.718065 -0.827274 -0.704811 -0.994731 0.980591 0.870445 0.223876 -0.818418 -0.518099 0.581906 0.355355 0.662603 0.646949 0.257271 -0.745837 -0.963201 0.733753 0.325439 -0.042668 -0.881787 -0.653592 0.564665 -0.711146 -0.951507 -0.788786 -0.604491 -0.596193 0.650526 0.758514 0.822151 0.920555 0.476579 0.994876 -0.784256 0.481847 0.975468 -0.913812 -0.294277 -0.842950 -0.431911 -0.712371 0.512405 -0.769308 0.934578 -0.230324 -0.515145 0.971377 -0.496571 0.810294 -0.071291 -0.378359 -0.843298 -0.506626 -0.089505 -0.794805 -0.295411 0.306004 -0.390999 -0.644885 0.064518 -0.568848 -0.724330 -0.458904 -0.573972 -0.508587 -0.977056 -0.598505 -0.422398 -0.271333 -0.441455 0.145691 0.016295 -0.929050 0.376382 -0.049127 -0.159374 0.861237 -0.077750 0.344054 0.671531 0.850960 0.965696 0.828233 -0.655666 -0.123809 -0.966573 0.048923 -0.817805 -0.357572 0.404038 0.246713 0.073580 0.679708 0.787809 0.499608 -0.828879 0.810753 0.901104 -0.251277 -0.460580 -0.540351 0.894414 0.555715 -0.469401 0.270796 -0.493412 0.371225 0.132033 0.428839 -0.284721 4806036.671028 
0.279798 -0.368203 0.624132 0.557165 -0.334776 -0.326945 0.739360 0.307652 -0.922907 -0.013927 -0.618768 0.756801 -0.226117 0.880840 0.927923 -0.415364 0.781944 -0.323354 0.124055 -0.758407 -0.428940 -0.320230 -0.227808 0.841856 0.186359 -0.856584 -0.026111 -0.384803 -0.141305 0.777453 0.894995 0.539670 -0.590750 0.519128 0.096835 0.074474 -0.807817 -0.163805 -0.617873 -0.730723 0.822269 -0.236641 -0.973922 -0.403849 -0.355800 0.954001 0.180787 -0.573856 -0.369353 -0.695158 -0.332263 0.201706 -0.015387 0.439928 0.043562 -0.829029 0.583345 -0.982549 -0.213831 -0.557960 0.794904 -0.318836 0.981709 -0.795845 -0.799708 0.078544 0.278629 -0.607525 0.914740 0.660756 -0.338248 0.737008 -0.575885 -0.312170 -0.666840 0.068315 -0.358169 0.513947 0.494459 0.272478 0.818789 -0.837805 -0.525816 -0.196598 0.602124 0.517746 -0.025627 0.185468 0.535196 0.760542 0.627508 0.330101 -0.558294 0.609218 0.534255 -0.358002 -0.312238 -0.187116 0.034473 -0.397498 -0.526360 0.696225 -0.660490 -0.102245 -0.615945 -0.327330 0.966070 0.025886 -0.813383 0.460528 -0.701636 -0.994594 0.622723 -0.227453 -0.191191 0.224847 -0.709707 0.783182 -0.589685 0.825489 0.543724 -0.962177 0.155590 0.985430 0.647041 -0.310155 -0.372572 2368319.775737 
0.502729 -0.062695 0.976369 0.358127 0.276816 -0.125876 0.742182 0.949486 -0.159807 -0.231932 -0.863897 -0.699279 0.066432 -0.858491 0.923445 0.838979 -0.049682 0.148292 -0.870728 -0.266500 0.558607 0.954761 -0.722776 0.596430 0.110351 -0.737346 0.243471 0.800196 -0.109918 0.578275 0.302925 -0.448016 -0.484420 0.279294 0.910110 0.792396 -0.846583 0.652292 0.741882 -0.006389 -0.579640 0.877985 0.294332 0.486792 -0.980506 0.217777 0.325771 -0.030188 -0.633932 0.455043 0.703313 0.924675 0.409804 0.980537 0.521105 -0.479845 -0.756809 -0.235423 -0.679649 0.133274 -0.657148 0.623276 0.685257 -0.141568 -0.097430 0.595368 -0.349172 0.055987 0.247660 -0.607291 -0.950402 0.668020 -0.729306 0.343930 0.154812 -0.709811 -0.438293 -0.519418 0.260001 -0.072225 0.935625 -0.036686 -0.147550 0.345429 -0.056150 -0.626444 0.865584 0.187041 0.138132 -0.814066 -0.679685 0.480984 0.809210 -0.994428 -0.660584 -0.288220 0.600940 -0.009757 0.767767 -0.151400 0.382952 0.817365 -0.483380 0.653647 0.161295 0.671432 0.943835 0.723002 -0.847986 0.203836 -0.349223 -0.912361 -0.832850 0.503227 0.433067 0.111000 0.876783 0.298651 -0.701958 0.014915 0.484585 -0.381643 -0.504101 0.293795 -0.376071 -0.164685 -0.994425 5860571.648793 
0.825558 0.073470 0.208511 0.590707 0.590090 -0.137843 -0.247998 0.261521 -0.194007 -0.524997 0.413535 -0.990171 0.125780 0.501174 -0.823021 -0.370992 -0.065759 0.287980 -0.494209 -0.767109 0.586021 0.520706 0.717477 -0.795622 -0.983394 0.011272 -0.171692 -0.148079 0.016847 0.053177 -0.322521 -0.209811 -0.873353 0.885990 -0.619104 0.716737 -0.251853 0.132898 -0.021742 0.554140 0.607901 -0.608207 0.563969 -0.266318 0.892967 0.740948 0.362689 -0.172793 0.028928 0.868480 0.060099 -0.385051 0.389186 -0.222425 -0.180673 0.405792 0.788847 0.647635 -0.742288 -0.194306 -0.299188 -0.064809 0.595884 -0.172541 -0.178819 0.976780 -0.455804 0.569328 0.109678 0.522454 0.123468 -0.282421 0.914247 -0.312563 0.451260 0.807213 -0.571615 -0.186050 -0.365580 0.457312 -0.317570 0.694519 -0.927739 -0.928384 -0.527906 -0.108411 0.477408 -0.739059 -0.460776 0.735120 0.066636 0.240036 -0.329688 -0.337481 -0.932505 0.491493 -0.360701 -0.388310 0.060820 0.748976 -0.865856 -0.815712 -0.533445 -0.951609 -0.128275 0.917815 0.855604 0.300110 -0.268235 -0.509976 -0.242578 0.414195 -0.815457 -0.170317 0.485811 -0.343363 0.721272 -0.036782 -0.082422 -0.739504 -0.301662 0.984214 0.500531 0.368650 -0.353267 0.568026 -0.139858 3234446.830546 
-0.820284 0.035008 -0.686140 -0.894749 0.501563 -0.637749 -0.023024 0.419379 -0.782146 -0.722914 -0.848856 -0.292122 0.034508 0.565339 -0.107579 0.864191 0.051149 0.549059 0.585463 -0.985633 -0.533363 0.845958 -0.287294 -0.549149 0.346490 -0.918644 0.097584 -0.085484 -0.058502 -0.616384 0.094232 -0.137539 0.418624 0.408093 -0.032288 -0.079813 0.770344 0.944688 -0.660434 0.988198 -0.778226 -0.509290 -0.303924 0.256282 -0.943952 0.588498 0.120472 0.107197 0.137556 -0.294065 0.121565 0.604193 -0.448106 0.834271 -0.944956 0.898384 0.915626 0.152628 -0.187100 -0.142875 0.536244 0.907132 0.719586 -0.045131 0.315225 -0.312702 0.875056 0.085568 -0.368013 -0.785378 0.073766 -0.146239 -0.294668 0.769843 -0.889958 -0.238620 0.358340 0.230515 0.868577 -0.504103 0.936450 -0.009858 -0.899910 -0.511656 -0.175588 -0.844866 -0.613273 -0.259961 0.307763 0.199627 0.597163 -0.155993 0.106759 0.316749 0.798876 -0.578016 -0.995953 0.673932 0.507552 -0.363966 0.888554 -0.418682 0.489794 -0.406115 -0.648840 0.599836 0.355265 0.709501 -0.169649 0.223842 -0.794603 -0.233199 -0.786016 -0.694513 0.255145 0.038396 -0.539379 0.641872 0.778435 0.768384 -0.158501 0.375598 -0.387609 0.948258 -0.307653 -0.588733 -0.629758 4984489.928368 
-0.914802 0.332428 0.973752 -0.540889 -0.177778 -0.432363 -0.189729 -0.577941 0.922902 -0.480228 0.252410 0.146744 -0.274831 -0.980789 0.360728 0.030656 0.274356 -0.600876 0.491278 -0.083772 -0.822441 0.259661 0.757727 0.553158 0.872052 0.705985 -0.754495 -0.716681 -0.923773 -0.058101 -0.631483 0.954020 -0.725673 -0.657731 -0.586869 0.096549 -0.090094 0.223403 0.518607 -0.167192 0.743175 -0.228983 0.979552 -0.531656 -0.209772 0.340280 0.499000 -0.935416 0.739404 -0.009722 -0.019188 0.916963 -0.750061 -0.261461 0.470121 -0.878009 -0.555476 0.715626 -0.594690 -0.479249 -0.342476 -0.226173 -0.525229 -0.068149 0.116095 -0.112098 -0.971600 -0.973999 -0.888695 0.547007 -0.141191 0.854479 -0.681976 -0.161639 -0.677177 0.108252 -0.821360 0.821823 0.172836 0.918044 -0.187899 -0.846352 0.835008 0.062040 -0.107813 0.305129 0.184031 0.336711 0.020754 0.589341 0.857462 0.678279 -0.636832 -0.667767 -0.389870 0.479263 0.220135 -0.361470 0.505264 0.331440 -0.814463 -0.635927 0.185920 -0.496438 0.202434 0.508743 0.611814 0.381074 0.330567 -0.215350 0.299118 -0.857332 -0.061702 0.134126 0.204708 0.830485 -0.560745 -0.611261 0.167196 0.460009 0.978080 0.024658 0.138288 -0.658752 0.356891 0.748418 0.820511 2057971.778395 
-0.613052 0.908467 -0.427515 0.689848 0.094386 0.076047 -0.107719 -0.396871 -0.312139 -0.726645 0.933696 0.472512 0.572474 -0.923636 -0.589190 -0.293400 0.281071 -0.758705 0.145854 0.669810 0.408491 -0.394136 0.647890 -0.566851 0.744152 0.989138 0.790040 0.492570 0.809649 -0.632934 0.879518 0.135423 -0.724467 -0.547997 -0.174729 0.369919 0.528050 0.717553 0.973049 -0.784088 0.990908 0.906744 0.688424 0.563382 0.983108 -0.900766 -0.730019 0.264180 -0.659471 0.415836 -0.066010 0.749020 -0.978301 -0.418120 -0.817831 0.765851 -0.428982 0.972209 0.258421 -0.619333 -0.660724 0.137938 0.516090 -0.385191 0.589941 -0.658638 0.984728 0.117992 -0.941086 0.957776 0.333903 -0.950177 0.864521 0.022327 0.613204 0.847629 0.121561 0.883186 0.111809 0.462090 0.299022 -0.954201 0.211110 0.320721 -0.372321 0.393280 0.086572 0.198697 0.365489 -0.655007 0.579364 0.704765 0.482931 0.095454 -0.680427 0.072872 0.436816 -0.695699 -0.809136 0.495730 -0.737923 0.524767 0.545553 -0.873402 -0.452906 0.158757 0.974227 0.668655 0.041943 0.086035 0.130745 -0.659036 0.131834 -0.658145 0.661685 0.759513 0.735135 -0.251743 -0.041790 0.100624 0.093250 -0.462426 -0.194612 -0.423819 0.633029 0.124962 0.649053 4548156.713289 
0.429263 -0.434426 0.691340 0.364684 -0.888873 0.817938 0.911778 0.269884 0.792165 0.580433 -0.688173 -0.121800 -0.288823 -0.347209 -0.989966 0.053032 -0.685524 0.769547 -0.211833 0.062734 -0.272242 0.888791 -0.844016 0.265332 -0.305821 -0.267835 -0.101640 0.819141 -0.618782 0.968205 0.248404 -0.778865 -0.466221 -0.060256 0.585819 -0.355094 -0.242318 0.497597 0.914790 -0.450153 0.078030 -0.773383 0.428047 0.789207 -0.120592 0.438082 -0.157761 0.193884 0.207629 0.630406 -0.743382 0.935387 0.519197 -0.587398 0.200719 -0.786624 0.144766 -0.900921 -0.967483 0.525984 -0.932716 0.280921 0.747119 -0.398937 -0.779336 0.332937 0.245969 -0.021654 -0.169466 0.160759 0.528194 0.908564 0.387376 -0.043759 0.697771 -0.733216 -0.605677 -0.459990 0.460668 0.601952 -0.829583 0.717286 0.537339 0.689613 -0.870112 -0.261942 0.902989 0.274654 -0.162863 0.935506 -0.199362 -0.095580 0.216427 -0.452243 0.505483 0.437091 0.880694 -0.248548 -0.584562 -0.288772 0.912211 0.943631 -0.380208 0.299587 -0.100128 -0.682437 0.566370 0.294195 -0.142427 0.027038 -0.103853 0.027990 -0.255676 -0.566514 -0.282397 -0.125788 0.171543 -0.379408 -0.851134 -0.991320 -0.443901 -0.050496 -0.086900 0.772525 0.497260 -0.581417 0.209616 2888517.686251 
0.170035 -0.910817 0.082246 0.568685 -0.291025 -0.618167 -0.531443 0.026538 0.948203 0.762752 0.884111 -0.024758 -0.341101 -0.087900 0.719566 0.092384 0.629703 -0.406222 -0.736073 -0.749704 -0.257357 -0.727393 -0.193606 0.692147 0.185707 -0.421081 0.189407 0.604290 0.788536 -0.432638 -0.225675 0.413589 -0.343455 0.856572 -0.017726 0.365520 -0.761596 0.450831 -0.607943 -0.813392 0.213583 -0.723832 0.161850 0.872482 0.188268 -0.118584 -0.035134 -0.182028 0.475193 0.228793 0.068267 -0.782163 0.501400 0.874662 0.909984 -0.312893 -0.546419 0.099391 -0.708602 -0.757884 0.666753 0.065723 0.655706 -0.676702 -0.077705 -0.362020 0.688817 0.160699 -0.911188 -0.919125 0.347307 0.302395 -0.642957 -0.490843 0.174876 0.545311 0.390572 -0.860258 -0.636717 -0.134234 0.368535 0.431550 0.083602 -0.130064 0.306212 -0.006414 0.557043 0.759793 -0.907023 0.848441 -0.998091 0.759730 -0.085836 0.657615 -0.916973 0.836459 -0.704405 0.771844 -0.002842 -0.615593 0.852719 -0.655535 0.686802 -0.790238 -0.146378 -0.138322 0.755073 -0.755806 0.001420 -0.881644 0.109959 -0.630045 0.549906 -0.806438 0.239891 -0.143882 0.187148 -0.203066 -0.384089 0.280124 -0.354625 -0.382179 0.039854 0.559538 -0.724564 0.122881 0.395997 2193856.857066 
-0.105275 -0.044562 -0.252556 -0.262380 -0.357760 -0.042794 0.591241 0.503918 -0.287721 0.835435 -0.494662 -0.169365 -0.054606 -0.124706 -0.619459 0.138956 -0.884815 0.236659 -0.673896 -0.087881 0.852571 0.606228 0.557493 -0.529609 -0.353918 0.117032 -0.254173 0.768963 -0.486971 0.316858 -0.336311 -0.093816 -0.727704 0.411133 0.643803 -0.085463 -0.631661 0.235044 -0.581545 0.080618 0.070479 -0.076207 0.911252 -0.984126 0.799086 -0.708206 0.154830 0.914271 0.528453 0.480934 -0.173610 0.381024 0.087162 -0.616117 0.851415 0.733244 0.500915 -0.402758 0.502208 -0.986056 0.914100 -0.834104 -0.079873 -0.813603 0.577029 -0.436070 0.100933 0.945368 0.798974 0.519388 0.025986 -0.130546 -0.556820 -0.062762 -0.114673 -0.757733 0.229032 -0.959843 -0.843462 -0.242515 0.521091 -0.017072 -0.861492 -0.391747 0.366811 0.989923 -0.658503 -0.132275 -0.412835 0.843705 -0.118331 -0.498735 -0.990399 0.801796 -0.312338 0.586630 -0.634273 0.788595 0.531998 -0.835299 0.307982 -0.442016 0.034155 0.751163 0.495222 0.919482 0.993430 -0.275746 0.959639 -0.850033 0.481738 0.480730 0.132895 0.620247 -0.911017 -0.500295 0.610170 -0.569520 0.367431 -0.802665 -0.725816 -0.750900 -0.301400 -0.716215 -0.949104 0.386262 0.870415 6194683.010276 
0.174857 -0.418676 -0.517161 0.960397 0.615479 -0.765998 0.455619 0.534961 -0.772568 -0.820127 0.494600 -0.622601 0.661611 -0.024670 0.510294 0.281858 0.064312 -0.990001 -0.107972 0.494792 0.377430 0.089363 0.768976 0.626530 0.787963 -0.947239 0.677427 0.174225 0.923176 -0.905950 -0.650918 0.325590 -0.324626 -0.168078 0.285987 -0.709148 0.065924 -0.258394 0.825813 0.293356 -0.078521 0.320413 0.670755 -0.416910 -0.704258 0.181049 0.864948 0.360054 0.191048 -0.243024 -0.145154 -0.431521 0.846339 -0.376178 -0.804991 0.634302 -0.323417 0.872436 -0.191472 -0.400240 0.966485 0.157610 0.925349 -0.358141 0.989532 0.211336 -0.067289 0.055456 0.952943 -0.241476 -0.651188 -0.125578 -0.921063 -0.980433 0.457512 -0.625321 0.200616 0.322460 0.734733 -0.608336 -0.920564 -0.410421 -0.039857 0.925775 0.213401 0.155152 0.560077 0.889985 0.027588 -0.631395 -0.510255 -0.005926 0.526216 -0.584906 0.635933 0.515748 0.626430 -0.431356 -0.428796 0.579373 0.327168 -0.079984 -0.546205 0.406105 -0.060418 0.911307 0.780784 -0.859802 0.233767 0.515517 -0.468138 0.313203 -0.894904 0.492005 0.238978 0.318498 -0.352843 -0.200945 0.208483 0.674745 0.167661 0.698227 -0.331181 -0.306124 -0.886679 -0.695249 -0.790376 2939538.636680 
-0.126605 0.319125 -0.799436 0.700843 0.772920 0.606669 -0.359574 0.684226 0.387452 -0.219376 -0.082007 -0.097030 0.312486 -0.768805 0.008066 -0.195509 0.470173 -0.673436 0.451648 -0.730772 0.535047 0.126394 0.436889 0.233274 0.795212 -0.869235 0.346595 -0.900036 -0.659611 0.086347 -0.026641 0.121217 -0.594528 0.173923 -0.177940 -0.821608 -0.219409 0.462486 0.862618 -0.831956 -0.756890 -0.219390 0.071013 0.555596 0.011806 -0.920921 -0.639913 -0.518021 -0.594357 0.811735 -0.248793 0.940690 -0.061871 -0.811904 0.173964 -0.266658 -0.681139 -0.479441 -0.166695 -0.340750 0.606906 0.806665 0.780467 -0.987621 -0.019413 -0.397473 -0.809230 0.761178 -0.934988 -0.946612 0.929222 -0.691878 -0.166001 0.000235 0.863718 0.845804 0.079314 -0.776195 -0.672217 0.484957 -0.964460 0.078990 0.425647 -0.026331 0.267086 -0.400389 0.707010 0.585947 0.120170 -0.459684 -0.754803 -0.272924 -0.653020 -0.974336 -0.260545 0.327568 -0.371809 -0.069775 0.088746 -0.306797 -0.016386 0.017968 0.001325 0.817612 -0.981797 -0.134957 0.663417 0.097518 0.088848 0.991200 -0.417525 0.124387 0.070190 -0.991878 -0.901944 -0.662723 -0.392267 0.805067 0.923224 0.727903 -0.654617 -0.831579 -0.545021 -0.307637 -0.805914 0.194434 -0.980069 1790797.400309 
-0.875341 0.515480 0.108273 -0.873355 -0.483195 -0.074115 -0.855152 0.381848 -0.410698 0.242366 -0.529305 -0.419498 0.824841 0.595083 0.650692 0.832963 0.693139 0.987969 -0.559304 0.498206 0.911193 -0.831402 0.843589 -0.920386 -0.376423 -0.464048 -0.726300 0.818011 -0.444117 0.095976 0.942670 0.664560 -0.388544 0.050943 0.791205 0.128261 0.976828 0.936053 -0.489892 -0.433870 0.178418 -0.019196 0.146632 0.003259 -0.424113 -0.202676 -0.163779 -0.730974 -0.214707 0.276917 0.767232 -0.303514 0.445515 0.610821 -0.223899 -0.930908 -0.853226 0.049801 0.887103 -0.297343 -0.854223 0.829774 -0.632783 -0.242767 -0.119284 -0.841579 0.885493 -0.142455 -0.905526 -0.604398 0.423675 0.272892 0.376406 -0.429694 -0.723849 0.952293 0.367631 0.112372 -0.778681 -0.847076 -0.610711 0.988551 -0.150590 0.834804 0.599373 0.625511 0.903897 0.746146 -0.324689 0.791000 -0.551197 -0.178912 0.620774 -0.183980 0.578321 -0.498510 -0.025559 0.463814 0.359035 0.068915 0.859416 -0.217291 -0.658193 0.235822 0.353016 -0.382042 0.188115 -0.279354 0.730330 0.409433 -0.126430 -0.880381 0.397984 0.722980 0.954423 -0.002643 0.348491 0.858320 -0.256497 -0.976198 0.649320 0.192306 -0.155109 0.270094 -0.991674 -0.576788 0.771584 3826137.931124 
0.887026 -0.948318 0.746442 0.913327 -0.606511 -0.017736 0.266343 0.011446 -0.829621 0.986990 -0.258224 0.579812 -0.139440 -0.138605 -0.022204 -0.416460 -0.184182 0.975153 0.932031 -0.325862 -0.281344 0.955834 -0.676543 0.910962 -0.199276 0.593551 0.919288 0.223936 0.365135 -0.097945 0.110962 -0.504247 -0.046263 -0.142596 -0.590920 0.347226 0.839668 0.675424 -0.641328 -0.989954 0.662413 0.100448 0.589858 -0.477027 0.961842 -0.432346 0.106513 -0.222340 -0.457193 0.038544 0.451798 0.261464 -0.005622 0.775255 0.172426 0.795102 0.368806 0.091714 0.019037 -0.266059 0.993769 -0.870001 0.229694 -0.052494 -0.012598 0.638774 -0.705268 -0.172930 0.314198 -0.346596 -0.162884 -0.023389 0.753852 -0.573026 0.499584 0.715694 -0.005371 -0.393903 -0.506646 0.537436 0.644641 0.945152 -0.201100 -0.360982 0.720407 0.971326 -0.565880 0.089213 0.063040 0.453157 0.823154 0.056809 0.583156 0.052848 -0.995685 -0.429441 -0.308378 -0.700953 0.397629 -0.994180 -0.047549 -0.765255 -0.017569 -0.293698 -0.338281 -0.517985 -0.578004 0.656348 0.088112 -0.084650 0.193784 -0.267248 -0.139498 0.992684 0.371771 -0.419091 0.964010 0.805891 0.670122 0.027049 0.259048 0.493276 -0.916142 -0.157796 -0.453876 -0.911827 0.412763 2303417.634852 
-0.612780 0.243566 0.339670 0.045136 -0.774003 -0.954028 0.706856 -0.291988 -0.532032 0.363204 0.796123 0.383319 -0.443012 -0.471125 -0.756180 -0.450328 0.900646 -0.175271 -0.486318 0.706537 -0.505149 0.540731 -0.034415 0.988127 0.624589 0.807789 -0.465749 0.712762 0.220552 0.771997 -0.900018 -0.969057 0.015562 0.439652 0.076079 0.241559 0.485625 -0.217065 0.949570 0.953593 -0.853862 0.745694 0.336911 -0.296874 -0.725431 0.580732 0.252798 -0.824785 -0.594539 0.766480 0.881752 -0.099688 0.307211 -0.152663 -0.111561 -0.068200 -0.344874 0.422690 -0.355438 0.875678 0.194687 -0.255457 0.906620 -0.789751 -0.815804 -0.017301 0.451808 0.669820 0.765634 0.401378 0.623413 0.911772 0.147072 -0.039676 -0.385102 0.421641 -0.458944 0.867696 0.596856 -0.053483 0.634176 0.478608 0.846830 -0.058613 -0.674055 -0.264731 0.873187 -0.018929 -0.842041 -0.482252 -0.143252 0.352646 0.262292 -0.236631 0.562894 0.446487 0.746068 0.014702 0.116307 0.511702 -0.583920 -0.260280 0.423474 0.563152 0.700045 -0.961627 -0.015207 -0.758899 0.906069 -0.418351 0.187618 0.540245 -0.939743 0.034448 -0.518368 -0.613798 0.769717 -0.645181 0.367273 0.927676 -0.127433 -0.775979 0.280321 -0.865141 -0.012610 -0.156784 0.581346 4614753.208687 
0.857918 -0.754839 -0.726002 0.437374 0.668635 0.837150 0.137418 0.707008 -0.178057 0.378519 0.613077 0.403592 -0.433862 0.153323 0.463849 0.600586 0.634955 0.850052 0.370302 0.989774 0.217325 0.297978 -0.137659 0.441346 -0.421701 -0.002800 -0.571264 0.421515 -0.421453 0.162195 0.279433 0.276200 0.407356 0.553431 -0.286426 0.075991 0.390582 0.850992 -0.217001 -0.787475 0.229512 -0.603924 0.616118 0.795650 0.549398 0.079967 0.396235 0.184353 -0.069981 -0.233462 0.174127 -0.852657 -0.935484 -0.963531 0.588689 -0.357185 0.033669 -0.982575 -0.935670 0.612216 0.179620 0.343763 -0.111584 -0.413024 -0.102806 0.601990 0.662967 -0.712224 0.452983 -0.554035 -0.499699 -0.317506 -0.157959 -0.883581 -0.521856 -0.608560 0.196386 0.874379 0.575793 -0.873596 -0.359083 -0.250080 -0.726253 -0.294568 -0.213611 0.862436 0.348247 0.820058 0.879861 0.412577 0.432274 0.059481 -0.243660 -0.679310 0.646457 0.653535 0.922680 0.309424 0.941310 0.375662 0.755389 -0.558389 -0.941843 -0.402570 -0.441970 -0.463700 -0.011130 0.754415 -0.589320 -0.435337 0.880820 0.051596 0.314583 -0.845433 0.757028 -0.899028 -0.982997 0.105276 0.921030 0.896864 -0.482147 0.353304 -0.043654 0.274193 0.673993 -0.397197 -0.072272 5976013.535724 
0.912227 -0.027665 0.667616 0.310650 0.030492 -0.734954 0.868680 0.566792 0.253916 0.623095 0.977472 0.818579 0.503915 0.029068 0.133163 0.658481 -0.213904 0.234135 0.675484 0.891372 0.155165 0.572349 -0.590775 -0.491531 -0.471306 0.683418 -0.817538 0.131497 -0.388854 0.779135 0.043724 0.480184 -0.248530 -0.288660 -0.209166 0.781962 -0.023614 -0.340487 0.348754 -0.769698 -0.717392 0.326225 -0.951118 0.786523 -0.644707 0.182044 0.445004 0.141389 -0.583821 0.120488 0.032761 0.571344 -0.307163 0.441986 -0.920187 0.221531 0.125404 -0.737725 -0.646972 0.736550 -0.958590 0.396752 0.216734 -0.207120 -0.891908 -0.992433 -0.425159 0.084478 -0.332919 0.923595 0.314780 -0.050311 0.249820 0.363662 -0.263789 0.605114 -0.454294 -0.818785 -0.253497 -0.038114 0.301704 0.779264 -0.466770 0.994541 0.221250 -0.386957 0.216072 -0.653345 -0.124683 0.569100 -0.916796 -0.083273 -0.034148 0.299938 0.709606 0.073944 0.307506 -0.715552 -0.841578 0.974586 -0.791957 0.473202 -0.075725 0.457863 -0.163136 0.660486 0.062977 0.382570 0.841702 0.809480 -0.655544 0.143406 0.588744 -0.122314 0.137946 -0.190005 0.490729 -0.645982 0.156649 -0.633954 0.923118 0.239854 0.282773 -0.111030 -0.460208 -0.007621 0.962914 4654201.329002 
0.276827 0.821884 0.484870 0.594538 -0.253841 -0.057267 -0.568598 -0.593354 -0.994291 0.813972 -0.751653 0.815189 -0.841572 0.391753 0.403934 0.036114 -0.470301 -0.786072 -0.473157 -0.116283 0.370578 -0.107111 -0.193166 -0.389569 -0.824338 0.695804 0.150223 0.168041 0.658718 -0.002479 -0.555132 0.780054 -0.180595 0.929738 0.374591 0.565565 -0.127530 0.805993 0.972210 -0.121820 0.619966 -0.779443 -0.306631 0.778394 0.612310 -0.902697 -0.185492 -0.857991 -0.688769 0.341351 0.025726 0.681809 -0.765760 0.832560 -0.707760 -0.590098 0.528364 0.442464 0.577943 0.187082 -0.560015 -0.977189 -0.032864 0.259390 0.952548 -0.658273 -0.175045 -0.174981 -0.852279 -0.202835 0.703199 0.767686 0.017722 -0.603432 0.546080 -0.369967 -0.506129 -0.639412 -0.227958 -0.194898 0.701939 0.797768 -0.513089 0.936179 0.630328 -0.220849 -0.653919 0.158692 -0.778385 0.924024 -0.654225 -0.338400 0.946834 0.312911 0.920991 0.899383 0.654638 -0.254054 -0.275598 0.802358 0.543111 -0.572400 0.570045 -0.439167 -0.175832 0.116124 0.190866 0.318038 0.476713 0.962908 -0.876860 0.178652 0.760676 -0.389949 0.114831 0.391004 0.389202 0.460911 -0.450303 0.610817 0.384935 -0.104529 -0.727583 0.331769 -0.791618 -0.806592 0.231152 2820651.527292 
-0.060646 0.665378 -0.517536 -0.616846 0.235423 0.043298 0.207322 -0.648453 -0.765836 -0.474640 0.828260 -0.802928 -0.351500 0.006912 0.957748 0.258551 -0.878258 0.348752 -0.352247 0.582654 0.898448 -0.741430 -0.032411 -0.206080 -0.469013 -0.700642 0.002302 -0.275605 0.530510 -0.134678 0.663749 0.486064 -0.469300 -0.853786 0.869218 0.766123 0.189511 0.076539 -0.882330 0.423675 0.601899 0.945930 0.620746 -0.749601 -0.047159 0.578494 0.508950 0.074584 -0.072754 -0.843297 -0.342763 -0.174306 -0.584727 0.624826 0.619614 -0.053740 0.924184 -0.378085 0.670655 0.454694 0.487237 0.334404 -0.059242 -0.982063 0.480618 -0.190024 0.784060 -0.329871 0.886515 0.901730 -0.906196 0.488414 0.847660 0.714550 0.738813 -0.199499 0.293044 0.247762 0.875085 -0.779710 0.404465 -0.467678 0.045984 0.819738 -0.842852 -0.334403 -0.234002 -0.918668 0.287513 -0.563347 0.536027 -0.225250 0.771057 -0.523215 -0.207313 0.251675 0.286760 -0.423254 0.921804 0.173275 -0.521524 -0.984392 -0.338311 -0.673864 0.730159 -0.599498 0.126637 0.023203 0.648264 0.001721 0.243492 0.052729 0.534043 -0.710524 -0.127533 0.691192 -0.044927 0.638464 0.772524 -0.757414 -0.924883 0.308550 0.017336 0.846175 0.785335 0.810023 0.097850 2764510.985229 
-0.613231 -0.754629 -0.134755 0.035263 -0.092940 0.191381 -0.234579 0.307561 -0.681983 0.788624 -0.044175 0.319739 0.032116 -0.991446 -0.146218 0.321592 -0.118979 -0.455026 -0.723335 -0.480515 -0.682503 -0.480749 -0.405398 0.626048 0.536587 -0.559223 0.411383 0.346610 0.538627 -0.516521 0.733379 -0.441719 -0.271151 -0.401376 0.593544 0.635909 0.790004 -0.641035 -0.056530 -0.891978 -0.852411 0.899295 0.427760 0.179705 0.907849 -0.718458 -0.498703 -0.211130 -0.173484 -0.222038 0.308356 0.144013 0.297213 0.902958 -0.229939 -0.166199 -0.656265 -0.818556 -0.819590 0.882362 -0.335077 0.913789 -0.559357 0.393772 -0.487588 -0.965813 0.029681 -0.697583 -0.606849 0.973151 -0.589562 -0.459260 0.872446 0.838198 0.720445 0.780295 -0.880259 -0.778259 -0.430834 -0.053744 -0.000297 0.877522 -0.909730 -0.703083 0.780480 -0.139669 0.130717 -0.875785 0.041775 0.311127 -0.993423 0.706697 0.224916 -0.552780 0.100469 0.737329 -0.518594 -0.869850 -0.960255 -0.125442 -0.896699 -0.549817 0.415298 0.975747 -0.711618 0.135742 0.756043 -0.591878 0.357484 -0.674791 0.354379 -0.642813 -0.797270 0.444648 -0.345896 0.983210 -0.695021 0.784821 -0.892575 0.346753 0.095949 -0.885999 0.053451 -0.679135 -0.438779 -0.846080 -0.941806 2700977.914907 
-0.715929 0.917185 -0.612628 -0.451877 0.332483 -0.636881 -0.163496 -0.531775 -0.880838 0.244627 0.825709 -0.555629 -0.400995 -0.817104 -0.352899 -0.956347 -0.163000 -0.369689 -0.651368 -0.378179 -0.262264 0.695385 0.717770 -0.148263 -0.251164 -0.961365 0.412958 -0.097243 -0.903171 -0.544415 0.186828 -0.805232 -0.627230 0.574200 -0.257110 0.705253 0.937319 0.579395 -0.826522 -0.943519 -0.175979 0.999187 -0.499148 0.423026 -0.817917 0.147954 0.466680 0.019083 0.778265 0.815312 0.640904 -0.483999 0.510697 0.358674 0.367738 -0.740466 0.397309 -0.219304 0.162290 0.494137 0.236281 -0.650882 0.688905 0.609051 0.923318 -0.568205 0.314304 0.860637 -0.988810 0.487782 0.917118 -0.164789 0.486969 -0.582029 -0.741762 0.669052 0.565924 0.724917 -0.311864 0.344189 0.540229 -0.670960 0.860190 0.050927 0.687714 0.227927 0.310460 0.085023 -0.991377 -0.527249 -0.420840 0.244904 -0.178131 -0.731935 -0.146045 -0.254813 -0.300139 -0.831741 -0.394177 -0.288950 0.656041 -0.477058 0.546262 0.143010 -0.059088 0.804499 -0.187937 -0.493164 0.529417 0.500198 0.851025 0.069646 0.829238 0.711215 -0.879427 0.516952 -0.060858 0.431033 -0.398025 -0.052235 0.903784 0.181136 -0.807331 -0.274347 0.449201 0.046624 0.470839 4392150.990339 
0.214883 -0.139888 -0.129075 -0.400396 -0.593626 -0.986065 0.540516 -0.789127 -0.174002 -0.952647 0.740290 -0.673803 0.898378 -0.190064 -0.844565 0.609593 -0.069491 0.672387 -0.451265 -0.638458 -0.725637 0.496501 -0.734675 0.455499 0.689170 -0.009022 -0.095300 -0.264206 -0.538183 0.053761 0.950678 -0.461520 0.913873 -0.178398 0.138084 -0.679753 -0.164462 -0.321400 -0.468880 0.661536 -0.274047 -0.728590 0.987732 -0.375669 0.081346 -0.856833 -0.766076 -0.988146 0.815555 -0.217341 -0.626604 -0.910082 -0.720840 -0.361279 0.545416 0.968330 0.629699 -0.549884 -0.295876 -0.908483 0.503877 -0.345199 -0.370003 0.417750 0.476404 0.768081 0.737997 -0.688058 -0.553319 -0.730882 0.973477 0.172634 -0.459473 0.961210 0.796965 0.621873 -0.895623 -0.969112 0.633728 0.919932 -0.186453 -0.992876 -0.990151 0.092707 -0.354155 0.555266 0.061037 -0.724456 -0.994618 0.765160 -0.632939 0.509259 -0.580038 -0.002942 -0.072991 0.896366 -0.234861 -0.334994 -0.791693 0.211820 -0.065876 -0.818215 -0.615546 0.474651 -0.857006 -0.818582 0.096525 -0.752629 -0.787693 -0.269748 -0.832697 0.025854 -0.262624 -0.822847 -0.881439 0.383221 0.732418 0.179598 0.658765 0.737800 -0.055241 -0.974174 0.247059 0.364720 0.022884 -0.825932 0.261086 4968383.558135 
-0.160926 -0.000157 0.773198 0.651178 0.384297 0.247849 0.794172 0.565716 -0.655626 -0.958456 0.778023 0.074626 -0.791153 -0.196123 0.812002 -0.614000 -0.077562 0.195222 -0.881582 -0.897964 -0.146012 0.856218 0.046795 -0.120186 0.103276 -0.588485 0.902698 0.277344 0.672601 0.690722 -0.883582 0.141995 -0.309435 0.889616 -0.206827 -0.925137 0.137465 -0.412655 0.640579 0.481838 -0.371111 0.418601 -0.443536 -0.162264 -0.777522 -0.631534 0.223735 0.144917 0.563689 0.342153 0.246953 -0.582324 0.198371 -0.706252 0.297490 -0.698353 -0.294737 0.200189 0.578991 -0.622135 -0.109089 0.695409 0.519859 0.581476 0.585025 -0.686968 0.656339 -0.277511 -0.099623 0.296918 -0.795672 0.529266 -0.284481 -0.239208 -0.632998 -0.062003 0.129258 0.590737 -0.917086 -0.307053 -0.067110 0.329867 0.110623 -0.868739 0.623615 -0.591886 -0.567092 -0.671122 0.608303 -0.988101 -0.293257 -0.500787 0.707309 -0.773398 -0.919311 0.292333 -0.460366 0.737028 -0.985177 0.440012 0.033946 -0.780850 -0.030722 0.749465 -0.020057 0.336280 -0.312538 -0.890799 -0.072983 -0.229624 -0.197852 0.859907 -0.899757 0.912772 0.991168 0.723858 -0.679115 -0.575924 -0.947264 0.929188 -0.564025 -0.240522 -0.571599 -0.856716 -0.013920 -0.490910 0.435617 4729408.071126 
-0.753882 -0.034274 0.280064 0.669590 0.935004 0.029529 -0.350467 0.271284 0.716991 -0.241266 -0.801699 -0.512634 0.560882 -0.941793 -0.412391 0.473654 -0.950625 -0.688533 0.794539 -0.526549 -0.635798 0.723727 -0.090574 0.123681 -0.847871 0.052710 -0.890239 -0.338781 -0.511673 0.635476 -0.092662 0.938767 -0.398798 -0.812598 0.608357 -0.463794 0.216930 -0.742110 0.807490 -0.066079 0.016624 -0.994209 0.421288 -0.422494 -0.936002 -0.991103 -0.948840 -0.886627 -0.679636 0.845699 -0.413177 -0.315434 0.569427 0.496249 0.808247 0.721555 -0.451041 0.918008 -0.617226 0.037286 0.553483 0.290112 -0.023948 -0.845315 0.477513 -0.415591 -0.309108 -0.305556 -0.157701 -0.501618 0.628365 0.858922 -0.495827 0.049652 -0.563572 -0.431830 0.058549 -0.512412 -0.318457 0.378913 -0.666713 0.268367 -0.936521 0.902713 -0.235384 0.871726 0.624269 0.313575 0.789734 -0.992957 -0.649140 0.343217 0.297155 0.326913 0.497902 -0.225332 0.911322 -0.811206 0.469112 -0.246380 -0.312824 0.097477 -0.387458 0.191348 -0.852871 0.048970 0.759519 0.205678 0.536558 -0.558938 -0.415409 0.869845 0.709429 -0.351930 0.772558 -0.525956 -0.480204 0.396827 0.787619 -0.690470 0.403870 -0.861520 0.652747 -0.298975 0.465392 0.150649 0.475693 3235372.678550 
0.339443 -0.869666 -0.973381 -0.957718 -0.257124 0.217968 -0.810589 0.791846 -0.022513 0.395090 0.328404 0.418549 0.979681 0.198249 0.127977 -0.372249 -0.029193 0.602022 0.147547 -0.632367 0.389641 0.457077 0.771503 0.528121 0.109824 -0.527472 -0.006487 -0.739527 0.948221 -0.629774 0.599916 -0.106975 -0.499440 0.626536 -0.064693 0.243436 -0.155497 0.124718 0.035283 0.821990 -0.480192 -0.636313 0.240538 -0.500511 0.561935 -0.631484 0.127240 -0.467258 0.970538 -0.725212 -0.099625 0.360179 0.731865 -0.328122 -0.111701 -0.158312 0.144406 0.881812 0.102162 0.092627 -0.747962 -0.297922 0.985652 -0.247401 -0.671386 -0.079041 0.996035 0.173117 -0.954322 0.031318 -0.004893 -0.434514 0.395005 -0.764355 0.064975 -0.043060 -0.395839 -0.807785 0.489682 -0.425301 -0.532997 -0.609943 0.934877 -0.801132 0.061935 -0.176823 0.040556 -0.793659 -0.295012 -0.857282 0.298967 -0.042973 -0.155204 0.284619 0.709625 0.173409 -0.794421 0.705660 -0.653474 -0.748744 -0.263022 0.341632 -0.183258 -0.868017 0.577277 0.881717 0.088923 -0.818562 -0.926068 -0.421396 -0.243863 -0.459065 -0.031339 -0.308986 -0.260197 -0.969404 0.514191 0.780359 -0.763063 -0.780821 0.923076 0.535904 0.176206 -0.232128 -0.179477 -0.114169 0.941281 3505496.916129 
-0.408509 0.277358 0.328470 0.629439 -0.905899 0.460453 0.206717 0.975818 -0.450625 0.388155 -0.950250 0.127980 -0.855708 -0.409315 -0.903360 -0.164694 0.330488 -0.872764 -0.650504 0.110847 -0.635827 -0.431325 0.033924 0.900077 0.744881 0.801796 -0.279400 -0.369288 0.743077 0.746702 0.222204 -0.969116 0.024060 -0.449327 0.660323 0.118160 -0.988874 -0.132960 0.093978 -0.439499 -0.744805 0.143728 0.688481 -0.600513 0.734414 0.785121 0.234792 0.064902 0.912357 0.584289 -0.824251 -0.723470 -0.847036 0.209673 -0.823393 0.897846 0.011468 -0.102794 -0.471442 -0.245455 -0.356092 0.750761 -0.214571 0.667968 -0.698565 -0.554249 -0.213872 -0.687439 0.312791 0.880106 -0.126938 0.567986 0.023834 -0.438457 0.967472 -0.241752 -0.653336 0.202265 0.823150 -0.740979 -0.213446 0.998899 -0.464449 -0.060482 0.208571 -0.287842 -0.162636 -0.779961 0.609364 0.365921 -0.025416 -0.746728 0.116683 0.760013 0.921240 0.418117 -0.794236 -0.292632 0.730678 0.518556 -0.412526 -0.396260 0.086541 0.611308 0.165283 0.054014 -0.630444 0.511947 -0.743721 -0.807295 0.770968 0.042832 -0.808396 -0.693480 0.982350 0.400175 0.018678 -0.180286 0.620215 -0.371958 -0.814364 -0.405201 -0.118685 0.302318 -0.645188 -0.197445 -0.279564 3422540.491993 
0.509922 -0.920868 -0.902604 0.054854 0.165673 0.708704 -0.779863 -0.780313 -0.921740 0.732084 -0.524034 -0.729035 0.503052 0.518798 -0.537431 0.809572 0.501149 0.862745 -0.171750 -0.679137 0.482959 0.456293 -0.493502 -0.922242 -0.662392 0.808817 -0.567430 0.140162 -0.470748 -0.006853 -0.349916 -0.019634 0.072279 -0.252519 -0.964779 -0.762048 -0.543815 -0.744642 -0.542361 -0.465555 0.987442 -0.066395 -0.194590 0.490494 -0.547597 0.267979 0.300067 0.953552 0.130724 -0.871683 -0.725585 -0.386317 0.584610 -0.219087 -0.308558 0.922217 -0.410270 0.124012 0.062379 0.118982 -0.882841 0.712464 -0.900651 0.189437 -0.540055 -0.865431 0.427389 -0.083871 -0.610073 0.885028 0.450574 -0.622632 -0.181367 -0.744016 0.867863 0.271036 0.523964 0.167929 0.224588 -0.345312 0.296246 0.499003 0.268371 -0.119144 -0.720084 0.959812 -0.196927 -0.130354 0.083824 0.865452 0.988628 0.200983 0.577916 -0.912023 -0.609580 -0.962139 -0.777454 0.817809 -0.046010 -0.387527 0.702837 -0.595436 -0.010159 -0.478530 -0.339452 -0.142296 0.792506 -0.815488 -0.974367 0.017094 -0.160800 0.321879 -0.483904 -0.892429 -0.797265 -0.203988 -0.932617 0.005808 0.665658 0.151207 -0.128740 0.654286 -0.647810 -0.550824 0.742263 -0.257390 -0.512963 2053305.986295 
-0.439581 -0.422719 -0.736745 0.845591 0.567123 -0.215275 -0.493860 -0.575174 -0.422770 -0.309348 -0.549541 0.594324 0.529852 0.772338 -0.889580 0.637422 0.975073 -0.093567 0.704805 -0.019120 -0.427909 -0.143988 0.852140 -0.773623 0.208202 -0.698684 0.968639 0.950812 -0.211647 0.933448 -0.488770 -0.770620 -0.489270 -0.225514 -0.925029 -0.922148 0.559210 -0.418889 -0.497321 -0.863559 0.271763 -0.046862 0.730765 -0.198386 -0.274524 0.841185 -0.560963 -0.299452 -0.252383 -0.856158 0.681429 0.319708 -0.000146 0.533569 0.546084 -0.791944 0.834885 0.514724 -0.841132 -0.376762 0.448172 -0.329902 -0.147382 0.958901 0.444584 -0.072411 -0.963247 0.003794 0.508700 -0.460568 0.140235 -0.219537 0.492570 -0.129000 0.582077 -0.781954 -0.287816 -0.978886 -0.081406 0.459802 -0.835044 -0.399977 -0.220490 0.164809 -0.866408 -0.674406 0.372865 0.968476 0.840318 0.531733 -0.408286 0.288489 -0.798168 0.444332 0.247391 0.646416 -0.628079 0.284144 -0.349789 0.880621 0.823576 0.790446 -0.338916 0.316146 -0.338555 -0.756838 0.534192 0.373630 -0.735724 -0.547214 -0.166568 -0.570769 0.052810 0.612941 0.594041 0.186401 0.938535 -0.033094 0.154878 0.778853 -0.501360 0.746592 0.067342 -0.299528 0.190924 -0.685267 -0.653112 5874423.584770 
0.598877 0.443466 0.422453 -0.212456 -0.895450 -0.261401 0.448990 -0.652288 -0.727209 -0.177380 -0.388012 -0.274423 0.656051 0.041219 0.778387 0.268993 -0.364740 -0.035212 0.207528 0.602166 -0.880334 -0.013619 -0.899194 0.866257 -0.946277 -0.198722 0.057181 -0.631544 0.148166 -0.379974 0.967332 -0.854736 -0.936508 0.389785 -0.067192 -0.831958 -0.871616 -0.618202 -0.484246 -0.598825 0.204418 0.127742 0.126753 -0.139531 -0.831039 -0.094860 -0.870539 -0.195779 0.869928 0.336989 -0.593612 0.989593 -0.676630 -0.492806 0.855851 -0.622907 0.308472 -0.086968 -0.254452 -0.543363 0.533058 -0.287119 -0.398098 0.596550 -0.897334 0.534710 0.764592 -0.768950 0.916508 -0.719653 -0.367774 0.120926 0.408089 0.758978 0.981394 0.577050 -0.335882 -0.889144 -0.618728 -0.465954 0.447845 -0.212341 -0.476361 0.771214 0.294853 -0.620510 -0.851693 -0.396675 0.292521 -0.106145 0.059962 -0.174421 0.606736 0.661864 -0.577872 0.709402 0.196574 -0.813279 0.940453 0.113082 -0.532933 -0.427322 -0.765993 0.875156 -0.668344 -0.784599 0.452206 -0.004226 -0.673743 0.833477 0.529820 0.774102 -0.378863 -0.946541 0.545316 0.915990 -0.567052 0.693623 -0.480686 0.725469 -0.412521 0.579276 -0.448952 -0.805785 0.241140 -0.026823 0.903617 3767242.335749 
0.159897 0.550795 0.626964 -0.583252 0.784802 0.502120 -0.251595 -0.999797 -0.045674 0.744179 -0.673540 -0.212196 0.273999 -0.899438 0.408940 0.327457 0.645878 0.324930 0.760406 0.339501 0.844244 0.485875 0.926980 0.423520 -0.963077 -0.878806 -0.335340 0.010100 -0.975188 0.102373 -0.830003 0.868882 -0.346832 0.796962 -0.714370 -0.562030 0.299082 0.034035 -0.561827 -0.746592 -0.221786 -0.235366 0.041211 -0.947788 -0.134804 -0.549848 0.379670 -0.488926 0.775081 0.140075 0.850575 0.619325 -0.374050 0.777554 0.042845 -0.337126 0.898749 0.707505 0.672974 0.923560 -0.190122 0.842971 0.792442 0.463046 0.639933 -0.921928 0.901016 -0.060985 0.112107 -0.660811 0.192423 0.890321 0.103823 -0.766366 0.942533 0.969018 -0.316214 0.322203 -0.519908 -0.541133 -0.537722 -0.669333 -0.921808 0.088229 -0.891779 0.121037 0.751103 -0.993030 -0.171458 0.424077 0.930530 0.638420 0.267048 0.722972 0.101465 -0.093019 0.801045 0.002481 0.845997 -0.086848 0.341670 0.038419 -0.196527 -0.554508 0.272054 -0.253994 -0.585489 0.955840 -0.931791 -0.105398 -0.585293 -0.469513 0.225269 -0.507101 0.618716 0.333490 0.613936 0.369819 0.340460 -0.557522 -0.206105 0.270990 -0.919102 -0.939056 -0.006038 0.182363 -0.032075 1039311.762051 
-0.815156 0.708158 0.526514 0.852341 -0.488369 0.972006 0.124395 0.257636 -0.613484 0.080235 0.325845 0.281119 0.494942 0.856332 -0.493612 0.987841 0.475048 0.839878 0.601777 -0.155133 0.180338 -0.955744 0.638762 -0.548673 -0.874846 0.699706 0.445289 0.307517 -0.332369 -0.759704 0.492361 0.481553 0.948454 0.018875 0.333894 -0.539916 -0.009119 -0.541711 0.717721 0.377398 0.538524 0.043566 -0.341484 0.033466 -0.100102 0.164905 0.021307 -0.625054 0.004783 -0.376916 0.219813 -0.814880 -0.332660 -0.141425 -0.363553 -0.207506 -0.441719 -0.918263 -0.899989 0.225913 -0.677968 0.592372 -0.292535 -0.729514 -0.388753 -0.958641 -0.269430 0.602128 -0.500352 -0.551709 -0.020474 -0.961828 0.491857 0.638042 0.071638 -0.608245 -0.197053 -0.907055 -0.233298 0.807729 -0.283971 0.986515 0.992850 0.383368 -0.154910 -0.370703 -0.824138 0.403372 -0.288966 -0.724127 -0.370716 0.033066 0.868245 0.336750 0.303552 -0.520508 0.378109 -0.965878 -0.918380 0.877757 -0.517586 0.061145 0.915930 0.974271 -0.300812 -0.012432 -0.633974 0.502134 0.080512 0.132728 0.309864 0.796541 0.119243 0.302713 0.179909 0.964333 0.932010 0.355771 0.367704 -0.356956 0.631643 0.996988 0.676110 0.499888 0.333738 -0.020339 0.979380 19997864.687338 
0.013784 -0.410396 0.496197 0.122145 -0.494466 0.470468 0.821333 0.493102 0.836494 0.323467 -0.426386 -0.030778 -0.366670 -0.629845 -0.911536 0.936044 0.550064 -0.947203 0.868054 -0.094166 0.420501 -0.488903 -0.462522 0.417490 -0.812793 -0.962634 -0.248772 0.166868 -0.983254 0.463075 -0.819348 -0.922255 -0.947321 0.676849 0.199890 -0.441787 0.147317 0.021222 -0.948685 -0.016189 -0.655311 -0.375071 0.953032 -0.021980 -0.004917 -0.958503 -0.085937 -0.454853 -0.905706 -0.217883 0.450981 0.514795 0.293214 0.988459 -0.067715 0.480421 -0.974175 0.683512 -0.352710 -0.957430 0.146587 -0.172059 -0.879685 0.199266 -0.495210 0.320205 0.757479 0.652107 -0.658572 0.808794 -0.364083 -0.313883 -0.566277 -0.411050 0.664137 0.428806 -0.369554 -0.421800 0.973952 -0.275260 0.360317 0.424934 -0.760465 -0.346469 0.413392 0.171819 -0.866047 0.439217 -0.144668 -0.218758 0.481787 -0.998081 0.609184 0.602103 0.201185 -0.886026 -0.077692 -0.041336 0.766081 0.263735 -0.232542 -0.598002 0.949852 0.201181 -0.009052 0.613989 -0.370014 0.621394 -0.807811 -0.396061 -0.653866 0.552505 -0.971128 -0.414332 -0.793963 0.442265 0.757488 -0.660011 -0.118518 -0.387180 0.121231 -0.636731 -0.385262 -0.269585 0.965372 0.815923 -0.155611 2550594.312564 
-0.225412 -0.848585 0.542046 0.012467 -0.898733 -0.256773 -0.996585 0.715256 0.373213 0.624809 0.907445 0.977152 0.970943 0.459950 -0.993976 -0.443389 0.665987 0.448289 -0.685901 -0.994024 -0.670229 -0.073082 0.127208 -0.306959 0.541657 0.857623 -0.341588 0.357580 -0.297989 0.546092 -0.867832 0.312481 0.697507 0.674214 -0.675052 0.798775 -0.582559 -0.671637 0.514031 0.790654 0.953172 0.421476 0.767806 0.924114 -0.118574 0.773830 -0.519275 -0.452587 0.222119 -0.205176 -0.446611 0.551891 0.721743 0.680597 -0.755069 0.263400 0.538220 -0.096656 -0.379020 -0.759769 -0.550564 -0.246852 0.552712 -0.853057 -0.572638 0.877660 0.945718 -0.155197 -0.793977 0.459748 -0.364544 -0.840805 -0.118776 -0.596738 -0.916691 0.762650 -0.822908 -0.435965 -0.689937 0.399212 0.358859 -0.136548 -0.048898 0.080602 -0.455951 0.196033 -0.655998 -0.917732 -0.900623 -0.035018 -0.677501 -0.451187 0.718130 0.875211 -0.304244 -0.854508 0.752871 -0.358527 -0.009706 0.958894 -0.898778 0.625751 -0.881911 -0.017554 -0.970987 -0.798602 -0.254904 -0.793895 -0.234567 0.055158 0.605316 -0.875708 0.918610 -0.443582 0.204894 -0.537341 0.752452 0.548895 -0.455072 0.851829 -0.486123 -0.132573 -0.599358 -0.767993 -0.257362 0.096398 -0.622502 8424592.644373 
0.737871 -0.545597 0.839093 -0.006457 -0.427508 -0.178461 0.022556 -0.226110 0.566634 0.228660 0.539323 -0.378207 -0.166023 0.663614 -0.459597 0.390395 -0.131492 0.003062 0.142847 -0.582597 0.547990 -0.005324 -0.068720 -0.584583 0.395318 0.163287 0.158055 -0.508285 0.540786 0.653564 -0.770414 -0.091422 -0.892033 -0.931321 0.902121 -0.319541 -0.109782 -0.075323 0.454349 -0.543148 -0.846663 -0.006328 0.078645 -0.012686 -0.342714 0.619048 -0.622291 0.525794 -0.377890 0.520556 0.943198 -0.829900 -0.484768 -0.125522 -0.414483 0.910550 -0.962235 0.743572 -0.597735 0.578551 0.397137 -0.368149 -0.512871 0.505104 -0.299469 -0.610750 -0.814437 0.590748 0.313927 0.639912 -0.952400 0.467265 -0.366416 0.126245 -0.545421 0.290870 -0.254708 -0.167712 -0.183336 0.367402 -0.647156 -0.240138 0.537502 -0.131923 0.634340 -0.876981 -0.221374 0.672105 0.866592 0.180891 0.250656 0.263729 0.812743 0.737784 -0.231167 -0.486727 -0.872965 -0.045603 -0.895979 0.440962 -0.405691 -0.848378 -0.091773 0.227893 0.277867 0.362805 -0.481237 -0.976841 -0.804906 0.335427 0.390561 -0.452062 -0.904711 -0.071936 0.416014 0.729629 0.051083 -0.805359 0.401734 -0.082325 0.375532 -0.347610 -0.818596 0.188275 -0.609826 -0.049763 0.701548 2021563.764918 
0.904633 0.958171 -0.501058 0.957191 -0.133603 0.726835 0.235058 -0.770797 -0.754402 0.258217 -0.575704 0.581026 -0.351222 -0.027766 0.676315 0.576842 -0.611752 0.405944 -0.372075 -0.417111 -0.192322 0.545599 0.958421 0.460068 0.727003 0.146696 0.850242 -0.322760 -0.151756 -0.632549 -0.418127 -0.346187 -0.674379 0.080815 -0.388996 0.192019 -0.192350 0.846062 0.421221 0.053249 0.104279 0.845517 -0.365726 0.753057 -0.182249 -0.689410 0.329898 0.206000 0.716534 0.957823 0.788889 -0.475788 0.503422 0.747310 0.984280 0.230426 -0.105994 0.834522 0.907665 0.742249 -0.798027 -0.510462 -0.603937 -0.472405 0.570353 0.007067 0.719613 -0.621997 -0.146871 0.140834 0.431252 0.957408 -0.013648 -0.934473 0.710464 0.804103 -0.623884 0.040363 0.010103 -0.907350 -0.001815 -0.201008 -0.383138 -0.498392 -0.453699 -0.398858 0.732033 0.440307 -0.564335 0.639699 0.182557 -0.362362 -0.870763 0.578619 0.165232 0.699590 -0.414314 -0.115154 -0.922407 0.438815 -0.974320 0.508845 0.396222 0.012032 0.574372 0.106687 -0.183865 0.950488 -0.852951 0.826238 -0.956862 0.145235 -0.374771 -0.340000 0.646843 0.171531 0.261142 0.378876 -0.388162 0.696807 0.018575 0.794394 -0.665556 0.147811 0.373013 0.499677 -0.152599 4008697.776444 
-0.615477 0.397514 -0.589797 -0.566160 -0.206264 0.422235 -0.991788 0.900423 -0.761630 0.958700 -0.952528 -0.935393 -0.998162 0.192707 -0.310164 -0.338162 -0.160451 0.861367 0.922980 -0.781575 -0.526795 0.619787 0.237000 -0.732401 0.954231 -0.615189 0.640612 0.453908 0.232213 0.599312 0.838431 -0.842793 -0.003174 -0.751366 -0.408952 0.790562 0.670868 -0.400740 0.690985 0.909238 -0.442040 0.738457 0.973845 -0.440202 -0.068836 -0.336319 0.221636 0.770714 -0.474952 0.144617 0.989139 -0.001747 -0.235596 0.226139 0.265852 -0.281365 0.610950 -0.093536 -0.827457 -0.156837 -0.494224 -0.989026 0.000371 0.502602 -0.740392 0.591418 0.293164 0.930476 -0.809322 -0.015851 0.839714 -0.251362 -0.277394 0.813559 0.308436 0.653771 -0.522760 -0.469927 0.424485 0.002288 0.674690 0.413624 -0.999459 -0.560907 -0.360237 0.266393 0.157729 -0.749287 -0.827143 0.330272 0.093877 -0.321367 0.341246 -0.905753 -0.818765 0.600854 0.685665 0.474399 0.531330 0.876343 -0.541452 0.371044 -0.375019 0.181154 0.184602 0.933418 -0.165075 0.661842 -0.536509 -0.740591 -0.335870 -0.861820 0.673033 -0.335329 -0.422726 -0.687204 0.931064 0.735002 -0.436491 -0.896079 0.065274 0.657386 -0.217446 -0.593480 0.751633 -0.036211 -0.992626 5585688.023963 
-0.561812 0.313642 -0.103264 -0.090252 0.938623 -0.922110 -0.905650 0.872041 -0.087185 0.756192 -0.664469 0.172224 -0.579678 -0.526288 -0.154743 0.084992 0.050985 0.158053 0.016056 -0.214012 0.721562 0.119977 0.851262 0.378948 0.902531 -0.742218 0.130581 -0.133680 -0.734843 -0.432121 0.304508 0.803861 0.881521 -0.798757 -0.286391 0.820144 -0.720867 -0.192041 0.692184 0.191947 -0.435849 -0.972284 -0.635829 -0.015528 -0.498573 0.209428 -0.930535 0.552413 -0.632519 0.085521 -0.661599 -0.910957 -0.794502 -0.810337 0.467992 -0.891971 -0.552555 -0.401427 -0.025651 -0.287398 0.166452 -0.721144 -0.483537 0.047973 -0.519901 0.230072 -0.131883 -0.240768 -0.961969 -0.439699 0.951179 -0.397818 -0.411983 -0.684650 0.586654 0.089444 0.524779 0.656119 -0.358143 0.892260 -0.258360 -0.019742 0.981303 -0.052862 0.169921 0.449295 0.055167 0.617366 -0.952133 -0.970485 -0.670032 0.214319 -0.691629 -0.153569 -0.737708 -0.211529 -0.923497 0.130409 0.547703 -0.885467 0.690711 0.498882 -0.283285 -0.721272 0.814232 -0.696631 0.368172 0.339011 0.959488 -0.989971 0.231271 -0.298872 -0.009713 0.212574 0.648266 -0.839792 -0.338132 -0.296568 0.777573 -0.290265 -0.267052 -0.892459 0.924055 0.041319 -0.046028 -0.813653 0.829790 11109911.354231 
0.316757 0.145008 0.007467 -0.123626 0.861723 0.286195 -0.309393 -0.834908 -0.345634 -0.970382 -0.875420 -0.335605 0.260888 -0.174292 0.654682 -0.526538 -0.526026 0.814890 0.135330 0.177406 0.592463 0.845066 0.910354 0.700004 0.769120 -0.048327 -0.346024 0.955467 -0.218538 0.684451 0.272224 -0.841045 -0.170541 -0.720309 0.035329 -0.308818 0.565886 0.725936 -0.143725 -0.779748 0.755553 -0.019145 -0.115352 0.016442 0.806563 -0.460670 0.489904 -0.719463 -0.645780 -0.374766 0.457943 0.946683 -0.529701 0.368297 0.646687 -0.760580 -0.680030 -0.699336 -0.805113 0.101433 0.985115 0.467111 0.260387 -0.185426 0.746802 -0.704284 0.505756 0.312688 -0.978348 -0.637969 0.532940 0.777205 0.342886 -0.582413 -0.206353 0.149449 -0.043083 -0.716450 0.429986 0.311137 -0.091216 -0.112071 0.257820 0.379083 -0.743774 -0.095493 0.618503 -0.423803 0.205171 0.813390 0.677629 0.190286 0.280501 -0.061984 -0.995140 0.027303 0.233733 0.510616 -0.660009 0.255384 0.872647 0.872930 0.032590 0.215532 -0.709482 0.826236 -0.635019 0.247435 -0.890214 0.794967 -0.441428 0.018570 -0.317104 0.816392 -0.602346 -0.060878 -0.279101 -0.983843 0.515319 0.926070 0.829547 0.192948 0.116356 0.110047 -0.869036 0.121216 -0.862650 5304861.392423 
-0.368168 -0.379918 -0.495521 -0.649729 0.652671 0.720011 -0.359211 0.478907 -0.915008 0.888224 0.588694 0.879959 -0.553205 -0.392736 -0.437145 -0.736813 0.004918 0.501977 -0.015914 0.021075 0.017295 -0.089843 -0.149379 -0.789757 -0.973487 0.960669 -0.658792 0.147730 -0.901981 0.705905 0.779562 -0.424640 -0.674014 -0.715959 -0.074369 0.978657 -0.995947 0.566420 0.457565 -0.910955 0.454643 0.046258 0.969004 0.901439 0.653523 -0.468141 -0.835374 -0.341559 -0.966165 0.148712 0.679515 0.051131 -0.941131 -0.469863 0.261374 -0.914617 -0.509195 0.602581 0.233113 -0.411176 0.308486 0.012675 0.164184 0.634472 0.296716 -0.910185 0.613129 0.300769 0.656234 0.070694 0.389815 0.110878 -0.883048 0.358819 0.012317 0.770475 0.890677 0.176943 -0.571084 0.924513 -0.674345 -0.891569 -0.024357 -0.615475 -0.361432 -0.762983 -0.530093 0.129373 0.839598 0.703020 0.718197 0.148084 -0.284305 -0.117619 -0.217444 -0.987588 -0.027805 -0.604314 0.313181 -0.371570 0.466380 -0.297005 0.739308 0.583332 -0.938186 -0.248376 0.353807 0.952492 0.928567 0.782723 0.877004 -0.745778 0.891154 -0.147352 -0.361254 -0.470278 0.089665 0.108654 0.659094 -0.070737 -0.188326 0.377291 -0.922653 0.527369 -0.740328 -0.140097 0.539781 2942701.565804 
0.255589 0.860297 -0.278031 0.555957 0.599605 -0.694698 0.617771 -0.648771 0.659109 0.570263 -0.720204 0.441832 0.447267 -0.465982 0.332986 -0.700085 0.172765 0.862708 0.389579 -0.718582 0.521802 -0.681158 0.093092 -0.100907 -0.603811 -0.379539 0.158765 0.256093 -0.839758 -0.609367 -0.488318 0.013203 -0.749070 0.233652 -0.430840 0.850535 0.538953 -0.813068 -0.798235 0.198062 0.757195 -0.518439 -0.360105 0.204462 0.015579 0.972881 0.504377 -0.811656 0.835588 -0.106044 -0.530238 0.357390 0.212798 0.562854 -0.743517 0.608987 -0.816684 0.415249 -0.134920 -0.656442 0.805881 0.376762 0.356761 -0.943189 -0.389586 0.925922 0.907347 -0.850633 -0.887147 -0.890889 0.347429 0.870048 -0.409328 0.987324 0.074510 0.606251 0.960205 -0.421114 0.794595 0.795793 0.472842 -0.735643 0.153183 -0.314360 0.827212 0.409666 -0.705372 -0.989472 -0.175085 0.159708 -0.645915 -0.369204 -0.463530 0.710847 -0.312392 0.146883 0.636768 -0.405046 0.296250 0.749622 -0.295934 -0.356321 0.619670 0.294738 -0.368997 -0.305821 -0.099010 -0.408792 0.273065 -0.304415 -0.613000 -0.254092 -0.040058 0.540183 0.431548 -0.212846 -0.050150 0.726175 -0.202318 0.774765 -0.114117 0.151767 -0.594439 0.422353 -0.137386 0.093169 -0.430764 1868806.592812 
0.688123 -0.750996 -0.607811 -0.490835 0.868673 0.686927 0.140168 -0.437147 -0.412083 0.731376 0.835918 0.283502 -0.881624 -0.418174 -0.756555 0.658560 -0.986626 0.030599 -0.391590 0.739549 0.828280 -0.616826 -0.374568 -0.019953 -0.211265 -0.952215 0.842661 0.881904 -0.382980 -0.657957 0.570027 -0.517494 -0.408953 0.962217 -0.008329 -0.540280 0.649144 -0.868161 0.022573 -0.762939 0.863215 -0.141509 0.520564 0.981592 0.440316 0.764008 0.640152 0.453690 -0.205393 -0.751439 0.193239 -0.377113 -0.368264 0.818671 0.602935 0.420471 0.866455 0.445596 0.302375 -0.516524 0.787639 -0.127597 -0.034018 -0.621315 -0.165380 0.957653 -0.161595 -0.516236 -0.910508 0.860978 -0.279175 0.952708 -0.280531 -0.758611 0.934300 -0.840215 -0.994603 0.574451 0.613475 -0.199996 0.823013 -0.193287 0.422891 -0.545251 -0.374616 0.025826 0.875220 -0.508160 -0.528579 0.177595 -0.024684 -0.740940 -0.950002 0.941298 -0.362255 -0.115382 0.898951 0.476151 0.368382 0.988443 0.337129 -0.910793 0.941151 -0.943402 -0.669404 0.875450 -0.783617 -0.664007 0.449902 0.829857 0.135997 0.272915 -0.363429 -0.441111 0.727663 0.261955 0.584715 0.602883 0.753795 -0.943864 -0.219521 -0.270890 -0.684804 -0.169523 -0.329592 -0.047059 0.715095 7314776.506279 
-0.570908 -0.442199 0.766221 0.172684 -0.501048 0.822819 0.503280 -0.625598 -0.960799 0.839273 0.824304 0.869058 -0.024730 0.097219 -0.494371 0.534159 -0.175118 0.767584 0.118874 -0.572235 0.521379 0.175010 0.208244 -0.749511 0.490206 -0.961279 -0.079103 -0.556853 0.753816 0.490256 -0.127761 -0.162707 -0.951943 -0.361540 -0.990023 -0.452991 -0.538721 0.513256 -0.078589 -0.499520 0.352529 -0.254285 -0.630461 -0.672200 0.842934 -0.124832 0.861959 -0.332184 -0.357248 -0.019168 0.095581 -0.835870 -0.844158 -0.696176 -0.585380 0.646047 -0.657455 0.335517 -0.910806 -0.903639 -0.174227 -0.038567 -0.066347 -0.126170 0.599894 -0.056370 0.420839 -0.938827 -0.543114 -0.657750 -0.438347 0.809416 0.087966 -0.068809 -0.862785 -0.069100 0.806359 0.999174 0.598715 -0.550889 -0.019994 -0.305704 -0.386759 0.135848 -0.001880 0.027861 -0.218104 0.340665 -0.636622 -0.128910 0.437025 0.189151 0.832523 -0.629321 -0.937020 0.432417 0.314308 0.483819 0.493590 0.771195 0.826069 -0.944758 0.580610 -0.085965 -0.013566 0.717826 0.844935 -0.207207 0.717000 0.443650 0.241904 -0.302993 -0.862054 0.855145 0.832855 0.136067 -0.116994 -0.385249 -0.523269 0.246384 0.485841 0.913757 -0.564466 0.318364 -0.715564 -0.501485 -0.249219 4989177.773905 
0.982334 0.369939 0.808403 -0.700387 -0.049451 -0.277562 0.286047 -0.331625 -0.432627 -0.921160 -0.614625 -0.988977 0.320744 0.082382 -0.851030 0.175889 -0.084763 0.285036 -0.941105 0.529987 0.761768 0.305279 0.015828 0.675525 0.740813 -0.665808 0.959960 -0.760672 0.084973 0.558704 -0.778338 0.329344 -0.071357 -0.969935 0.628958 0.879193 -0.247496 -0.084995 -0.452432 0.319877 -0.006155 -0.067057 0.330900 -0.685411 -0.984675 0.479870 0.490478 -0.069438 -0.235094 0.549373 -0.539451 -0.473326 -0.145348 0.476377 -0.797801 -0.404535 0.810569 -0.837841 -0.165207 -0.104457 0.720864 0.056455 -0.775113 -0.350493 0.086521 0.853845 -0.471301 0.839024 -0.231150 0.076267 0.158901 0.762695 -0.990789 -0.510199 -0.922716 -0.975464 0.969671 0.567762 -0.044902 -0.265422 0.117136 0.415647 0.261252 0.971787 -0.107976 0.463450 -0.432747 -0.297407 0.625610 0.402046 0.598136 0.346473 -0.541498 0.823023 0.995980 0.545022 0.676868 -0.475321 0.384046 -0.554283 0.600947 -0.457053 -0.791588 0.610157 0.032748 -0.714303 0.634693 0.002420 0.853459 -0.410209 0.736997 -0.029406 -0.994563 -0.001751 -0.057618 -0.102538 -0.538301 0.509635 0.600055 -0.912691 -0.088319 0.198191 0.433782 0.370182 0.021214 0.429762 -0.084796 2545260.959982 
0.954441 0.143799 0.555388 -0.157802 0.352212 0.165545 0.874946 0.637908 -0.199762 -0.122634 0.491367 0.390029 -0.385637 -0.538038 0.395467 0.612612 0.404344 -0.707072 -0.925688 -0.086022 0.892983 -0.838380 0.825659 0.091174 0.595403 0.195842 -0.887612 0.025165 -0.888954 -0.189530 -0.020394 -0.589703 0.954270 -0.465006 0.252495 0.306481 0.700540 0.127441 -0.055610 -0.499222 -0.995193 -0.564243 0.890807 -0.380830 -0.102282 0.286274 -0.768217 -0.697938 0.579202 -0.693906 0.216040 0.472185 -0.532285 0.041700 -0.436640 -0.936883 -0.762459 -0.324252 0.088282 -0.651413 0.486219 -0.932112 -0.241116 0.440488 -0.397117 -0.988621 -0.253030 -0.696578 0.138820 0.691359 -0.195799 0.143627 -0.872884 -0.304992 0.762798 0.024835 0.981282 0.994580 0.326897 0.560485 -0.699326 -0.457063 0.032670 -0.231611 0.584637 0.596030 -0.168494 0.822178 -0.728222 0.919788 -0.829235 0.757997 0.987676 -0.070351 0.198485 -0.409441 -0.058972 0.945455 -0.106019 -0.920152 0.636814 0.698182 0.223475 0.763931 -0.606809 -0.013728 -0.211235 -0.625527 -0.019147 -0.884338 0.934958 0.281527 -0.341401 -0.032372 -0.950084 -0.756764 -0.436342 -0.118578 -0.934586 -0.164564 -0.198789 -0.763821 -0.406568 -0.211113 0.165828 0.791917 0.379446 12983619.396132 
0.737372 -0.813296 0.374186 0.971610 0.410179 0.138117 -0.635200 -0.603549 0.926882 -0.260727 0.377304 -0.957456 -0.325769 -0.341169 -0.298856 0.641859 -0.291253 -0.055620 -0.794484 0.590169 0.009794 0.040952 -0.608620 0.245973 0.634384 0.180267 -0.588199 0.426301 -0.440287 -0.481343 0.163674 -0.166859 -0.294639 -0.462140 -0.195249 -0.884461 0.675976 0.169551 -0.488010 0.602858 0.908824 0.889294 0.645403 -0.416945 -0.451876 -0.653454 -0.775086 0.256871 0.290926 -0.569570 -0.152959 -0.699280 0.471382 0.238421 0.546692 0.105767 -0.581312 0.958493 -0.467932 -0.021599 -0.522850 0.695742 0.811542 0.182511 -0.766399 -0.383707 0.298050 0.909578 0.785844 0.810040 0.512436 0.694668 0.699334 0.157839 -0.722276 -0.752542 0.504385 -0.497362 0.504329 -0.204689 -0.066932 -0.648630 0.096031 -0.595549 0.589790 -0.357277 0.510217 -0.991522 -0.398784 -0.957715 -0.013121 0.078367 0.738027 -0.201579 -0.739123 0.971628 0.414714 0.558927 0.881206 0.200558 0.368967 0.393642 -0.104774 0.068301 -0.448519 0.172950 0.315759 -0.944134 0.675588 -0.179912 -0.148823 -0.391344 0.171458 0.947208 0.013107 -0.238752 -0.410069 -0.476676 -0.230273 0.191147 -0.434391 0.756606 -0.730486 -0.696364 -0.444973 -0.469609 -0.724735 2519715.706386 
-0.910682 0.170299 0.458285 0.550113 -0.934475 -0.473414 -0.898406 0.238475 0.842344 -0.842540 -0.085938 -0.337568 0.008638 0.522718 0.833890 -0.044154 -0.464175 -0.404862 0.545776 0.059149 0.364865 -0.263077 0.624758 0.121471 0.006437 0.928394 0.676498 0.536828 -0.796341 0.646239 0.626146 -0.639870 -0.183462 0.084431 0.910243 -0.117937 0.611017 -0.988163 -0.879462 0.453361 -0.830703 0.034600 -0.884206 0.177935 -0.442682 0.949684 -0.866219 0.093143 -0.455178 0.679557 -0.847709 0.909687 -0.583520 0.777049 0.031158 0.422917 0.705444 -0.292344 -0.040254 0.909102 -0.646105 -0.414108 -0.730768 0.170433 0.670323 -0.820525 -0.947504 0.281340 -0.808688 -0.826966 -0.265299 -0.639391 0.207634 -0.149505 0.538545 0.764952 -0.199821 0.672325 -0.141905 0.345002 0.351882 0.010386 0.254689 0.768363 -0.212565 -0.714153 0.191280 -0.507121 -0.006498 -0.848974 -0.598019 0.347397 -0.263083 -0.328786 -0.482170 -0.592760 -0.149312 -0.429673 0.688580 0.042000 -0.256640 -0.576718 0.402610 0.950994 0.273777 -0.058846 0.715946 -0.926044 -0.386521 -0.425959 0.418958 0.965362 0.584427 -0.326354 0.733724 -0.628138 -0.040507 -0.074996 -0.135259 0.952995 0.076030 0.266723 0.300393 0.812947 0.937936 0.818223 -0.779813 3875838.125674 
-0.611450 0.830625 0.131910 -0.667951 0.233235 0.082904 0.605826 -0.825611 -0.201150 0.679782 -0.212132 0.372891 0.098740 -0.246770 -0.042682 0.772386 -0.513046 0.329181 -0.268121 0.411958 -0.806078 -0.315125 -0.512012 0.460645 0.985268 -0.699065 0.398581 0.803491 -0.478877 -0.812794 -0.807959 -0.570110 -0.982169 0.323951 -0.238060 0.251066 -0.593145 -0.632234 0.425455 0.205705 -0.952452 -0.786677 -0.421403 0.146288 -0.033447 0.535915 -0.081326 0.453507 -0.134905 0.650554 -0.134535 0.059017 -0.664572 0.353453 -0.480338 -0.679304 0.654388 0.918243 -0.875813 -0.824489 -0.894551 -0.683773 -0.394599 -0.876720 0.640178 0.367341 0.374346 -0.952967 0.735106 -0.200199 0.252739 0.782654 0.013124 0.831335 -0.071058 0.979677 0.367250 0.847617 0.433183 -0.767655 0.498170 -0.701352 0.291362 0.833599 0.652101 0.811024 -0.845705 0.306489 0.729267 -0.721518 0.482000 0.834717 -0.405291 -0.912599 0.957997 -0.765113 0.454741 0.332343 -0.718080 0.189848 -0.867855 0.534659 -0.027498 0.145269 0.365994 0.901444 0.124945 -0.266756 0.749061 -0.441871 -0.034410 0.247231 -0.143223 -0.743048 0.080830 -0.491122 -0.932024 0.235125 0.815367 0.797244 0.513607 0.297367 0.631960 -0.891684 0.384768 0.589958 -0.656797 3728289.528441 
-0.077699 -0.970643 0.054445 -0.840218 0.001858 -0.800286 0.525776 -0.096697 0.324659 -0.740980 -0.347636 0.882788 0.224610 0.899595 -0.260435 0.481562 -0.019575 0.248443 0.549538 -0.784449 0.063810 0.346782 0.729157 -0.638823 -0.021257 0.837473 0.745944 -0.431300 -0.819325 -0.414547 0.491001 -0.194202 -0.385190 -0.454553 -0.034420 0.616668 -0.254839 -0.508644 -0.480029 -0.930180 -0.249623 0.172335 0.952608 0.974987 0.071930 -0.307827 0.456549 -0.947645 0.940616 0.006087 -0.732094 0.004426 -0.647131 0.997063 0.365603 0.331612 0.834536 0.111547 0.900312 -0.984788 0.697001 0.391313 -0.178990 -0.688190 0.936759 0.786590 0.928479 -0.318080 -0.722054 -0.551550 -0.248260 0.028323 0.620784 -0.295652 0.003310 -0.307286 0.396522 -0.540142 -0.254930 0.337138 0.465945 0.012976 -0.658435 0.818815 0.010039 0.707168 0.150426 -0.155425 -0.181285 0.050738 -0.140213 -0.484284 -0.557949 0.680796 -0.172474 -0.621189 0.467386 -0.243995 0.060731 0.745333 0.204454 0.812471 -0.226344 -0.174761 -0.483181 0.776966 0.517953 0.913341 -0.763176 -0.736977 0.250479 0.702769 0.275998 0.592044 0.521584 -0.713963 0.299211 -0.327990 0.130612 -0.882074 0.722748 0.990399 -0.366358 -0.835201 0.671195 0.461168 -0.456390 6338939.422660 
-0.782827 -0.116085 0.421627 0.416811 0.657570 -0.753134 0.933630 0.434536 0.764819 0.846971 0.671360 -0.972159 0.097450 0.374129 0.303840 -0.310506 -0.104287 0.589877 0.988705 0.567723 -0.279510 -0.893368 0.290472 -0.289111 -0.259726 0.455271 -0.617916 -0.798558 0.998881 0.520666 -0.581386 0.603222 -0.595419 0.840241 0.020033 -0.937849 -0.912893 -0.046337 0.496687 0.851926 -0.199366 0.168047 0.879767 0.898084 -0.457824 0.183607 -0.412422 0.437889 -0.226516 -0.423716 0.005613 0.493973 -0.317085 -0.703915 -0.795138 0.423189 0.751356 -0.413054 0.624631 0.750237 -0.892388 -0.956755 0.353458 -0.487808 0.883487 -0.626509 -0.425656 0.970594 0.327154 -0.928970 0.822519 -0.872212 0.239077 0.702286 -0.974127 0.781253 -0.114108 -0.386549 0.219143 0.659376 0.189734 -0.775244 0.153349 0.872650 -0.479159 0.358211 0.295839 -0.727804 0.945157 -0.079531 -0.977567 -0.947231 -0.036285 0.375892 -0.435039 -0.152799 0.749383 0.139304 -0.182205 0.076537 0.210335 -0.359686 0.204325 -0.550588 -0.657400 0.230198 -0.769334 0.228492 0.843648 0.449809 -0.112132 0.033383 0.674564 -0.958782 -0.093968 -0.804595 0.399428 -0.798129 -0.532399 0.344585 0.122340 -0.509965 0.397354 -0.913945 0.865926 0.962315 -0.066744 1889915.717133 
0.101619 -0.308154 -0.688046 -0.608636 0.896171 -0.238634 -0.266036 0.126369 -0.007968 0.962457 -0.029983 -0.558159 -0.149675 -0.996600 -0.883595 -0.108457 -0.090568 -0.688190 -0.709029 0.111303 -0.220588 0.635556 -0.766357 0.269447 0.032910 -0.680303 0.135373 -0.004775 0.252953 -0.249318 -0.903156 0.004004 0.442528 -0.591202 0.395368 0.338700 0.170164 -0.870667 -0.534932 -0.837803 -0.908211 0.435086 -0.395963 -0.057886 0.438485 -0.279557 0.833657 -0.652083 0.032253 -0.875372 0.459220 0.811665 0.760185 0.692863 0.081111 -0.206905 -0.987440 -0.783516 0.788320 0.265513 -0.032833 0.885163 -0.730483 -0.590305 -0.706039 0.664886 0.748395 0.464126 0.794218 -0.786537 0.626322 0.886008 0.648549 -0.769640 -0.171878 0.087034 -0.049197 -0.338221 0.434951 0.983056 -0.213592 -0.105829 0.794721 -0.453408 -0.412966 -0.124168 0.339687 -0.400406 0.092317 0.128007 0.865107 -0.940517 0.013170 -0.865375 -0.530821 0.307132 0.799510 -0.782427 -0.228743 0.593728 -0.568964 -0.602420 0.479736 -0.920415 -0.372060 -0.692142 0.166619 0.578743 -0.030363 -0.398430 0.561798 0.756045 0.495742 0.356519 -0.697363 -0.917224 -0.767649 0.642324 -0.317630 0.324668 -0.229669 -0.452523 0.384152 0.783501 -0.317898 0.853330 0.090633 4204696.063525 
-0.929097 -0.924659 -0.498060 -0.740530 0.555077 -0.418475 -0.112590 0.862934 0.748144 -0.533847 -0.167428 -0.650285 -0.972049 -0.411384 0.845456 0.384470 -0.108747 0.928232 0.616822 -0.466422 -0.389398 -0.058510 0.303909 0.158079 -0.674359 0.087410 0.840181 -0.821028 -0.821957 -0.678207 -0.750125 -0.960067 -0.602867 -0.248185 -0.700596 0.952210 0.333340 0.186814 0.815144 0.081484 0.652966 -0.352284 0.431198 0.680918 0.236332 0.276655 0.065388 -0.872414 0.204887 -0.317791 -0.338836 0.815488 0.623699 0.965072 -0.026433 0.949341 0.052482 -0.186252 -0.871688 0.230525 0.135540 -0.621813 0.270459 0.532674 0.130002 0.569862 0.484883 -0.536658 -0.243324 0.300028 0.544826 -0.590357 0.947744 -0.023976 -0.909440 0.184076 -0.747321 0.155948 0.311662 0.457565 0.838157 0.972825 0.273053 0.461857 0.937898 -0.753380 0.411197 -0.009620 0.060368 0.539510 -0.779095 -0.804092 0.917697 0.491364 0.728582 0.047700 0.061226 0.213465 0.511042 0.817903 -0.486507 0.055867 -0.772455 -0.538763 -0.968109 -0.681895 0.645313 -0.715430 0.474053 -0.043026 0.742135 0.312211 -0.070200 0.015189 -0.225933 -0.132303 0.261809 -0.814735 0.858077 -0.677823 0.724775 -0.921017 -0.481915 0.642472 0.570347 -0.753333 -0.309828 2160806.473863 
0.460133 -0.550524 0.973626 0.257081 -0.322979 -0.565137 0.288972 -0.004874 -0.919825 0.573542 -0.530821 0.037150 0.315677 0.781390 0.966949 -0.669134 -0.444543 -0.165354 0.592675 -0.259278 -0.307276 0.914852 -0.534504 -0.228294 -0.567063 -0.892032 -0.657947 -0.320396 -0.201860 -0.026374 -0.860263 -0.000647 0.423102 -0.886637 -0.743566 -0.899877 -0.451775 0.545406 0.095250 -0.371600 0.118948 0.564429 0.665550 -0.565375 0.345819 0.632499 -0.234509 0.901276 -0.532854 -0.641834 -0.358002 0.159869 -0.726982 0.107494 0.931576 -0.294045 0.215463 -0.726371 0.385559 -0.986397 0.247255 0.525296 0.012956 -0.329642 0.638658 0.269389 -0.229519 -0.813117 -0.185205 0.865730 -0.184716 0.933743 0.430159 -0.519166 -0.631631 -0.224022 -0.886667 0.133860 -0.322745 -0.419522 0.492026 0.319253 0.740348 0.765044 -0.573253 0.671924 -0.529001 0.642210 0.945553 0.856558 0.655813 0.192808 0.381854 -0.331232 0.863166 0.020512 0.938157 -0.366353 0.207396 -0.247047 -0.500623 -0.977321 -0.313304 0.929537 -0.496487 0.055064 -0.294485 -0.383154 -0.811075 0.382770 0.197325 0.680951 -0.297977 -0.062328 0.445996 0.128770 -0.390404 0.916995 -0.229020 -0.444852 0.773553 -0.573208 0.747956 0.155407 0.095560 0.611122 -0.824081 3984927.242473 
-0.755231 0.786671 -0.255854 0.405994 -0.526634 -0.326318 0.909508 0.528431 0.379197 -0.473646 0.717355 -0.238033 0.723678 0.398306 0.463990 -0.338649 -0.155698 -0.407241 0.270947 -0.238703 0.363739 0.826095 -0.465150 0.790532 0.574052 0.690257 -0.113908 0.185174 0.866176 0.919810 0.429942 0.249491 0.706481 -0.825912 -0.344514 -0.820153 -0.152229 -0.435007 0.708278 -0.773032 0.091347 0.425633 -0.011065 -0.184974 -0.176061 -0.547075 0.476377 0.668241 0.045684 -0.252677 -0.570462 -0.590577 -0.426581 -0.035612 -0.800045 -0.852530 -0.345355 0.086047 0.332644 -0.479179 0.005857 -0.237413 0.770312 -0.287662 -0.063325 -0.574202 -0.107815 0.784445 -0.009209 -0.399538 -0.988587 -0.917861 -0.973905 0.000348 -0.102835 -0.149966 0.453273 -0.626459 -0.481725 -0.501043 0.120865 -0.052187 -0.091619 0.694283 0.912201 0.108336 0.841754 -0.433155 -0.805617 0.174398 0.087666 0.200240 0.936984 -0.142021 0.912578 -0.126341 0.283776 -0.195238 -0.341896 -0.725432 0.405225 -0.330482 -0.643294 0.431320 0.669866 0.253871 -0.718646 0.123139 0.627412 -0.200371 0.622097 -0.251723 0.747442 -0.469522 -0.557440 0.659643 0.638813 -0.715687 -0.773511 0.833196 0.458711 0.314155 0.033437 0.395695 -0.827866 -0.053986 -0.730646 11631173.388276 
0.750777 0.730478 0.156001 0.596976 -0.912816 -0.412679 0.266842 0.341055 -0.131325 -0.610018 -0.031533 0.668304 -0.987922 0.716744 0.415747 -0.457444 -0.840696 0.075390 -0.818631 -0.556383 0.301879 -0.985434 0.902328 -0.383966 0.048002 0.298023 -0.211832 0.994017 0.567377 -0.755922 0.744793 -0.505164 0.974555 -0.099205 -0.908188 -0.938260 0.488116 0.358654 0.402795 -0.643209 0.748635 -0.628738 -0.974905 0.760714 -0.911994 0.440842 -0.696730 -0.752690 -0.483768 -0.515361 -0.309073 0.818111 -0.500795 -0.406745 -0.565855 0.547207 0.891279 0.222313 0.541224 0.458656 0.466390 0.286017 0.953492 0.440946 -0.813188 -0.954696 0.502686 0.674928 0.403957 -0.094520 -0.968282 0.152593 0.276742 -0.943186 -0.086694 0.364748 0.497656 0.216576 0.612058 -0.986112 0.701215 -0.697015 0.831999 -0.799581 -0.103759 -0.733856 0.747626 -0.212480 0.488457 0.288850 -0.753824 -0.045153 -0.425133 -0.800332 -0.604207 -0.238321 -0.755029 0.898478 -0.563394 0.648928 -0.196041 -0.531675 -0.198479 -0.919299 -0.474862 0.714827 0.445450 -0.977206 -0.068597 0.057508 -0.963318 -0.367382 0.360493 0.868681 -0.166963 -0.743266 -0.865175 -0.419336 0.044254 0.623281 0.869514 0.290429 -0.421872 -0.555619 0.490097 -0.026079 0.206059 5132913.328478 
-0.127600 0.383996 0.676358 -0.889010 -0.814483 0.757059 -0.363872 0.900345 0.202509 -0.341077 -0.168252 -0.739983 -0.304395 0.464366 0.620510 -0.435714 -0.702596 0.877244 -0.300889 -0.121932 -0.078502 -0.677608 -0.252419 -0.788073 -0.099480 0.191962 0.702024 0.874442 -0.601978 0.437092 -0.253159 -0.959313 -0.178912 -0.576801 -0.848323 0.006606 -0.819741 -0.212194 -0.093049 0.382768 0.446729 0.738699 0.642785 -0.857667 0.203065 0.263295 -0.293381 0.500468 0.140539 0.405729 -0.621464 -0.937963 0.728121 0.126118 -0.726036 -0.371358 -0.681920 0.975987 -0.496917 -0.283898 0.413079 0.249924 -0.243211 -0.765833 0.673124 -0.091534 0.240773 0.853383 0.696272 -0.852276 0.236151 0.143001 0.886422 -0.121065 0.285334 0.089487 -0.857770 0.991953 -0.410044 0.282769 0.397682 -0.031508 0.344806 0.125803 -0.905391 0.618770 0.754445 -0.587311 0.594757 -0.742472 0.128790 0.007836 0.507453 0.885579 0.242003 0.180577 -0.205955 -0.517224 0.033959 -0.509683 -0.369500 -0.729890 0.633318 -0.483078 0.149045 -0.081348 0.606409 0.291276 -0.089396 -0.803636 -0.425955 -0.691714 0.164856 0.918851 0.434089 0.259465 0.537621 0.188534 0.672154 0.132378 0.446062 -0.199056 -0.859787 -0.046485 -0.313477 0.382217 -0.865908 1462823.977120 
0.864993 0.970886 -0.504508 0.438161 0.604204 0.012414 -0.412794 -0.477145 -0.381177 0.878482 0.433459 -0.184813 -0.547473 0.741745 0.980043 -0.628622 0.175835 0.239508 0.908999 -0.635631 -0.088338 0.041376 0.810431 0.712606 0.181590 -0.236054 -0.600870 -0.436194 -0.101962 0.879698 -0.571201 -0.933911 0.850584 -0.075709 0.504249 0.454788 0.936706 -0.908545 0.977643 -0.444471 0.969937 0.411103 0.370716 -0.577536 0.152848 0.350759 -0.206158 -0.671317 -0.409733 -0.297159 -0.306949 0.501929 0.744217 -0.496518 0.214536 -0.074193 0.267429 0.613665 0.489613 -0.834534 0.493364 0.918412 -0.768445 0.343948 -0.157296 0.735804 -0.201264 -0.220591 0.827260 -0.223621 0.334938 0.797197 -0.812518 -0.294346 -0.780339 0.340330 -0.943587 0.013503 0.669013 -0.353320 0.716344 -0.637936 -0.851390 0.460561 -0.134453 0.363146 -0.613632 -0.867025 -0.023189 0.875981 -0.701558 -0.529825 0.794393 -0.470003 0.814123 -0.362904 -0.734199 -0.387141 0.416506 -0.906939 0.389238 -0.248557 0.890258 0.576720 0.457097 -0.890082 -0.082950 0.513510 0.123421 -0.413937 -0.839810 -0.160235 -0.051873 -0.691200 -0.699674 0.813673 0.671946 -0.313307 0.946649 -0.351243 -0.437326 -0.754910 0.118932 -0.642933 -0.224913 -0.066946 -0.005837 7711147.240732 
0.545913 0.133949 -0.064849 0.162112 0.024207 -0.488129 -0.380791 0.134125 0.428921 -0.867281 -0.742454 -0.985017 -0.707091 0.097311 -0.036890 -0.398291 0.397637 -0.223217 -0.726345 -0.915669 -0.276568 -0.077588 -0.352995 -0.031477 -0.958656 0.004071 0.743610 -0.025602 0.998234 -0.215502 -0.479689 -0.591097 0.918447 0.455462 0.571015 -0.057347 0.967332 -0.809776 -0.923221 0.396253 -0.677057 -0.665675 0.411236 -0.384147 0.431636 -0.625654 0.217562 -0.170726 0.151129 0.491217 -0.086396 0.874562 -0.586371 0.560609 -0.156916 -0.545027 -0.435319 -0.413306 0.429371 -0.437085 0.371192 0.949682 -0.028182 0.289639 0.405144 -0.457167 -0.767708 0.372476 -0.266942 -0.690929 -0.231271 0.056001 -0.356604 -0.820035 0.671853 -0.924968 -0.445689 -0.110585 -0.095694 0.705441 -0.619367 0.817910 0.580002 -0.205738 0.378519 -0.576913 0.249235 0.943200 0.009780 -0.321394 -0.493885 -0.619028 -0.371712 0.477933 0.670610 -0.966568 -0.979234 0.902903 0.405908 -0.246176 -0.788027 -0.825363 0.809825 -0.144631 -0.645398 0.481678 -0.069599 -0.091087 -0.628907 0.834706 -0.385646 -0.248274 0.652616 -0.805643 0.545988 0.031136 -0.382557 -0.204777 -0.025664 0.627223 0.473829 0.480450 -0.991805 -0.897883 -0.041617 0.678806 -0.864452 8172897.966966 
0.581708 0.732973 0.793681 0.716093 0.542798 -0.350950 -0.929305 0.024476 0.579451 -0.020392 0.395570 0.414157 0.593962 -0.852704 0.066773 0.788319 0.693284 -0.902091 -0.594238 -0.511493 0.072245 -0.967015 0.962336 -0.447305 -0.958819 -0.935547 0.511078 0.719987 -0.799999 -0.509772 0.301695 0.741458 -0.776799 0.095376 0.457550 0.766000 0.744426 0.528245 -0.209524 0.323877 -0.492147 -0.813955 -0.261966 -0.898185 -0.666659 0.804807 0.890134 -0.973375 0.902716 -0.704104 -0.484868 -0.025039 -0.671118 -0.522532 0.527656 -0.629938 -0.458079 0.038734 -0.909951 -0.258077 0.528962 0.391744 -0.516620 0.752164 -0.512880 0.940930 0.518164 -0.768454 0.469175 -0.691361 0.555424 0.977028 -0.505315 -0.706543 -0.921156 -0.171974 -0.901735 0.968978 -0.145349 -0.999019 -0.735126 0.369783 -0.024058 -0.406244 0.847251 -0.496402 -0.036182 -0.610828 0.542333 0.053867 0.131094 0.071295 -0.554389 0.614474 -0.176541 -0.067269 0.555405 -0.658378 0.164277 0.024580 -0.349738 -0.280299 0.001609 0.144946 0.013158 0.080452 0.972972 0.111423 0.049430 -0.172377 0.112404 0.314305 -0.802595 -0.911654 0.908060 -0.955344 -0.408056 -0.128122 -0.566172 -0.865723 0.925745 0.564922 0.205572 -0.628644 0.179397 -0.970969 0.304086 2118917.273806 
-0.629347 0.759382 0.020915 0.188064 -0.239010 -0.834138 -0.798778 0.841443 -0.861167 0.312645 -0.109127 -0.033544 -0.574951 -0.794822 0.163861 -0.486605 -0.886762 0.208517 0.105339 -0.014884 0.642345 0.239616 -0.089138 0.207267 -0.554811 0.282217 -0.613336 -0.525780 -0.413696 0.121465 -0.155127 0.054667 -0.119153 0.865788 -0.757269 0.641837 -0.968350 -0.556047 0.483280 -0.829517 0.756597 -0.625847 0.136939 -0.818354 -0.420669 -0.699199 -0.304959 -0.307431 0.509318 0.800380 0.677685 0.151663 0.039997 -0.411454 -0.641070 0.485185 0.870764 -0.254406 0.959405 -0.542933 0.867059 -0.195722 0.511734 -0.252094 -0.329933 0.754465 -0.610256 -0.298284 -0.801583 0.873023 -0.127800 0.955015 -0.752824 -0.990861 -0.863339 -0.173493 -0.690060 -0.168298 0.519076 0.819258 -0.367918 0.196761 -0.029079 0.672079 0.785307 0.329851 0.157264 0.656071 -0.924555 0.116669 -0.886862 0.942505 0.920947 0.624872 -0.309589 -0.408986 0.379336 0.080154 0.292730 0.577754 -0.046822 -0.835070 0.532768 0.200354 -0.825931 0.669429 -0.973139 -0.515991 -0.498869 0.545937 -0.696733 0.133213 -0.257302 0.274188 -0.194709 -0.471995 -0.395961 0.962555 -0.815925 -0.320516 0.079225 -0.702787 -0.378012 0.000172 0.922085 0.312399 0.591186 2122038.863661 
-0.607446 -0.120825 0.345731 0.048847 -0.588057 -0.453914 0.222916 -0.918628 -0.427053 0.706925 -0.417497 -0.881116 -0.989808 0.715715 -0.138418 0.284379 -0.478993 0.389586 0.888418 -0.516438 0.573662 -0.432098 0.562787 0.870874 0.189890 -0.437041 0.792959 -0.497711 -0.845855 0.094380 -0.105157 0.038062 0.973555 -0.759426 -0.913092 -0.614502 -0.213340 0.309824 -0.533130 0.359607 0.016749 0.049373 0.478491 0.026941 -0.234911 -0.659927 -0.688680 0.286095 0.729659 -0.800262 0.769657 0.303321 -0.232361 0.332444 0.174196 0.957529 0.895403 -0.032845 -0.540182 -0.950452 -0.938465 0.354661 0.087610 -0.964910 0.595235 0.174518 -0.579412 -0.618106 -0.515658 -0.112542 0.741501 0.501091 0.936831 0.219992 -0.471969 -0.298080 0.560065 -0.160649 0.988015 0.289725 0.039089 0.757673 -0.406954 0.806728 0.090117 0.767241 0.764257 -0.014480 -0.265604 -0.775924 0.035068 -0.204069 0.578736 -0.877322 -0.168980 0.173971 0.297196 0.251608 0.555866 0.781538 -0.860934 0.297367 0.282628 -0.924103 -0.482641 0.810660 -0.222183 -0.922576 -0.349989 -0.234168 0.367149 0.689100 -0.476495 0.960195 0.495828 0.613622 0.727436 0.260085 -0.400858 -0.538168 0.484161 0.634210 0.257763 0.062897 0.756888 -0.911217 -0.763132 20868738.687478 
0.340391 -0.164379 0.479457 0.090101 -0.881751 0.555355 0.607460 0.928909 -0.666828 0.684884 -0.421080 0.099004 0.052033 -0.731981 0.622509 0.012229 0.763847 0.236131 -0.260335 0.023932 0.835273 0.201497 -0.491907 0.469483 -0.540740 0.570990 0.226370 -0.451957 0.807859 -0.719547 0.888435 0.600593 0.116074 0.367892 -0.309307 0.234323 -0.076753 -0.701847 0.163232 0.256418 0.983037 0.742152 -0.644577 0.035071 -0.989828 0.977932 -0.952701 0.774019 0.214063 -0.213036 -0.202049 0.049336 0.988461 0.306044 -0.481182 -0.552278 -0.122966 0.745188 -0.004235 -0.315107 -0.974358 -0.115800 -0.714515 0.141716 -0.747908 -0.023821 -0.623961 0.175339 0.274332 0.539272 -0.568243 0.257369 0.281424 -0.212820 -0.707560 0.291596 -0.234888 -0.660261 0.065615 0.979175 0.126703 0.863566 0.028511 0.115164 0.169610 0.547329 0.562886 -0.953356 0.292517 -0.441349 -0.268463 0.318159 0.442851 0.017023 -0.540125 0.694943 0.993201 -0.164086 -0.129719 0.267533 -0.624814 0.302038 -0.475098 0.656610 -0.910782 -0.182659 -0.051794 -0.145670 0.157080 -0.986180 -0.166495 -0.716217 0.877386 0.862015 0.398948 0.046995 0.409344 -0.038166 0.093640 -0.298138 0.520485 0.825177 -0.979979 -0.036664 -0.157801 -0.520104 -0.341722 2103329.019008 
0.315810 -0.897067 0.690996 -0.169402 -0.372165 0.347606 -0.080184 0.445177 -0.704189 0.774146 -0.397743 -0.690368 -0.392349 -0.113960 -0.812983 -0.530334 -0.715012 0.234013 0.879010 0.246821 -0.672348 -0.419128 -0.232694 -0.847171 -0.399107 0.730641 -0.004972 0.080788 -0.611080 0.830429 -0.603402 0.917479 0.933362 -0.912406 -0.251923 -0.438802 0.435200 0.667893 -0.993626 0.731011 0.442039 -0.391369 -0.959357 -0.950310 0.494671 -0.772340 -0.480644 0.779659 0.461673 -0.601634 0.026480 0.789326 -0.020762 0.793786 0.942155 0.580131 0.524428 -0.062817 -0.339081 0.913347 -0.232388 0.057517 0.830827 -0.299025 0.145111 -0.421096 0.262172 -0.419689 -0.753202 0.268547 -0.688677 0.688837 0.877178 -0.648034 0.738527 0.371850 -0.420374 -0.742117 0.151509 -0.958700 -0.343751 -0.822011 0.830625 0.635487 0.971776 0.772780 0.215618 0.496203 -0.290037 0.876537 0.409551 0.477575 -0.065945 0.240377 -0.821450 -0.920834 0.819282 0.440722 -0.340522 -0.933921 -0.290731 -0.029199 0.754916 -0.413553 0.322767 0.493443 0.958297 0.902393 0.751326 0.109806 0.943693 -0.592424 0.287795 0.774318 -0.956937 0.259570 0.547098 0.258681 -0.244226 -0.742939 0.135218 -0.834676 0.734636 -0.930727 0.405702 0.913186 -0.851561 14237134.674615 
0.353908 0.291063 -0.936823 0.778717 0.045979 -0.350376 0.101484 -0.460578 -0.392080 0.003877 -0.709252 0.717726 -0.052430 -0.301677 0.005521 -0.278113 -0.258614 -0.734909 -0.731015 -0.999932 0.020865 -0.473954 0.135286 0.186189 -0.739319 0.204559 -0.408109 -0.826133 0.352998 0.816875 0.527775 -0.839085 0.107938 0.590951 0.939632 -0.846084 -0.759425 0.041116 -0.306662 -0.151505 -0.955007 -0.015914 -0.433779 -0.007437 0.682409 0.571742 0.714450 -0.576204 0.836834 0.983435 -0.576137 -0.142301 -0.490519 0.559149 -0.956112 -0.229838 -0.236292 -0.364221 -0.055971 -0.883293 -0.547346 -0.528196 -0.722378 0.560592 -0.937245 -0.782746 0.714508 -0.696670 0.258371 -0.592154 0.151825 0.303364 0.391932 0.718047 -0.704074 0.074341 0.289789 -0.989624 0.498137 0.126623 0.993811 0.922000 0.984321 -0.496708 0.481149 -0.971791 0.273454 -0.755143 -0.336011 -0.782517 -0.638436 0.116643 -0.310714 -0.360814 -0.322765 -0.247959 -0.143560 -0.608257 0.055371 -0.885189 -0.200411 -0.792804 0.418175 -0.808479 0.925243 0.714101 0.265862 0.215032 0.724477 -0.236002 -0.658345 0.718289 -0.314002 -0.674024 -0.778419 -0.832853 -0.645815 0.495034 -0.587995 0.018174 0.712517 -0.226431 -0.865183 -0.598197 0.412755 -0.187948 0.153844 3820626.713708 
0.203795 -0.615994 -0.996616 -0.583588 0.802181 -0.805096 -0.658345 0.516282 0.460766 0.556688 0.240759 -0.775235 0.898343 -0.040952 -0.089237 -0.775681 0.180628 0.077910 -0.421496 -0.324337 0.489914 0.596678 -0.611820 -0.736517 0.731494 -0.210017 0.676238 -0.456454 0.943827 0.945433 0.747341 -0.846957 -0.670561 0.750725 -0.430545 -0.868380 0.945629 -0.088890 0.647902 0.406395 -0.532202 -0.111339 0.631160 -0.633859 0.847708 -0.458078 -0.409541 0.028337 0.619832 0.168963 0.703999 0.109746 -0.234359 -0.907821 0.373229 -0.502865 -0.117838 0.049467 0.040681 -0.174010 -0.005099 -0.211978 -0.020967 0.324340 -0.461253 0.548488 0.455960 -0.515624 -0.540402 0.103861 0.890771 -0.072604 0.992522 0.521931 0.293537 0.840230 -0.936147 0.883996 -0.131433 0.683685 0.052959 -0.427433 -0.206569 0.818600 -0.335254 -0.833339 -0.684265 0.546908 0.216128 0.356416 -0.627102 -0.788971 -0.855562 0.351930 0.535369 -0.316815 -0.099582 -0.008672 0.167560 0.360016 -0.904810 0.058331 -0.712587 -0.912288 -0.419738 0.580950 0.927942 -0.355885 0.464946 -0.203490 -0.672200 -0.482095 0.369076 0.121231 -0.663495 -0.966178 0.287891 -0.347760 0.580730 -0.495981 -0.991344 0.953628 -0.284952 -0.846906 0.305558 -0.749583 -0.163721 2067571.107092 
0.241745 0.565992 0.336935 0.062170 0.853405 0.424647 0.642432 0.434355 0.352589 -0.713453 -0.100699 -0.850901 -0.385653 0.417206 0.518175 0.735577 0.753711 0.551997 0.023469 -0.594049 0.132727 0.527488 -0.585393 0.086355 -0.757464 -0.432299 -0.608087 -0.507047 0.403980 -0.402111 0.734698 0.407819 -0.836119 0.071633 -0.530011 -0.982714 -0.503720 -0.887579 0.451641 0.848869 -0.601032 -0.649058 0.997968 0.013315 0.768148 0.516143 -0.251108 0.521858 0.068141 0.772361 0.927809 -0.799132 0.299849 -0.657584 0.287223 0.542385 -0.089884 0.679136 -0.964662 -0.685904 -0.722975 0.770036 0.721915 -0.559094 -0.158332 -0.808096 -0.541808 0.337948 -0.695675 0.909833 0.186817 -0.296706 -0.739225 0.184785 0.716609 -0.971077 -0.299072 -0.534499 0.550781 0.769069 -0.762137 0.478590 0.969938 0.537712 0.821006 0.257161 0.080097 -0.268878 -0.063703 0.115436 0.045218 0.213322 -0.114529 -0.232867 0.654228 0.727140 -0.040963 -0.887580 0.065088 0.263362 -0.977747 -0.748096 0.966656 -0.716972 0.436689 0.683265 -0.688049 -0.862382 -0.851234 0.862732 0.906687 -0.613371 0.341322 0.876625 0.924340 0.162328 0.133786 0.004438 0.893451 -0.929917 -0.880127 -0.061331 0.283405 0.005345 0.705802 -0.062368 -0.267516 3504622.337987 
0.050052 0.928202 0.072305 -0.950524 0.894858 0.355334 0.486165 0.578122 0.667284 0.623783 0.726888 0.530016 0.530470 -0.886483 -0.128661 0.407095 -0.962143 -0.966333 -0.459119 0.042295 0.927118 -0.389036 0.162169 -0.134213 0.894369 -0.832487 -0.428411 -0.167999 -0.100002 0.236428 0.882053 -0.302431 0.164630 -0.045641 -0.252954 0.059488 -0.690308 -0.766789 -0.362390 0.976977 0.856994 -0.635502 0.506993 0.387465 -0.521985 -0.621668 -0.205440 -0.484128 -0.588001 0.335441 0.558168 -0.660883 0.946404 -0.279664 0.204904 0.840773 -0.112151 0.776493 -0.327226 0.787847 0.012922 -0.445173 -0.514583 -0.822448 0.509186 0.232462 0.237039 0.818879 0.465673 0.874649 0.795856 0.322668 -0.760853 0.302849 -0.289868 -0.282838 0.681181 0.504692 0.233035 -0.906820 -0.159867 -0.208798 -0.567703 -0.213463 0.511539 0.637201 -0.372690 -0.600612 0.413695 0.300084 -0.812765 -0.573384 0.854911 -0.327348 -0.395832 0.364098 0.905114 0.841207 0.182976 0.370788 0.715856 -0.021168 -0.306545 0.955004 -0.718319 0.403588 -0.327834 0.962862 -0.091720 0.905201 -0.943958 0.748413 -0.303597 -0.511660 -0.465050 -0.792058 -0.874459 0.162260 -0.392670 0.539236 -0.537656 -0.205435 0.965852 -0.682745 0.467217 -0.429980 0.681353 4536517.395451 
-0.588772 -0.256882 -0.872916 0.843161 0.436574 -0.917912 -0.875158 -0.159839 -0.245746 -0.912296 0.748441 -0.340545 -0.856253 0.496854 0.355858 -0.367913 -0.968196 0.563799 -0.242372 0.194063 -0.828871 -0.703137 0.656407 -0.034306 -0.737284 0.973663 -0.567090 -0.167264 0.655016 0.805241 0.243963 -0.480655 -0.451641 0.371048 -0.637494 0.984933 0.453135 -0.512651 -0.174906 -0.792611 -0.424947 -0.426465 -0.133156 -0.281200 -0.929611 -0.777298 0.350886 -0.897807 0.786501 -0.891486 0.296256 0.957630 -0.594622 -0.047336 -0.076676 -0.331907 -0.073674 0.356234 0.500829 -0.418658 0.161475 -0.255208 0.100687 0.709834 -0.884160 0.463193 0.694767 0.568975 0.950541 -0.480139 0.776365 -0.474406 0.093396 -0.356791 0.244394 0.163785 -0.134090 -0.404719 0.265978 -0.347589 -0.296205 -0.437766 -0.389959 0.109172 0.514898 0.533365 0.777265 -0.558776 -0.110401 0.278094 0.022565 -0.948925 -0.977114 -0.876748 0.760909 -0.861274 0.586445 0.455676 0.707701 0.536986 0.975537 0.484066 -0.937419 0.068933 -0.872726 0.306975 -0.767282 -0.006815 0.902256 0.498696 0.645596 -0.393950 -0.939069 -0.744363 0.715222 0.575828 0.789002 0.492488 -0.982948 -0.321398 -0.229418 0.039617 -0.270324 -0.206532 0.162870 -0.509415 -0.067806 10734497.216780 
0.946261 -0.713699 0.921798 -0.876039 -0.651118 -0.009268 -0.748765 0.655857 0.223450 0.244420 0.558112 -0.277854 -0.109984 -0.835838 -0.216923 0.145653 0.879385 -0.641095 -0.065345 0.371872 -0.624043 0.613257 -0.857546 0.415575 -0.657067 -0.064078 -0.421556 -0.166481 0.868116 0.327759 -0.220220 -0.491989 0.614060 -0.298421 -0.368028 0.962942 0.692310 -0.116792 0.618798 -0.084240 -0.872372 0.176911 0.637907 0.017643 0.341073 -0.579016 -0.836704 0.220458 -0.220111 0.097951 -0.407670 0.155846 -0.288792 -0.265216 -0.428580 0.054142 0.670706 0.149865 0.887661 0.538822 -0.522377 -0.332559 -0.953167 -0.908317 0.369019 -0.321194 -0.945375 0.061330 0.562013 0.673423 0.977090 0.689641 -0.149666 0.614996 -0.292716 -0.808593 -0.964020 -0.129420 0.411865 -0.184131 0.968531 -0.995804 0.971715 -0.320260 -0.261020 -0.456865 0.733881 -0.590314 0.693000 0.621542 0.948509 -0.829377 -0.711017 0.995342 -0.737694 0.658002 -0.325852 -0.683069 -0.280668 -0.763839 0.990355 -0.303578 0.925802 -0.159311 -0.688582 -0.366914 0.032096 -0.652602 0.503666 -0.556039 0.163267 0.472197 -0.551843 0.134981 -0.848063 0.187137 0.678116 0.885818 0.596824 0.371116 0.507360 0.545332 0.541739 0.796343 0.540674 0.804046 0.454345 8653734.889879 
-0.879023 -0.549017 -0.888668 -0.129901 -0.623216 -0.047980 0.181517 0.009870 0.984116 0.528915 -0.486464 -0.571922 -0.307818 0.985733 -0.123765 0.827163 -0.862330 -0.936628 0.505279 -0.976512 0.660196 -0.123604 0.530849 0.205528 -0.581865 0.327192 -0.253797 -0.777819 -0.218462 -0.038975 -0.656842 -0.044785 0.412008 -0.545510 0.825314 0.788792 0.406510 0.006831 -0.201338 0.390626 -0.464255 0.312198 0.818704 0.227927 0.297931 -0.305061 0.055090 0.435601 -0.241689 -0.439630 0.459089 -0.581493 0.436765 -0.010062 0.624036 0.854900 -0.682870 -0.629761 -0.922919 0.098668 0.331264 -0.579761 -0.946117 -0.256729 -0.125271 0.879197 -0.467937 -0.718761 -0.113973 0.330725 0.671865 0.421773 -0.357077 0.490569 -0.350300 0.940854 -0.814491 0.704790 0.376455 -0.056180 -0.734841 -0.164456 0.362327 0.701924 0.825483 -0.013637 0.556825 -0.857387 0.356602 0.633905 0.241281 -0.312134 -0.945856 0.295164 0.431137 -0.071127 0.174361 0.963200 0.210112 -0.939612 0.293925 -0.118023 0.482161 0.936849 -0.627454 -0.868140 0.877703 -0.441945 0.836650 0.254158 0.501875 -0.898191 -0.910298 -0.135798 0.803734 0.915185 0.850565 0.360558 -0.942202 0.207167 -0.005536 0.299079 0.895033 0.048608 -0.405757 0.326170 0.977481 13080856.413162 
0.289370 0.828992 -0.416705 -0.930431 0.311152 -0.479857 -0.557885 0.443012 -0.602154 0.000170 0.279662 0.652004 -0.497956 0.381472 0.741706 0.366247 0.185205 0.656891 0.216812 -0.454236 0.714688 -0.576021 0.540227 0.013767 -0.680988 -0.411165 0.608010 0.645182 -0.433684 0.376614 -0.065448 0.753909 0.205606 0.517847 0.823478 -0.483242 -0.962010 -0.734407 0.959770 -0.564164 0.265763 0.239433 -0.912160 0.767807 -0.379095 0.829546 0.134054 0.806110 0.486437 -0.649134 -0.648126 0.201125 -0.225155 0.892101 -0.785108 0.093857 -0.519063 0.822903 -0.260961 0.047253 0.199517 0.673591 -0.198838 -0.594877 0.191437 -0.375360 -0.078119 0.229427 -0.109767 -0.118349 0.665264 -0.844004 -0.878916 0.753104 0.923803 -0.258011 0.582650 0.057857 -0.451901 0.069086 0.408723 -0.100028 -0.729789 -0.816432 -0.207927 -0.514896 0.277425 0.273010 -0.691994 -0.983535 -0.679737 0.507523 0.690055 0.121425 0.912646 -0.118507 0.746065 -0.165473 -0.889080 -0.363703 0.716178 0.776184 -0.207707 0.837262 0.529288 -0.283904 -0.420749 0.111938 0.773954 0.127350 -0.818976 0.182677 -0.972678 -0.548765 0.366245 -0.180605 -0.063661 -0.356330 -0.907595 0.244345 -0.339865 -0.587332 -0.248132 -0.649810 0.534093 -0.335486 0.231683 5878799.438375 
0.499041 0.916455 0.215219 0.118788 -0.291252 0.052481 -0.351925 0.424845 0.631732 0.760013 0.198798 -0.240918 0.941037 -0.618525 -0.213596 -0.607728 0.747719 0.605799 0.328611 -0.608611 0.698204 -0.427044 0.051524 -0.889127 0.324825 0.401714 0.644966 0.989339 -0.366603 -0.074876 0.488380 0.976000 -0.158421 -0.296401 0.094788 0.550328 0.756080 0.742863 -0.024828 0.387813 0.502876 -0.826029 -0.853106 0.443913 -0.444554 -0.066702 0.836186 -0.696835 -0.460903 0.164797 -0.305445 -0.762699 0.737753 0.746078 -0.651826 0.062578 0.147792 0.993140 0.051917 0.781189 -0.081736 -0.459703 0.757190 0.759843 0.243897 -0.148022 0.310171 -0.000023 -0.405159 -0.714657 -0.612210 -0.902283 -0.540686 -0.465316 0.541631 0.014760 0.467982 0.377816 0.317925 -0.992921 -0.457387 -0.987520 -0.755620 -0.719634 0.758558 -0.407446 0.342944 -0.093649 -0.414306 -0.605139 -0.312460 0.503958 -0.064842 -0.555270 0.263802 -0.820945 0.296707 -0.426027 0.179032 0.891548 -0.140684 0.566822 0.989265 0.318631 -0.898494 0.530896 -0.666609 0.569487 -0.091288 0.651316 0.576566 0.451325 0.663795 0.820946 0.731691 0.422353 -0.586500 0.074635 -0.671296 -0.000806 0.469496 0.016244 -0.496848 -0.595346 0.460974 0.766954 -0.416291 7741675.421999 
-0.659073 -0.350771 0.200244 0.329563 -0.361506 -0.481126 0.431068 -0.830610 -0.147735 0.000555 0.078102 -0.496420 -0.422879 -0.470573 -0.832624 -0.601933 -0.738882 0.589729 -0.188433 0.335753 0.918433 0.810761 -0.194752 -0.065323 -0.686086 0.209902 -0.604349 -0.919132 0.793611 0.153332 -0.578205 0.556352 0.802560 0.622039 -0.114086 -0.558945 -0.859087 -0.683017 -0.389555 -0.006822 0.317538 0.688547 0.496758 0.894659 -0.782026 0.664134 -0.707273 -0.520908 0.253863 0.104294 0.814845 0.172297 -0.084945 -0.379907 -0.893026 0.228968 0.829995 -0.497375 0.309836 0.623606 0.655956 0.731631 0.179958 0.458517 0.353670 -0.934127 0.899571 0.494583 -0.617145 -0.489984 -0.512239 0.700393 -0.801437 0.984519 0.595052 -0.583463 0.648653 0.887779 -0.104371 -0.097484 -0.007927 -0.289526 -0.925187 0.907128 0.330567 -0.818213 0.136096 0.160563 -0.315588 -0.554068 -0.215831 -0.659632 -0.822436 0.964127 0.798885 0.531234 -0.970000 0.698456 0.025817 -0.587145 -0.791528 0.513578 -0.886752 -0.592965 0.498097 0.708300 -0.176428 0.146750 0.596079 0.719202 -0.950733 -0.411848 -0.570324 -0.875920 -0.504720 0.760243 -0.694133 0.631376 -0.079194 -0.009722 -0.922691 0.704975 0.330646 -0.745128 0.669102 0.129531 0.786107 12403237.643342 
-0.172014 -0.888044 0.036458 -0.674498 -0.774797 0.443493 0.823599 0.933503 -0.732935 -0.029650 0.529582 0.986267 0.019616 -0.882265 -0.584057 0.143696 -0.386985 -0.823814 0.449563 -0.755609 0.096992 -0.560159 -0.678301 -0.198034 0.770487 -0.423428 -0.528932 -0.099982 -0.637322 -0.829831 0.728004 0.174602 -0.717875 -0.235537 0.500104 -0.492672 -0.792044 0.323703 -0.559169 -0.524979 -0.705947 0.970414 -0.538712 0.313669 -0.911852 -0.122769 -0.542635 -0.298837 0.053417 0.906928 -0.054446 -0.849591 -0.653230 0.267253 -0.047624 -0.882743 0.843825 0.423444 0.017275 -0.793497 0.593613 -0.254721 0.381105 0.875738 0.509742 -0.118791 -0.616934 0.717698 -0.795087 -0.176103 -0.807281 -0.501035 -0.205689 -0.345993 0.812634 -0.117541 0.531238 -0.730000 0.583622 -0.415345 -0.823072 -0.470824 -0.264936 -0.476302 0.796429 0.687440 -0.359045 0.640254 0.110884 0.658230 0.846757 -0.295504 -0.596491 0.227863 -0.419766 0.913251 -0.890928 -0.036700 0.630949 -0.686015 0.787197 0.823668 -0.187050 -0.418492 -0.522325 -0.374416 0.463967 -0.991087 -0.104416 0.047590 -0.406431 0.072513 0.576766 0.328633 0.596211 0.373195 0.016073 -0.762834 0.013449 -0.873043 0.895396 -0.139793 -0.168547 -0.701095 -0.911930 0.411687 -0.787844 3902714.925584 
-0.625013 -0.488873 -0.837816 0.666773 0.324077 -0.256308 -0.855552 0.949661 -0.792341 -0.846639 -0.154755 0.255249 -0.253070 0.917758 -0.167985 -0.924437 0.513969 -0.794790 0.091636 0.751135 0.218660 0.218593 0.646530 -0.921134 -0.949954 0.945435 -0.833064 0.461733 -0.842409 -0.635922 0.836721 -0.999304 -0.124796 0.998905 0.667468 -0.800719 -0.257403 0.811916 -0.851058 -0.049744 0.965277 -0.005813 -0.794495 -0.287793 -0.088054 0.037520 -0.212230 -0.574085 0.242730 0.879406 -0.822951 -0.538610 0.097999 0.823580 -0.459743 0.148045 0.769015 -0.292807 -0.390222 0.926606 0.071270 -0.553501 0.927302 0.946475 -0.554596 0.594770 -0.854244 0.188000 0.406686 -0.705302 -0.861744 0.371962 0.288885 -0.656238 -0.915831 -0.799169 0.381282 -0.128061 -0.373255 -0.375988 -0.248656 -0.196205 0.085402 0.849343 -0.372625 0.625659 -0.002612 -0.603611 -0.667148 0.607166 -0.677005 0.404122 -0.946335 -0.749703 0.350597 -0.500931 0.845066 0.496353 0.687069 0.251752 0.791051 0.825326 -0.376285 0.079936 -0.830913 -0.292116 0.280766 0.550369 0.579822 0.907512 -0.825619 -0.668834 -0.288694 0.259784 -0.819491 0.338681 -0.114557 0.177897 0.735070 0.218295 -0.214937 -0.941934 -0.377583 -0.161272 -0.691638 0.973014 0.337797 4770250.626448 
0.469367 0.405181 0.260417 -0.149808 -0.971104 -0.659647 0.019279 -0.263221 0.621119 -0.430352 -0.683399 0.528631 -0.255971 -0.352232 -0.760063 -0.996187 -0.171723 0.578618 -0.110744 -0.993826 0.313689 -0.892449 -0.208763 0.371754 -0.270032 0.629965 0.680116 -0.297019 -0.032238 0.833545 -0.827652 0.992628 0.238726 0.432765 -0.157181 0.267622 0.773118 0.862098 -0.995599 0.394237 -0.568254 -0.678998 -0.077133 0.175775 -0.031230 0.162805 0.179588 0.797046 -0.258577 -0.931155 0.803220 -0.944889 -0.823605 -0.405543 0.426865 -0.093637 -0.775578 0.106982 0.609344 0.192183 -0.059473 0.781692 0.184811 -0.820747 0.214457 -0.972370 0.446875 -0.012425 0.889728 0.451276 -0.618189 -0.678526 0.772278 0.304679 0.497249 -0.258952 -0.532517 -0.323163 -0.461906 0.208906 -0.254318 -0.658686 0.264017 -0.077923 -0.064229 -0.309117 0.828440 0.160193 0.797865 0.437784 -0.647624 -0.261608 0.219476 0.537187 -0.082355 -0.566067 0.564817 -0.635480 0.421508 0.454545 0.815796 0.803319 0.776019 0.588075 0.107998 0.273268 -0.670878 0.575481 0.950106 -0.132784 -0.215613 -0.304212 0.208531 -0.951595 0.617865 -0.855698 -0.260712 0.446305 0.304494 -0.462847 -0.115910 0.656870 0.275544 -0.896434 0.194057 -0.806810 -0.462501 8658802.688083 
-0.442290 -0.786580 -0.626493 0.762327 0.989439 0.961581 -0.129676 0.262708 -0.709296 -0.554194 0.212814 0.157920 0.230193 0.908601 -0.633549 0.278598 0.526467 -0.489248 -0.982114 -0.027228 0.815247 -0.444962 0.856862 0.472117 0.830583 0.960428 -0.333825 -0.976227 -0.502073 0.425049 -0.418517 -0.543066 0.638469 -0.045010 -0.780739 0.627908 -0.083429 0.089585 -0.109384 0.207275 0.535391 -0.896570 -0.634805 -0.234416 -0.987969 -0.268355 -0.955818 0.538498 0.242398 -0.937932 -0.488730 0.057645 -0.382894 -0.631868 -0.470238 -0.552311 -0.671441 0.195937 -0.528538 -0.173514 -0.379014 0.052945 0.283421 -0.740545 -0.992066 0.502682 0.887363 -0.075495 -0.407733 -0.222021 -0.868220 -0.872342 -0.118591 -0.503026 -0.106757 -0.106560 0.228620 -0.062575 -0.568062 -0.528983 -0.000507 -0.056792 0.528662 0.616600 0.311339 -0.941576 -0.935711 0.639899 0.254360 -0.464250 -0.533615 0.875346 0.588695 0.749806 -0.865199 0.596629 0.252488 -0.977836 -0.478866 0.844755 -0.199856 -0.347086 0.972414 0.681553 0.149888 -0.134344 -0.425007 -0.621492 0.803081 0.006931 -0.150475 -0.197425 0.950139 -0.621812 -0.580826 0.261478 -0.563388 -0.516537 -0.098623 0.690972 0.019213 0.367762 0.566318 -0.392092 0.117568 0.701119 -0.795463 4221026.239094 
0.723284 -0.785189 -0.476573 0.378585 -0.812775 -0.795020 -0.471526 0.052881 -0.220027 -0.093018 -0.144037 0.786904 0.756507 0.658537 0.737043 -0.865305 -0.922289 -0.001479 -0.428694 -0.438826 0.899898 -0.737722 0.580388 0.267660 0.828596 -0.811704 -0.614772 0.529716 -0.607167 -0.244715 0.252999 0.118505 -0.029904 0.776427 -0.502910 0.157321 0.981407 0.025564 -0.789798 -0.238621 0.932546 0.066165 -0.451717 0.689053 -0.275298 -0.714674 0.823748 -0.197586 0.283847 -0.604946 0.363588 0.183745 -0.342668 -0.056024 -0.548595 -0.514071 0.132271 -0.163366 -0.984356 0.525104 0.591918 0.268644 -0.356391 -0.437986 0.045070 0.140699 0.719335 0.026477 -0.833737 0.929538 0.787856 -0.901191 -0.004297 -0.663860 0.787862 0.720405 -0.378534 0.611609 -0.477181 0.905313 -0.993337 0.886407 0.089058 -0.336004 -0.169618 0.540464 0.149924 0.962654 -0.622903 0.165569 0.487758 0.969016 -0.565788 -0.868633 -0.468970 0.479283 0.272066 -0.749635 -0.494241 0.438329 -0.820097 -0.706384 0.537138 0.175605 -0.370245 0.324999 -0.103990 0.251221 -0.063391 0.418829 0.156534 -0.056728 0.305236 -0.754407 0.607267 -0.864382 0.786057 -0.242808 -0.901728 -0.836846 0.922760 0.586030 -0.867830 -0.643027 0.717397 -0.336800 0.836255 2500723.262169 
-0.086435 -0.572207 0.093467 -0.364370 0.964931 -0.730928 0.265385 0.289930 0.165083 -0.483394 -0.773461 -0.416089 0.673141 0.169810 0.889147 0.918733 -0.222922 -0.975235 0.704790 0.534269 -0.876963 0.867944 0.457030 0.709068 -0.999886 0.814002 0.426465 -0.336687 0.650258 -0.584071 0.576878 0.992272 -0.156279 -0.329655 -0.372098 -0.191348 -0.060583 0.893287 -0.901418 -0.895500 -0.590106 -0.674880 -0.311589 -0.916965 0.494931 -0.422441 -0.998232 -0.727992 -0.397676 0.706558 0.806278 -0.274639 0.574502 0.263307 -0.565571 0.574616 0.077310 0.860894 -0.762071 -0.272433 -0.723178 0.814807 -0.280161 0.120544 -0.514848 0.347741 0.929196 0.424569 0.241029 -0.972222 0.529069 0.650923 -0.647102 -0.782520 0.733957 0.847829 -0.204961 0.735725 -0.880163 0.397363 0.442283 0.926115 -0.877276 0.016785 0.189422 -0.442847 -0.408599 -0.733268 -0.581953 -0.170670 -0.005701 -0.305130 -0.355863 0.714138 0.815414 0.129288 0.061879 0.744609 -0.446142 -0.697092 0.772387 -0.917073 0.953830 -0.874715 -0.699593 0.687788 0.973113 0.095446 0.423513 -0.907050 -0.507191 -0.134204 -0.980935 -0.384466 0.882581 0.208487 0.172687 -0.526018 0.475219 0.590734 0.303312 -0.530483 -0.714396 0.947448 -0.816345 -0.898982 0.076737 3959222.662070 
